<?xml version="1.0"?>
<opencv_storage>
<ann type_id="opencv-ml-ann-mlp">
  <layer_sizes type_id="opencv-matrix">
    <rows>1</rows>
    <cols>3</cols>
    <dt>i</dt>
    <data>
      140 40 54</data></layer_sizes>
  <activation_function>SIGMOID_SYM</activation_function>
  <f_param1>1.</f_param1>
  <f_param2>1.</f_param2>
  <min_val>-9.4999999999999996e-001</min_val>
  <max_val>9.4999999999999996e-001</max_val>
  <min_val1>-9.7999999999999998e-001</min_val1>
  <max_val1>9.7999999999999998e-001</max_val1>
  <training_params>
    <train_method>RPROP</train_method>
    <dw0>1.0000000000000001e-001</dw0>
    <dw_plus>1.2000000000000000e+000</dw_plus>
    <dw_minus>5.0000000000000000e-001</dw_minus>
    <dw_min>1.1920928955078125e-007</dw_min>
    <dw_max>50.</dw_max>
    <term_criteria><epsilon>9.9999997764825821e-003</epsilon>
      <iterations>1000</iterations></term_criteria></training_params>
  <input_scale>
    5.5874151187260770e+000 -2.0273629296712610e+000
    5.1173275886303271e+000 -2.0352227248423214e+000
    4.7666959796278885e+000 -1.9253487606951232e+000
    4.3248495521067998e+000 -1.8429109718578189e+000
    3.5509930405527057e+000 -2.0260310067961194e+000
    3.4150839914469571e+000 -2.3540303982162714e+000
    3.7190900035443746e+000 -2.9400500330207504e+000
    3.7312239623962911e+000 -2.9728138933884880e+000
    4.9224246174221840e+000 -3.7350355807403584e+000
    5.5824654140970269e+000 -4.1374152462524334e+000
    5.4968343064430467e+000 -4.1411337619427595e+000
    5.1094614765109529e+000 -4.0930708825894691e+000
    4.9275645116500275e+000 -4.1526465737311069e+000
    4.7680645305268614e+000 -3.8481388927582372e+000
    4.5105556699730851e+000 -3.2124249433178442e+000
    4.4258662707255185e+000 -2.4111363579262548e+000
    3.3706491795389333e+000 -4.7780560312973341e-001
    3.7535578580249624e+000 -4.4469749484395105e-001
    4.2833578662848861e+000 -4.2962764920449148e-001
    4.7165856317533654e+000 -4.3273434522387227e-001
    5.7196637688052059e+000 -4.3095714718653220e+000
    5.8942731938814186e+000 -4.7358798721348538e+000
    5.8532191768930195e+000 -4.7167683968577654e+000
    6.0745096179407296e+000 -4.6262571435732172e+000
    6.3975819717064208e+000 -4.6173371383866799e+000
    6.7192236985358909e+000 -4.8110714344321623e+000
    6.6859633152694151e+000 -4.8056180273304321e+000
    6.5061410196337555e+000 -4.7288157189466862e+000
    5.5978555225269817e+000 -4.1611648095732772e+000
    5.4069274799439677e+000 -4.1589502848513593e+000
    5.4529219490036693e+000 -4.1293847636376153e+000
    5.6251294178135574e+000 -4.0313088157838193e+000
    5.9169228474117634e+000 -4.0717729923706312e+000
    5.9382349536221088e+000 -4.1026904294185877e+000
    5.8272412383543966e+000 -4.1331902967476157e+000
    5.5956318189913521e+000 -3.9786868812250993e+000
    5.0966006401214230e+000 -3.7892186416311238e+000
    4.9868265751082195e+000 -3.8799068930821772e+000
    5.0295020334822400e+000 -3.8666757945432599e+000
    5.1559670326809979e+000 -3.7268342540989048e+000
    2.7761457392447980e-002 -2.2246804580902915e-001
    1.9628144945196074e-002 -2.9466126290463296e-001
    1.2604589087962718e-002 -7.3416491207304424e-001
    1.0439669030823249e-002 -1.4509027913034034e+000
    1.0119556895034989e-002 -1.6671468883749421e+000
    1.0974482624457892e-002 -1.9274660173661011e+000
    1.1471258230240821e-002 -1.7159476213474356e+000
    1.2863413493270835e-002 -7.1121146939153224e-001
    1.7300260471293891e-002 -3.0338217600120926e-001
    2.4411795581698554e-002 -2.2876652796309885e-001
    2.4143738818362577e-002 -2.4340908849386386e-001
    1.6388563215822292e-002 -3.2073916288785820e-001
    1.1390611223488400e-002 -9.2617094846821557e-001
    9.9324962201999510e-003 -1.5800275382202664e+000
    1.1617102089486433e-002 -1.3479025405523546e+000
    1.1335338099934039e-002 -1.4714495918171340e+000
    1.0196567832371019e-002 -1.6958854720628771e+000
    1.2164488201119011e-002 -9.0219245497298328e-001
    1.6145765619491988e-002 -3.1016253469419824e-001
    2.1627833867470522e-002 -2.3838266755800391e-001
    2.1283131990548945e-002 -2.4619089910219988e-001
    1.6576410987668388e-002 -3.1778214183551412e-001
    1.0807436875849221e-002 -9.1083878308072042e-001
    9.9308548752030639e-003 -1.3563448195251260e+000
    1.0301922386841647e-002 -7.4069850802517989e-001
    9.8971338906924580e-003 -7.8634254058639919e-001
    9.6806720750380274e-003 -1.2551138488221107e+000
    1.1448979763253604e-002 -8.3646675441596186e-001
    1.7490420230219735e-002 -2.9140511069933406e-001
    2.0945170550482468e-002 -2.2961595242075891e-001
    2.1774603432115115e-002 -2.3630784010673131e-001
    1.6677620466744446e-002 -3.2182631626654346e-001
    1.0618922541575131e-002 -9.0513351730555613e-001
    9.8817569076319715e-003 -1.4376224036259415e+000
    1.0048479440343351e-002 -9.5175842444061343e-001
    9.9977288618456114e-003 -9.9307702350121729e-001
    9.8647471705214981e-003 -1.2255336626239763e+000
    1.1539361355790317e-002 -7.6642455618632532e-001
    1.7987801354668161e-002 -2.8503453641151000e-001
    2.2594102432113575e-002 -2.1495628433984126e-001
    2.3077045512126963e-002 -2.2886875599952036e-001
    1.6934483175715675e-002 -3.1894083820294505e-001
    1.0732417468921921e-002 -8.7321135707660369e-001
    9.7404743815609485e-003 -1.5602112551340421e+000
    9.9765253895945649e-003 -1.5109960741739852e+000
    1.0942785475216762e-002 -1.8519884941830098e+000
    1.1064294895077462e-002 -1.8309726316031258e+000
    1.1446593737839468e-002 -7.6328083975155281e-001
    1.7248146645190435e-002 -3.0652958251985879e-001
    2.4560711898112930e-002 -2.0611122574554508e-001
    2.2151304805747750e-002 -2.3367151236246478e-001
    1.6712528203521346e-002 -3.1613426138693607e-001
    1.0808430013957263e-002 -7.8796099381065487e-001
    9.8139446511010062e-003 -1.3266268133688772e+000
    1.1057535436898325e-002 -1.1956872282632542e+000
    1.0322387242982071e-002 -1.3742026524892130e+000
    1.0489566853002470e-002 -1.6991198380317700e+000
    1.1338576388053063e-002 -8.4641433877735972e-001
    1.6078159442738355e-002 -3.1986698646042672e-001
    2.2139243022594655e-002 -2.2728778632792757e-001
    2.0003189937565544e-002 -2.5293303764079011e-001
    1.5931756007745577e-002 -3.3017935729599696e-001
    1.0625148587306595e-002 -8.2010368618930751e-001
    9.5058995379133787e-003 -1.0953975976471968e+000
    1.2148451117070013e-002 -6.6907198843678894e-001
    1.0558129050009945e-002 -8.2498789152994778e-001
    9.9312068979938162e-003 -1.3761732621825993e+000
    1.0907045721108118e-002 -9.0114887453828174e-001
    1.5548058140737430e-002 -3.3227489742521610e-001
    1.9843917366115533e-002 -2.4387146620099084e-001
    1.7910118568218596e-002 -2.8991968862478290e-001
    1.4465893646132591e-002 -3.7257835325706540e-001
    1.0612694435563058e-002 -1.0047437217374002e+000
    1.0103975780538456e-002 -1.4278873075406511e+000
    1.1039430794134079e-002 -7.6625296012604938e-001
    9.6077921412641293e-003 -8.3047003498093597e-001
    9.7023360647796909e-003 -1.3530642948071361e+000
    1.0887999055420958e-002 -9.3168795899849788e-001
    1.4887048120521020e-002 -3.3709285022905427e-001
    1.9141853747982638e-002 -2.5867961747512097e-001
    1.8640303258505259e-002 -2.9285671660039292e-001
    1.3888907530062092e-002 -3.7020315902023143e-001
    1.1080812983825829e-002 -1.0201272719678025e+000
    1.0325769889592225e-002 -1.7550330796392271e+000
    1.1951363081246197e-002 -1.4192892432793982e+000
    1.2415985860191063e-002 -1.5333709659500299e+000
    9.5462720642654347e-003 -1.5108479628099329e+000
    1.1939813054102012e-002 -8.8824317539693243e-001
    1.4851315146896631e-002 -3.3056249482615307e-001
    2.2209825287539328e-002 -2.4778740573419314e-001
    2.1641898101430874e-002 -2.4979990677990946e-001
    1.7194325752574940e-002 -3.2156175654338909e-001
    1.2357262284143702e-002 -7.1300264642279287e-001
    1.1073713861668492e-002 -1.5142086781974924e+000
    9.8409061032331512e-003 -1.5824627312848243e+000
    9.7118876036926642e-003 -1.4479343261097766e+000
    1.0825724853813277e-002 -1.3137173630750918e+000
    1.3418596656152916e-002 -6.2414738296787531e-001
    1.8401874073925791e-002 -2.8667628800390399e-001
    2.4973569703946628e-002 -2.1773905482583017e-001</input_scale>
  <output_scale>
    5.2631578947368418e-001 4.9999999999999994e-001
    5.2631578947368418e-001 4.9999999999999994e-001
    5.2631578947368418e-001 4.9999999999999994e-001
    5.2631578947368418e-001 4.9999999999999994e-001
    5.2631578947368418e-001 4.9999999999999994e-001
    5.2631578947368418e-001 4.9999999999999994e-001
    5.2631578947368418e-001 4.9999999999999994e-001
    5.2631578947368418e-001 4.9999999999999994e-001
    5.2631578947368418e-001 4.9999999999999994e-001
    5.2631578947368418e-001 4.9999999999999994e-001
    5.2631578947368418e-001 4.9999999999999994e-001
    5.2631578947368418e-001 4.9999999999999994e-001
    5.2631578947368418e-001 4.9999999999999994e-001
    5.2631578947368418e-001 4.9999999999999994e-001
    5.2631578947368418e-001 4.9999999999999994e-001
    5.2631578947368418e-001 4.9999999999999994e-001
    5.2631578947368418e-001 4.9999999999999994e-001
    5.2631578947368418e-001 4.9999999999999994e-001
    5.2631578947368418e-001 4.9999999999999994e-001
    5.2631578947368418e-001 4.9999999999999994e-001
    5.2631578947368418e-001 4.9999999999999994e-001
    5.2631578947368418e-001 4.9999999999999994e-001
    5.2631578947368418e-001 4.9999999999999994e-001
    5.2631578947368418e-001 4.9999999999999994e-001
    5.2631578947368418e-001 4.9999999999999994e-001
    5.2631578947368418e-001 4.9999999999999994e-001
    5.2631578947368418e-001 4.9999999999999994e-001
    5.2631578947368418e-001 4.9999999999999994e-001
    5.2631578947368418e-001 4.9999999999999994e-001
    5.2631578947368418e-001 4.9999999999999994e-001
    5.2631578947368418e-001 4.9999999999999994e-001
    5.2631578947368418e-001 4.9999999999999994e-001
    5.2631578947368418e-001 4.9999999999999994e-001
    5.2631578947368418e-001 4.9999999999999994e-001 1. 0. 1. 0. 1. 0. 1.
    0. 1. 0. 1. 0. 1. 0. 1. 0. 1. 0. 1. 0. 1. 0. 1. 0. 1. 0. 1. 0. 1. 0.
    1. 0. 1. 0. 1. 0. 1. 0. 1. 0.</output_scale>
  <inv_output_scale>
    1.8999999999999999e+000 -9.4999999999999996e-001
    1.8999999999999999e+000 -9.4999999999999996e-001
    1.8999999999999999e+000 -9.4999999999999996e-001
    1.8999999999999999e+000 -9.4999999999999996e-001
    1.8999999999999999e+000 -9.4999999999999996e-001
    1.8999999999999999e+000 -9.4999999999999996e-001
    1.8999999999999999e+000 -9.4999999999999996e-001
    1.8999999999999999e+000 -9.4999999999999996e-001
    1.8999999999999999e+000 -9.4999999999999996e-001
    1.8999999999999999e+000 -9.4999999999999996e-001
    1.8999999999999999e+000 -9.4999999999999996e-001
    1.8999999999999999e+000 -9.4999999999999996e-001
    1.8999999999999999e+000 -9.4999999999999996e-001
    1.8999999999999999e+000 -9.4999999999999996e-001
    1.8999999999999999e+000 -9.4999999999999996e-001
    1.8999999999999999e+000 -9.4999999999999996e-001
    1.8999999999999999e+000 -9.4999999999999996e-001
    1.8999999999999999e+000 -9.4999999999999996e-001
    1.8999999999999999e+000 -9.4999999999999996e-001
    1.8999999999999999e+000 -9.4999999999999996e-001
    1.8999999999999999e+000 -9.4999999999999996e-001
    1.8999999999999999e+000 -9.4999999999999996e-001
    1.8999999999999999e+000 -9.4999999999999996e-001
    1.8999999999999999e+000 -9.4999999999999996e-001
    1.8999999999999999e+000 -9.4999999999999996e-001
    1.8999999999999999e+000 -9.4999999999999996e-001
    1.8999999999999999e+000 -9.4999999999999996e-001
    1.8999999999999999e+000 -9.4999999999999996e-001
    1.8999999999999999e+000 -9.4999999999999996e-001
    1.8999999999999999e+000 -9.4999999999999996e-001
    1.8999999999999999e+000 -9.4999999999999996e-001
    1.8999999999999999e+000 -9.4999999999999996e-001
    1.8999999999999999e+000 -9.4999999999999996e-001
    1.8999999999999999e+000 -9.4999999999999996e-001 1. 0. 1. 0. 1. 0.
    1. 0. 1. 0. 1. 0. 1. 0. 1. 0. 1. 0. 1. 0. 1. 0. 1. 0. 1. 0. 1. 0. 1.
    0. 1. 0. 1. 0. 1. 0. 1. 0. 1. 0.</inv_output_scale>
  <weights>
    <_>
      7.8396604876408052e-002 -8.8187052447937619e-002
      3.7415275161607808e-002 1.4571823950115811e-001
      -1.0128215116487828e-001 1.4396933151642252e-001
      -9.1492729315186788e-002 -2.4825762186487005e-001
      -4.5772731552558996e-002 2.4921331924455911e-001
      7.0070818734886881e-002 -5.3509453768738857e-001
      6.1754734085857327e-002 1.4230774115151498e-001
      -8.6001311992784699e-002 4.3464600093261474e-003
      2.5129680026211965e-001 2.2848532749193737e-001
      2.9773162908864637e-001 -9.4285529980180471e-002
      8.6854522071674808e-003 9.0898083878227648e-002
      -8.0659091772396579e-002 2.0912639300927377e-002
      -1.9779268725337415e-001 1.3908046825898429e-001
      1.0759042037401727e-001 -1.5755053468730115e-001
      4.1562806335948598e-003 8.1888004462931840e-001
      -1.0814957414183904e-001 7.3721517497295844e-002
      -1.2881204867637666e-001 1.0820263332357227e-003
      1.0140898161158622e-001 2.3685367441440668e-002
      1.1186298361604427e-001 1.4384148970402033e-001
      -1.3392639385801069e-001 1.0999383186512196e-001
      -9.2183850160171735e-002 -2.1376866841259959e-001
      1.6524712405239405e-002 1.3103961589740026e-001
      -1.0351045188664182e-001 1.4130525204482519e-001
      -7.5687120972818697e-002 -4.7143811874283315e-001
      1.4574729437454656e-001 1.1846639982658513e-001
      -1.7633886234929903e-002 -9.9234963508317586e-001
      1.4106041346519307e-001 4.4458871123241664e-002
      -1.9012426041363611e-001 -4.8465300586697083e-002
      9.8780010107913652e-003 2.4857467946958586e-001
      3.2680858445031497e-001 -1.4346305042247190e-001
      -5.5267406509707407e-004 2.4621297738858250e-001
      -1.6875770675302201e-001 -3.0695819931965875e-003
      4.7965708913515082e-001 5.3120311820211610e-002
      4.2399660171206902e-002 -1.1840416094472622e-001
      -1.3480929635929759e-001 6.2840350377755216e-001
      -9.8679741233193313e-002 3.7720830743071386e-002
      -1.8751507130611578e-001 2.8335059113370451e-002
      1.8786490083572963e-001 1.0589292869659032e-001
      1.1972053816513721e-001 -2.1202624097409492e-001
      3.8239114742036132e-003 6.6175651222739429e-001
      -1.4487164939966754e-001 -1.6392622318781791e-001
      6.0917236658241759e-002 1.5455558099587754e-002
      -7.2815800080055976e-002 1.8253775074019660e-001
      1.2332635543112026e-001 -1.6921908111077300e-001
      8.8346813284328932e-002 2.7152163743065294e-001
      1.3741384426504380e-001 -3.6718930519631410e-001
      1.1871686645336137e-001 2.0166173526510434e-001
      -2.1183624808525531e-001 5.5713544461014619e-003
      1.3730528324151444e-002 1.9664490764661133e-001
      2.5160044879222992e-001 2.5402531852797935e-002
      -1.5479044121548949e-001 2.0971345372666392e-001
      -1.9530705064866533e-001 -2.6960733418964940e-003
      -4.3837610434160595e-001 1.3897364871443588e-001
      -1.0819817244174521e-001 -2.3970194776073293e-002
      -2.5769072995200715e-001 5.4937027226406535e-003
      -9.6629590091162565e-002 3.5138878145555864e-002
      -8.0729566231878963e-002 -1.1832187584983025e-001
      5.0510434175437255e-002 -1.2314720263835270e-001
      4.6149721382290301e-002 -4.0783020200155906e-001
      -5.3011604079433983e-001 -1.9412547142530455e-002
      -4.5705942883556817e-002 -7.2576355643431498e-002
      1.7464120645522532e-001 2.0965197062983058e-002
      3.5689453257095091e-002 3.6169824260389949e-002
      -5.2551252491377987e-002 -7.4945671187572546e-002
      -4.0029689925939638e-001 2.0001400519767712e-001
      1.3311328232412628e-001 2.3421960446211178e-002
      -5.0253960241702526e-002 2.0449370577237513e-001
      -2.8633692441508324e-001 -2.6435612718820789e-001
      2.4198147066722514e-001 1.0713653430692002e-001
      3.4335786912609904e-002 -1.5291255494213115e-002
      7.3900370893628603e-003 2.7206060322404446e-001
      6.5076408255793500e-002 -7.4474004715487374e-002
      -2.4867888654925571e-001 9.0044059698021331e-002
      -2.4992666297963181e-001 4.9079361209199993e-002
      7.6857129580927275e-002 2.8415097244169050e-002
      -9.6135386523113597e-002 7.0827651201116268e-002
      9.4680737622282726e-002 -9.0767025323047187e-002
      6.3969505875310376e-002 1.5651953511811639e-001
      -2.4999171647090798e-002 3.1202080698017737e-001
      -1.2488345182662720e-001 -2.6567513317012953e-001
      -3.8240725169009469e-002 -3.5089692288671939e-002
      4.1959176079671125e-002 9.0921852336916017e-003
      3.8218634771474323e-002 1.6221348716642221e-002
      7.9334606424955170e-002 -3.6659915101083414e-002
      1.0710708745903016e-001 1.6291951112094899e-001
      5.9983899615040238e-003 -8.9274507099579681e-002
      1.0961227474714669e-002 6.2365619152065038e-002
      -2.1537172445111918e-001 4.7072259025250557e-002
      2.9322691044208521e-001 2.2211411945108690e-002
      -2.1935185412520733e-001 -5.9949440146803118e-002
      8.4097700300317366e-002 2.4567714500763169e-001
      -1.4075310388210077e-001 -2.8933849538677402e-002
      3.2363615181863613e-002 7.3858960127526435e-002
      -3.5775634844109228e-002 -7.8612487446958715e-002
      2.4904953829338133e-002 -3.7487315081726293e-002
      8.4171432169113478e-002 1.0877307397735053e-003
      -9.3610772916535759e-002 1.2164188535739880e-001
      2.0890340573560390e-001 2.1371228270040558e-002
      9.9522248046938086e-002 -5.5415604742049179e-002
      4.9184034709704921e-001 5.1435330255078821e-002
      1.8417692752234749e-001 -3.7442566751052439e-002
      3.1512140345059080e-002 1.0943176133896856e-001
      -3.4186996833014904e-001 1.9609961554189778e-001
      -8.9887004319060937e-002 -1.5964033391448498e-001
      1.4095668797945663e-002 1.2556646050482634e-001
      -9.5290478163719494e-002 -9.7134379820157588e-002
      6.6340124908354323e-002 -1.1842014451034534e-001
      -3.9534641777815550e-002 7.0088341124786777e-002
      8.0353312989502462e-002 1.4537018064836746e-001
      1.6007358402788893e-001 -1.3841560064188421e-001
      -7.4392656215459180e-002 1.5100174399634572e-001
      -1.3958580324494291e-001 5.1553937804868092e-003
      3.1189785616986182e-002 2.8566494559371641e-002
      9.7391858873724285e-002 -2.0837548678218235e-001
      1.4032106376759979e-001 -4.6980923705664979e-002
      1.2019547539697537e-001 -4.7209577738124495e-002
      -1.4018334463071486e-001 3.7710741638754630e-001
      1.1161562129451552e-001 1.3216658468492442e-002
      1.0223307214448540e-001 -4.2629207107435507e-002
      3.5872470372374471e-001 -1.0903066295420601e-001
      1.0021635779989326e-002 -7.7820083702061407e-002
      1.1423124202216568e-001 1.3405461118468745e-001
      7.6287831402267678e-003 2.0537160541396179e-001
      -1.8574556884119778e-001 -7.7615422911881699e-002
      9.0759406659759165e-002 1.1218042178530617e-001
      -1.1427182909825725e-001 -2.7803060745634239e-001
      5.6530761403077154e-002 -6.0373509726551311e-002
      -3.7557999191586489e-001 1.1140838744870879e-001
      1.1509076443924435e-001 3.2748059482226122e-001
      1.5432803595966185e-001 -2.2239631783527311e-001
      -6.9755799940318386e-002 5.2818391219938654e-001
      2.4451081087418995e-002 -3.7233037975744599e-003
      -1.1419977379073858e-001 3.3713884612504054e-002
      1.6283550923662882e-001 -2.1501866281954449e-001
      -6.6772075495439467e-002 9.3457009061302998e-002
      3.8484392164322432e-003 4.4802521607946004e-002
      -2.7138592440499121e-001 1.9451962843122175e-001
      3.5599607415020529e-001 1.4005374344470903e-001
      1.1640847904317035e-001 -1.5591612384772940e-002
      -1.3663448962410021e-001 4.1837885697456390e-001
      -2.3630578991917402e-002 2.9971536382359418e-003
      -6.0360836013300971e-003 -5.0543015236524727e-002
      -1.7950582961530173e-001 1.3398258710553942e-001
      -1.5141493106366394e-001 -1.5887016349899954e-001
      2.3757035599101771e-002 3.4377823830913701e-002
      -1.1450485701246881e-001 -1.4516417452032793e-001
      4.5045053799469693e-002 -2.8178131876567813e-003
      9.0126306555006266e-002 -1.0678267544282140e-002
      1.1672584959090626e-001 3.9420509071165949e-001
      -2.6537257822531229e-002 -2.2059362310027220e-001
      -5.5548571377038565e-002 3.0123173562430169e-003
      1.1910109584326933e-002 2.3086811838265092e-001
      1.3647458895956532e-001 6.8836032014042689e-002
      4.2935260062842345e-002 -3.6232237627593994e-001
      -1.3864424598016292e-001 7.2220299655902587e-001
      -3.5914652052010201e-003 -1.3249980122206659e-001
      -2.2769555687639750e-001 -7.5878370220304858e-002
      2.0872331050387849e-001 2.4805755850380107e-001
      1.1145008942333022e-001 -1.2087895275281334e-001
      -1.9269970208243803e-001 1.8710402641855253e-001
      -1.6900284672419558e-001 -4.9263959036436156e-002
      2.0513928816727211e-002 5.8155963579571660e-002
      -5.3279969573472974e-002 8.5115161518683896e-003
      -1.0063274319762765e-001 -3.4662007525393272e-002
      4.9949644933375238e-003 1.9401420092783347e-001
      -2.1871173503048941e-001 -1.0015373972338326e-001
      -4.4927533650060303e-002 6.6343889535468742e-002
      -9.6825074962816199e-002 2.8744571808930003e-002
      7.4312306189767238e-002 4.1850853542460514e-002
      -4.3705964787708503e-002 -1.9777923944164708e-001
      -2.9537932795588674e-002 2.4998280046467020e-001
      -1.1877805477781565e-001 1.0054288668641595e-002
      1.2911619785392783e-001 1.6051126231038068e-001
      5.9903120313534099e-002 -2.4179372939486604e-001
      -2.7475049953688535e-001 1.1101685760193198e-003
      -7.2366520972111881e-002 -8.1773293196780034e-003
      1.1422975054822730e-002 1.2397518118173165e-001
      6.9428127039127457e-002 -4.4737530922770156e-002
      1.5866192885081601e-001 -2.8044594075127632e-001
      1.0165082239098271e-002 3.1711101580920292e-001
      2.6978745985271970e-002 9.7418405802000799e-002
      8.5941850942345757e-002 -5.0340443787179737e-002
      1.4668817566160033e-001 1.7303555405438825e-001
      -2.1934734321250168e-001 2.5819917360231437e-001
      -6.8878470471691279e-003 1.5132159446640672e-001
      -2.5358343780339448e-002 -2.1594245761403161e-001
      -9.0955150154452297e-002 -1.4941713860816882e-002
      -2.3982568856130276e-001 1.6060898219879671e-001
      -1.2163049005667739e-001 -9.7775196631032124e-002
      -1.6247751124827775e-001 3.4392409137027047e-001
      8.8171284668994850e-004 2.6456639209860577e-001
      8.0078489276686649e-002 3.5778709762290595e-001
      1.1837669686802339e-001 4.6899610070376158e-002
      -1.8477852925518834e-001 2.3188545241047236e-002
      1.2622323423917919e-001 -1.2355994140753844e-001
      -9.4604382725273148e-002 -3.4559437902042572e-001
      -8.1334032436462353e-002 -1.7613608497523150e-001
      -2.3381770724614678e-001 -1.0179376409586507e-001
      -2.7209578831421372e-001 1.1129811384090692e-001
      -3.3016989518746415e-001 -9.8155389595653342e-002
      3.0014812869701306e-002 9.0349334075866122e-002
      3.9030393348826617e-002 1.0974362178215662e-002
      1.1967127434369723e-001 1.6386528804832612e-001
      1.2031638428518820e-001 2.6990885984420399e-001
      -1.7444051981059347e-002 1.0196617827198343e-002
      -9.2869011372143762e-002 -1.7169168492597844e-001
      -4.7982628649604696e-002 -2.7623539380328771e-002
      -2.3504587473945471e-001 4.5649625992673366e-002
      -1.5027402340460821e-001 -1.2261736503694505e-001
      -5.7212855544798311e-002 3.9659832132846495e-001
      5.3732804256114959e-003 9.7243767080127622e-002
      6.7469632550646821e-002 2.1332256142533321e-001
      -1.5057800276306427e-001 2.9504271003423298e-002
      -1.6967768671194580e-001 5.5520335311763605e-002
      1.1336528045865689e-001 -2.4280490435002680e-001
      -1.0283675607695927e-001 -3.5280961708048397e-001
      7.0612361324345965e-002 -1.9182007082038988e-001
      -2.9667875488330026e-001 -1.8537057601656953e-001
      -1.0560811650082852e-001 4.6644460164945549e-002
      -8.1165943902676577e-002 -6.3085231354061411e-002
      -8.2082805744198711e-002 -1.0074982603735662e-001
      7.7263970892097203e-002 -2.1732854329413725e-003
      2.7144421888367253e-002 1.6924680569708243e-002
      -8.2226686215744235e-002 -7.7145767329247980e-002
      -2.2564681694127394e-002 3.7287895934980164e-002
      -2.0638735862469915e-001 1.1798098367187705e-001
      5.4505030808348363e-002 4.0267043639940395e-002
      -1.4387209984546345e-001 3.2852713020591909e-002
      -1.6339873180656361e-001 3.6781005393173027e-002
      -9.1272478914593749e-003 -1.1305030318736714e-001
      -1.3599211310531198e-002 2.6866562194617238e-001
      -1.4513627647532886e-002 -1.8322393874428390e-002
      2.2015595512247721e-001 4.6594519219262380e-002
      -9.3061338603897245e-002 -1.6968164936183797e-001
      7.2830782204529543e-002 6.3276125222437918e-002
      -3.0427037792904513e-002 -1.4015139857747749e-001
      4.1891016237657286e-002 1.2462789092890086e-001
      6.0277979954641271e-002 1.3734837084059812e-001
      1.5282193322216578e-002 -1.8576185561062780e-001
      1.3136019685655814e-001 6.3297061022457113e-001
      6.4059969677349282e-002 6.9874113252307038e-002
      9.7993742568176778e-002 -7.6342352356348489e-003
      3.1470189185687630e-001 1.8804478203577060e-001
      4.9180926761572701e-002 -1.8430389655269300e-001
      2.6533470780161078e-002 9.1559171343103915e-002
      6.9861819686486665e-002 4.0509198883274478e-002
      -1.0623643686310490e-001 7.0042700874926755e-002
      -3.5029850381049593e-001 1.1275373976534153e-001
      1.2281187988737310e-002 -1.2912439345383633e-001
      1.7474413439654193e-001 1.1814888728258584e-002
      1.5359962956496562e-001 4.6360369061868711e-001
      -1.4957249806557402e-001 -5.6403308712360933e-002
      7.2201556506570508e-002 1.6771426607596594e-002
      -1.4589132328586635e-002 -3.2989809571742362e-001
      -1.2381577587498134e-001 1.1586845814968158e-001
      -8.7522381713082867e-002 -1.6242944210402235e-001
      -1.4897522870034079e-002 -1.6249712349767456e-001
      2.3180383422874234e-001 -5.5953704205156116e-003
      3.1908005918152300e-002 5.3474170285055578e-002
      4.4595539271795470e-001 -3.4161812316984598e-002
      -8.7260865846095367e-002 7.4577149465293952e-002
      -1.8778921261343445e-001 -9.9999581302006077e-002
      -1.1229612199037666e-002 2.3349942734069684e-001
      8.9143517877390707e-002 -7.3212948465584432e-002
      -4.3676866998608281e-002 1.1798578950836076e-001
      -5.7988431211639664e-002 -7.7522015531409916e-002
      1.6944490518046473e-001 -2.6668212550653859e-002
      -1.7878953904735159e-001 1.5606110987394461e-001
      1.3601191783038558e-001 -1.4049298899382948e-001
      2.3141625963816678e-001 -3.5795172657205263e-002
      -1.1120018590400139e-001 -5.1810427623204022e-002
      -1.4808370780629934e-001 -8.7080870521680342e-002
      9.3864698564659843e-002 1.2749504625675992e-002
      2.2419965497814015e-001 -1.2079761302359907e-001
      -2.7447600639767344e-001 6.9554993724185096e-002
      -1.6643574309425546e-001 -7.5580849441159309e-002
      5.2439844686930921e-002 -6.1032314075128213e-002
      3.2000566370412646e-002 1.2749800793134816e-003
      9.9885389153280310e-002 -4.9019832072633947e-002
      8.1696603001458395e-002 -2.8194732595121041e-001
      -1.2786212173068140e-001 -8.0575833950831260e-002
      -1.2886903846786479e-001 1.4288032010037599e-001
      -8.4035328024186604e-002 1.3315035402298561e-001
      7.3304489362923775e-002 5.3956102965247520e-002
      1.8191866582961588e-001 -1.4797355283777446e-002
      -8.9626658794214165e-002 1.7738502609347669e-002
      9.2127009837144697e-002 -1.7741124632533228e-001
      -3.2713458667501860e-002 -7.6275244521763305e-002
      7.9196946750784869e-002 -2.2246399811588646e-001
      1.1992048835394976e-001 -1.9138955147511117e-002
      -1.2494339477330056e-001 1.9662360425343381e-001
      -1.3523546907163414e-001 -6.7360171270752930e-002
      8.6486867249912253e-002 4.6721918151336257e-002
      -8.1795918626058090e-004 1.2944436745451721e-001
      -1.5990839472366358e-001 -1.8761253019533033e-002
      -4.1367620714836371e-002 7.7108936520363255e-002
      1.5845371188804146e-002 -7.9448152024771179e-002
      7.5812829435099441e-002 -1.2389048210687786e-002
      1.0655028320105250e-001 2.7311980439354736e-002
      2.2392682146647042e-002 -8.8956560195679241e-002
      -1.6530588356801104e-001 -8.5993083542272850e-002
      -1.1576485542888140e-002 -1.5952005569593020e-002
      -5.1358602909876060e-002 1.4505565299556319e-001
      -3.2474568654800515e-002 -1.0864971266580563e-001
      2.2729206247594747e-001 1.2135599170521920e-001
      -1.6979969831668859e-001 1.2192912148688384e-001
      1.3284849505775262e-001 -8.8346098231309428e-002
      1.0669361696227538e-002 4.0026982373513730e-002
      -9.4403860214167575e-003 6.5597236241665205e-002
      5.3649437266047491e-003 -4.6556614342230199e-002
      -8.6332197884101333e-002 1.4309058202226826e-001
      -2.5331965345754617e-002 1.4731522997743354e-001
      -5.5436323418478720e-002 6.5589234027789989e-002
      -6.1168886182569483e-003 -1.1379702883680232e-001
      6.4270528882004130e-002 -4.0312496647364415e-002
      -1.5012716220527292e-001 -6.6066056553869282e-002
      2.0528530745594040e-001 -4.6742053923692267e-002
      2.3366557751430300e-002 3.2727509860183232e-002
      8.7343910350228704e-002 -1.2774588438085183e-004
      -3.0247123631156525e-001 -9.4469385197991390e-002
      1.3841916016586583e-001 4.1109261416388800e-002
      -5.6559401271792436e-003 9.0056974682235919e-003
      5.4363068382099373e-002 3.6412738397682283e-002
      2.3366043451880103e-001 -2.6334440346477350e-001
      -1.3235699628812827e+000 1.2320107920542314e-001
      1.8524533642950608e-001 7.5085713592957085e-002
      -9.3461089473608761e-002 -6.9879804500407455e-002
      -7.1145239720086878e-002 -9.2542649285894799e-002
      3.0457027020545535e-001 -3.2395113303372525e-002
      -1.5891822109171014e-001 -4.1033837104433847e-002
      4.3469847705114991e-003 1.0209658831239032e-001
      -4.5705468639892159e-002 -4.3667790161946018e-001
      -2.2365452683146231e-001 -6.3548321051052792e-002
      -2.5696490403141387e-001 4.4673242465507468e-001
      -2.0646518808200259e-001 1.6503877237259756e-001
      -7.1826070590777155e-002 2.8695185108679688e-001
      -3.7406151275289110e-002 -1.0563595385742676e-001
      -3.3259657547381243e-002 -4.4634807949990325e-003
      2.6021104002064376e-002 5.4205013633105970e-001
      1.8133911260621687e-002 1.0175039947326785e-001
      1.3867373076887801e-001 -2.7087739328060752e-002
      -9.4356088970341062e-002 2.8991873241489659e-002
      -7.3023952019291336e-002 4.1920107473087810e-002
      4.2791871057430653e-002 -1.9442868537662333e-001
      2.3307608617875719e-001 -3.2850810432022877e-002
      7.1965740496338715e-003 -1.3773618724008826e-001
      -9.2384273417572174e-002 -5.6228107141728066e-002
      -1.2871913013456945e-001 -5.3721777433135304e-002
      -2.4056999513562077e-001 1.3058819368163162e-002
      -1.4837623147250106e-001 -6.5984565635235160e-003
      -1.2871743421650771e-002 7.3506683734556738e-002
      -6.9062861162221073e-002 7.8494057575173456e-002
      -6.1319988104009571e-002 8.8253230670242780e-002
      2.3775595760987653e-001 -1.1176958406875651e-001
      -2.1084492313618125e-001 1.7159475918160813e-001
      -2.8306365433160809e-002 -2.3981096237092808e-001
      -4.7766361874126126e-002 4.6113633830006717e-002
      7.7300175462822793e-002 -3.0602920684230296e-002
      -9.5302926346667372e-002 -1.5594932129647976e-001
      -8.5830753516464742e-002 1.0924796393580805e-001
      1.4708982925141836e-001 -4.0499200866332123e-002
      -1.0190001752113578e-001 1.5349621083262238e-002
      -2.7406314403535759e-001 1.0598668388838345e-001
      3.7406480516660394e-002 -2.4961302065166752e-001
      3.1631522525333022e-001 -2.5068009596798876e-002
      5.4771471150965353e-002 -1.2813378014050406e-001
      -8.1873802371761520e-002 -1.0841271241811658e-001
      1.7555713108462537e-003 -6.2703221622973385e-002
      1.9558490448064552e-002 3.2211518274239570e-002
      -1.6686895205756311e-001 -2.0508043787672719e-002
      3.6777108857558649e-001 7.9620621784301945e-002
      -5.3051301266139238e-002 8.8371259736646224e-002
      -5.4516225789054081e-002 6.9432672097975504e-002
      1.3518849182368739e-001 -1.3553427146740504e-001
      -2.1704928068622720e-001 -1.7894935627024847e-001
      -1.1678951794959484e-002 -1.9105385035065636e-001
      -6.4579158722361724e-002 5.4776878182232466e-002
      6.5950687247415776e-002 -2.3370243126654179e-002
      -1.0299302744429993e-001 -1.4923690527366548e-001
      -8.7592945898192887e-002 1.0015516653361276e-001
      1.3007235837734368e-001 -4.4487867266700211e-002
      3.6893288963215351e-002 9.1259712518702157e-004
      -6.0581442382186629e-002 9.3977801512626774e-002
      4.4386380326372876e-002 -8.5142157766759152e-002
      2.2161704936726148e-001 -6.8026750179580805e-002
      4.8980017631778630e-002 -9.5978956191741766e-002
      1.9885931314590924e-001 -6.3117395373750607e-002
      -6.1873061270734518e-002 -6.0140165733103865e-002
      -4.1513705513133756e-002 8.1524500697899155e-003
      -1.4449798399133315e-001 -2.8822907923878482e-002
      3.7232065664498820e-001 5.2830515865565975e-002
      -3.5800454790842838e-002 -4.8015437278508148e-002
      -4.9735591753935590e-002 8.0973262791966066e-002
      5.5379837210868463e-002 -1.2771026096737498e-001
      -2.0868515273349816e-001 -1.1324436070811086e+000
      -1.7137659265201010e-002 2.4228219005558038e-001
      -5.5883349407489229e-002 6.0681787240415438e-002
      7.3824913789450677e-002 -5.2203548631878295e-002
      -1.0111847569998249e-001 -9.9231503449859024e-002
      -1.3025835991092663e-001 9.8209909517241040e-002
      -6.9986785026877579e-002 -1.2219906274576510e-001
      2.2221765464544005e-002 7.9881942591923993e-002
      1.5708831269432738e-001 -1.0279429568655801e-001
      5.0366587379685350e-002 5.8430608521453639e-002
      -6.9848586101124766e-002 -9.8126996226690813e-002
      -1.6842421998750266e-002 1.3842495405834468e-001
      1.4917240332917459e-002 -1.9279168088544854e-001
      4.4574033607020103e-003 -6.6371079623213564e-002
      -4.3962098623272945e-003 -2.1067537023383281e-001
      -7.7742416202706638e-002 -1.4076837172898865e-001
      1.3076936818469806e-001 5.2700585732431644e-002
      6.2412658788052452e-002 8.1269865302896274e-002
      -1.1307693896191286e-001 -9.0186872121919656e-002
      4.9402036837635586e-003 1.9050207265714134e-002
      2.2291035716790308e-001 8.4131041215949859e-002
      2.6516081450590735e-002 6.0295168666645117e-002
      1.1341107055295876e-001 1.2942556380811174e-001
      -1.7328256578280091e-001 7.4722630189641370e-002
      -2.4744213904495369e-002 2.4470581384956943e-002
      -1.0121638177418193e-001 3.8863817521745420e-002
      -4.3604230233053577e-002 -1.4465646080895961e-001
      -1.1327288250756072e-001 7.1107107570629019e-002
      1.4320601780937930e-001 6.4041217860424215e-002
      1.1560356064076727e-001 1.1208768674767620e-001
      -2.0919040373051138e-002 1.2326875199411864e-001
      1.8826793523110805e-001 3.1981724837387848e-001
      7.0985633311535054e-002 -8.2588216274334172e-002
      2.6411603744020658e-003 -1.4365284448968688e-001
      1.8042237220677233e-002 -2.4753338047416185e-001
      -6.3821869269641271e-002 -1.0054904087966191e-001
      3.2281135204111168e-002 -1.3470621047240716e-001
      4.4697323740433212e-002 -3.9020815342204933e-003
      -1.3091540221394291e-001 4.1562155426597761e-002
      -1.5465841450312817e-001 6.1774645829588450e-002
      1.0394765427549110e-001 -1.6088264555317977e-002
      1.0127019971769100e-001 6.9559783398673414e-002
      1.5972619164373178e-001 1.1801695046117879e-001
      -8.8782494866415471e-002 1.4557005277780945e-002
      -1.5097350566195669e-001 3.1663608443573094e-001
      7.6785110054779860e-003 -9.4169074750522191e-002
      -6.2157753672653103e-002 -6.1827085329154194e-002
      -1.3433426859508329e-001 -6.6404496001446897e-003
      2.5833500851346258e-001 2.5002205303722672e-002
      1.7326291026951895e-001 -2.4111897271359359e-002
      -5.4143031563151929e-002 3.1452637590141680e-001
      6.8005057464906163e-002 1.7175890793333312e-001
      1.6544863404601934e-001 -9.1385199601146841e-002
      1.9581194441349811e-002 -1.1304221493744035e-001
      -3.0094463480451483e-002 -2.9761141351121533e-002
      -7.0093239415012401e-002 -1.5303701375515616e-001
      3.4726655203414482e-002 -6.7530792464018816e-002
      -5.2554400960944582e-002 6.8923179187240960e-002
      -1.5868824897213912e-001 -5.8634748578082884e-003
      -1.1225739356874941e-001 6.2176002231771520e-002
      8.5322859713065496e-002 -2.3131515360739836e-002
      8.0976060187923585e-003 -1.4874840425164201e-001
      1.1813609039570207e-001 9.8704776288436047e-002
      -1.2935681299040119e-001 1.1930875494492978e-001
      -2.7635818515073435e-002 -4.9414314687718376e-002
      -1.0462104525402117e-001 -1.3320774298326188e-001
      -4.2148232019438750e-002 -2.4009752719239108e-002
      -1.2836651998829363e-001 -8.7591318490872292e-003
      4.2866445475354238e-002 -4.7791987084793057e-003
      1.0149670139796042e-003 2.5897609250641790e-001
      -1.3864663979630007e-002 1.6662695822127292e-002
      3.2191302717924802e-001 -2.9732476971753560e-002
      -5.5577801544304029e-002 -1.7559749589273538e-001
      5.1978312866924642e-002 9.4585900823245389e-002
      8.1818633282320322e-002 -1.3995612581064740e-001
      -3.9797780323897886e-002 -1.2961465200235031e-001
      -8.6468955305335576e-002 -8.2300148673525475e-002
      -1.8814253948965944e-002 -1.4021691630324645e-001
      -3.0263965862635717e-002 3.3885807383753672e-002
      6.4735106513151466e-002 3.1041009880602887e-002
      2.1793564147885533e-001 1.0984179570604143e-001
      -6.7422081301733217e-002 -1.0556397574888915e-001
      1.8017270292803880e-001 1.1779073602039543e-001
      -8.1834903260544614e-002 1.6760453915689233e-001
      -2.3693151422846729e-002 2.2892135907784533e-001
      1.8914986340185697e-002 -1.4999370092314823e-001
      -8.2675305007506916e-002 -4.3337271937982147e-002
      -7.2993211985140694e-002 -5.9191126447652197e-002
      8.0269114969045527e-002 1.2446434935456306e-001
      -8.1644473537869022e-002 -6.1652986259466011e-002
      2.5797812000605415e-002 5.7954952686252961e-002
      9.9687296015014332e-002 -3.0150347940514893e-003
      -4.9451802708207433e-002 -1.6985787990787879e-001
      8.5720909494429003e-003 4.6419258025013052e-002
      1.5729208626695110e-001 -9.6705451613236432e-002
      1.5188026697680918e-001 -3.6714187158186924e-002
      -1.1715238551661969e-002 -2.0480114172997620e-002
      -4.6014784680706959e-002 -7.8190072726006338e-002
      -7.5535449827746903e-002 4.0938615838380508e-002
      9.1171273171388137e-002 1.2342075136400990e-002
      -3.1859775287945258e-001 8.2501230294800887e-002
      -3.1799105729136599e-002 -2.9653866029230452e-002
      1.5160896668354584e-001 8.2230606557438281e-003
      -1.6617513325800169e-002 -6.7381061549301813e-003
      4.5822090750116959e-003 2.3883204903825929e-002
      1.9409503606459405e-001 1.1662397767082858e-001
      -1.0070218070756941e-001 1.5287452136101796e-002
      -6.0617230311591525e-002 -5.7017789382849599e-002
      1.7965315894672571e-001 1.2227052896766891e-001
      -9.2279882286010945e-002 6.7502821499059368e-002
      1.7175710701912539e-001 3.8974753339708401e-002
      -1.3342171824402466e-001 1.9814480918604816e-002
      -6.1980535754832845e-002 -1.0278712025667995e-001
      9.6981038175708065e-002 -4.7314604602571954e-002
      3.9623295753030703e-002 -1.1099674140458365e-001
      4.0869654463486171e-002 4.8246578534662826e-002
      4.9289936963975142e-002 -1.7047931980280609e-002
      -1.8032400955101200e-002 3.5496867376550750e-002
      6.8889301562119615e-002 2.9572741994127291e-002
      9.1112871276341299e-003 5.3633033375466092e-002
      -1.6661665374995946e-001 1.1899398770173422e-001
      -1.6223745782052858e-002 -1.1004774995327833e-001
      1.4937558628043837e-001 -5.1986363646627294e-002
      -1.6009868490354625e-002 -9.3260714178347720e-002
      7.6903002581244495e-002 7.9198022821409531e-002
      -4.1927598097294481e-002 3.5136877219476875e-001
      1.2921246983747876e-002 2.1459422805634308e-002
      -2.2785715949699061e-002 -8.7203127676363720e-002
      -1.5789470282618692e-001 9.5490718108841813e-002
      1.2114683617710077e-002 3.8944719532625122e-001
      1.2290865501600819e-003 5.8393485387482159e-002
      -1.4440787107658876e-001 -3.2685609229601398e-002
      -4.3929656000117223e-002 -1.1174000448714880e-001
      1.9846065877065758e-001 5.2522099640604884e-002
      -1.5361988170611660e-001 -5.6367470073815942e-002
      -4.8065676530310721e-002 9.2076804672049206e-002
      8.3419194383627937e-002 -1.3563751856259540e-001
      -9.5987208197789275e-002 1.0048725913147803e-001
      -1.2090018828710493e-001 -6.1253978689057742e-002
      2.1549723311131266e-002 4.4217894694633768e-002
      -2.2401465079827071e-001 1.4690757784790745e-001
      2.6401815545876457e-002 -7.4046149857065216e-002
      -2.0714832801186744e-002 -5.2185618812687309e-002
      -1.3478596456001461e-002 1.7707645239624105e-003
      1.7181979004275368e-002 -5.5362541743682478e-002
      9.6902901376348188e-002 2.1924474071749189e-001
      1.7695400631212832e-001 2.1254915838095450e-002
      -1.4846629191291372e-002 3.2209499574458456e-002
      1.7434537142738940e-001 2.3649948264316573e-002
      7.1738585047800271e-002 -9.8295900929710175e-002
      -2.7905140078584204e-002 -2.5742034958847171e-001
      -2.0818466842721337e-001 -5.9423721961378195e-001
      -2.5144388200998485e-002 -8.9302544988380389e-002
      1.1958267171966198e-001 -4.0873089767837913e-002
      -4.9343682081181423e-003 -2.7794111146619586e-003
      6.6262282492688687e-002 -1.2760091116214906e-001
      -1.2397402353656370e-002 -1.0971624440072454e-001
      -7.8321452872040787e-002 4.2830160187365011e-002
      4.9901022563386035e-002 -2.9402846904386382e-002
      -3.4160770688682784e-002 -2.9588977922796470e-002
      -1.5757258007910344e-001 8.7602357798927707e-002
      -1.0944304742134691e-002 1.7531860029889604e-002
      3.3939283435250539e-003 1.2489158622043876e-001
      -1.5873610910238681e-001 1.2562804427631574e-001
      -7.7124547283256892e-002 -1.7736910840024936e-001
      8.4590985162183538e-002 -2.1539499734288776e-002
      3.2419703441552622e-002 9.9629852750128700e-002
      1.5705611776172562e-001 4.7195858238678279e-002
      9.4749190053125029e-002 2.7702973101666913e-002
      1.0772705900737738e-001 -1.7380533363571460e-001
      1.7018412866502658e-002 7.6313460806991140e-002
      -8.6798524060660520e-002 -3.3652997796393835e-001
      9.9082043195536929e-002 1.3143946654719407e-001
      -1.2103733511382146e-001 -2.0774448371148416e-001
      -1.8520515124312228e-001 1.6651968506673312e-001
      1.3919814292914076e-001 -4.0181080088571554e-002
      4.2814217376558147e-002 1.5998791393551060e-001
      6.6918107041773783e-002 3.1529632971906363e-002
      -4.8273879251788127e-001 -5.0049080049004178e-002
      2.7104783968461083e-002 -1.3683940810940190e-001
      -3.9303209041188669e-001 -1.2268619975021962e-001
      -2.9640799774808702e-002 1.6753961309799545e-002
      -2.0543701787557819e-001 -1.0491396706995769e-001
      4.1613080377972275e-002 2.4671974862543652e-001
      7.2809707290013681e-002 3.9300123356951502e-002
      1.0604139897075521e-001 -4.0529920949403782e-002
      9.6676825699632638e-002 1.7699170278574322e-001
      3.4518356010339438e-002 4.1159610454836654e-002
      1.9970537017365833e-001 -5.0993894842263306e-002
      2.2076310468602764e-001 -1.8131905134851495e-001
      1.6137138171220547e-002 -1.4223252061719818e-001
      -1.4691462153768806e-001 -2.0665036440663828e-001
      1.6325894705949509e-001 1.6990467607839693e-001
      -1.4451394558292913e-001 -6.6286624059037472e-002
      -1.7557470544274295e-001 1.3402535340220403e-001
      1.2939002764567029e-001 -2.9277667372338320e-002
      5.8773941910775736e-002 9.8790934272931646e-002
      1.1587215732822607e-001 4.9167486975910876e-002
      -2.6596258764271508e-001 -3.5764464086302801e-002
      8.8100174930694664e-002 -1.0936208566055282e-001
      3.2594361810036408e-002 1.2890671646509036e-001
      -1.1136973094275646e-004 4.7934192454125592e-002
      -1.5472570921495081e-002 2.6790016257056664e-003
      1.1656035172858856e-001 -6.8114663252288848e-002
      1.6239338308705256e-001 4.4765624236117844e-002
      6.7329874926815636e-002 1.2699391989316119e-001
      2.5156810565687854e-001 1.8904771714656238e-001
      2.1624554689538997e-001 -2.2759636956729248e-002
      8.9407520664026879e-002 3.6865954032209790e-002
      2.0591269387886862e-001 -1.6194573298942411e-001
      -1.6305467097125478e-002 7.7901670579652069e-002
      5.8222888691541623e-002 -2.6032672332013979e-002
      1.2359667048221469e-001 2.6474258216009255e-001
      -2.0178250931009287e-001 -2.2615288617713638e-002
      -2.1540871739163447e-001 1.9189475783163826e-001
      3.5977198460013550e-002 6.0420180432234308e-002
      4.2896719710281569e-002 1.3417715487867235e-001
      5.5302684936857367e-002 -1.3200920702223803e-002
      -4.4078753088529904e-001 -7.1787640336438183e-002
      -2.7706809648374044e-002 -9.7440650054400099e-002
      3.7126722913134694e-002 -6.1141744325953977e-002
      -6.7598422454186097e-002 4.2679380955436060e-002
      -1.2480637419544571e-001 9.2026934801415598e-003
      1.6605755280905138e-001 2.1479357813838248e-001
      9.9201716029994710e-002 3.9873077404830204e-002
      -1.0742009464172393e-001 -6.4061161810093248e-002
      1.9445940054171884e-002 1.8885057717476778e-001
      7.0304742103428824e-002 -7.9710594488751882e-002
      8.0280468332641616e-002 -1.9532683481753182e-003
      -9.8370777245780028e-002 -1.2373337358041515e-001
      -2.7214419949042362e-002 7.5581864035660626e-002
      8.1462336497592769e-002 -1.4539695886744533e-001
      -3.5642407857573964e-002 6.3949794562427303e-002
      1.0863946928900413e-001 5.7075798623216871e-003
      -1.9560678195012565e-001 1.1586214556663771e-001
      4.0369962348188591e-002 5.8513470171459976e-002
      5.9629244823618203e-003 -1.1986843961875167e-001
      -7.4448225594070397e-002 -7.7535093882253561e-002
      -4.9402258728514120e-001 1.9966725847138274e-003
      -3.7281010389764419e-002 -7.1284330331144896e-002
      -1.1584200718840930e-001 1.0198380618613602e-001
      -1.7529943973897875e-002 -2.0238735179439934e-001
      -1.3577831794449333e-001 4.7727900097882331e-002
      1.1774763636433636e-002 1.9163044399988213e-001
      -6.5764444187007304e-002 4.9774123071145197e-002
      -2.6828546998748252e-002 4.4783150413901393e-002
      -7.5615418668419990e-002 1.8850135726587006e-001
      4.2547237024634990e-002 -2.5084365726498744e-002
      1.2203542471188482e-001 1.0413680445975165e-001
      -1.8710461738575271e-001 5.2243147087486376e-002
      -1.8488711815352513e-002 -9.2070567705911363e-002
      -1.4175852287594774e-002 -1.1335255131381497e-001
      -7.7469885593339019e-002 -1.1343589203984180e-002
      1.5192748426231029e-001 -1.7452339255721303e-002
      -2.0053774808827463e-001 -3.4823314602197022e-002
      1.5791844710215233e-001 1.3747903769411135e-001
      -5.9264077693855083e-002 -2.3063416383806240e-001
      2.1049299415925614e-002 -3.5991493402947022e-004
      4.7563985507759914e-002 -3.4275772606547537e-002
      4.6946775399111025e-002 5.5171851316593794e-002
      3.3969710475211717e-002 4.6009448893905812e-002
      -8.2588334770638872e-002 -1.4422104966433330e-001
      1.1207690642695927e-002 -1.1343928672835366e-001
      -8.9824925358083313e-002 -8.1124123738763057e-002
      -8.3916988342848053e-002 2.1672082294263303e-001
      2.5638736621229098e-002 4.4417443255692010e-002
      -3.4085021178237945e-002 6.8535082011061205e-002
      -3.9339389104488002e-003 -1.1803797425994730e-002
      -8.8095066268764385e-002 -4.3134024890239729e-002
      -1.3015470772939494e-001 -1.2014058193046617e-001
      -1.1955869380496002e-002 -9.5527148157873248e-002
      3.9486211783185683e-002 -1.2884780586660105e-001
      -7.3367197538279347e-002 -2.1033175321602780e-002
      1.1149470413186740e-002 6.9132751582684226e-002
      6.7155150411053521e-002 4.2269843174337005e-002
      1.6151598160231193e-001 1.6895882932512224e-001
      -6.0216040196045297e-002 -1.1567885479479977e-002
      4.8327348340973818e-002 -6.9523455444101545e-002
      1.6943406915777554e-001 9.5825735756901803e-004
      3.8933091419706391e-002 1.9565780848399529e-002
      1.6129693512212127e-002 5.2022360631231453e-002
      -4.6517030860957369e-002 9.3187604545220737e-002
      -1.0052717740251038e-002 -1.2507187303481018e-001
      9.5300425567227343e-002 -9.1897239390905577e-002
      -8.3392217162817903e-002 1.9836050376885045e-002
      4.4057194013279878e-002 4.6306787492041743e-002
      -6.2672630428842496e-002 9.7500013956119652e-002
      6.4472120022565929e-002 -1.1931226093634827e-002
      -4.4011752362846254e-002 -6.9544880108560456e-002
      -1.0073766751713246e-001 -1.8167644915453987e-001
      -1.0423218425665166e-002 -7.6713797084763266e-002
      -1.1101657742209595e-001 -9.3148218016130616e-002
      -9.4909685318425252e-002 1.4348798425851761e-001
      3.6347833224537357e-002 6.7512776919109563e-002
      -6.7687846384486203e-002 6.4160497692148433e-002
      1.6256310050585060e-001 1.0272901937805824e-002
      -1.7069405370451890e-001 1.1309611915330500e-001
      4.0617447660761155e-002 -7.8943144487371539e-002
      -6.6219863678583903e-003 -1.0190851475506644e-002
      2.3549130965894408e-002 3.9677345387288893e-003
      3.1867936224456411e-002 1.7454592627710869e-001
      -3.7120544430466688e-002 -2.4349966236862499e-002
      -1.2060345669161088e-001 -7.2516399783728896e-002
      -5.5100146321046407e-002 -9.8997539385442590e-002
      -4.9397664959132566e-002 -1.7445279713697459e-001
      5.7781625998143890e-002 8.9404819596733867e-002
      -2.9954575885086893e-002 -4.0948979904894017e-002
      -5.2279374307229627e-003 2.6511091337108526e-002
      -4.1605630710349950e-002 -7.4191830082082091e-002
      -9.4463790531983935e-002 -4.1987386289861056e-001
      -1.6812808893918462e-002 8.3594343978159139e-002
      -5.7675963866735493e-002 -1.2093805099806888e-001
      -1.0185383546029574e-001 1.7895780442488792e-002
      -6.5537380225464847e-002 5.1812397213442815e-002
      4.4366267119419489e-002 -7.1722717807316178e-002
      1.7748444144460371e-001 -1.4124458312395298e-002
      -1.4122237058894110e-001 1.0156095853269623e-001
      -6.6759984324035890e-002 -5.1465745237140141e-002
      5.1889518964112001e-002 -6.0804695807955287e-003
      4.3162300865366474e-002 2.2429355997991694e-002
      6.0337298001774058e-002 2.1678187782873207e-001
      6.8397364589126847e-002 1.0164895356270838e-001
      -8.7263035537215983e-002 -5.5603360612072439e-002
      8.8448727625844922e-002 -2.8494374089290099e-002
      3.4353251807936802e-002 -9.9530143192257350e-002
      -5.5154121537319585e-003 1.0000571505436788e-001
      5.0017317950467530e-002 3.8161446521885127e-002
      1.4134879360690411e-001 3.0020522427263035e-002
      -8.7968985665234548e-002 -1.7886448745503231e-001
      -8.9287491547753131e-002 6.0242028054408918e-002
      -9.4400669540098334e-003 8.7641598428170917e-002
      -8.1490922584511127e-002 -1.1951545796296129e-001
      -1.0404266494172014e-001 1.4526838493493680e-001
      1.0874721737032660e-001 6.4262919986352279e-002
      -2.6541382512365644e-003 2.5423780216123737e-001
      1.7840367091086046e-001 1.5370950192711358e-001
      -5.5023011183961213e-003 -2.9353097972836202e-002
      9.5288809525310408e-002 -1.8968159764545071e-002
      4.9490500705206358e-002 -4.6522489692323955e-002
      2.1411231653249947e-002 8.9482046061226103e-002
      -1.3894643458650810e-001 -6.0094343628129002e-002
      3.9298436098100291e-002 1.7252961263781560e-001
      -2.0068278599961906e-001 -6.1670235939356860e-002
      6.8430790917281853e-002 2.3975905331652392e-002
      -1.2224336168758690e-002 -2.6629484216280680e-001
      6.5362066323250588e-003 3.8661558640794930e-002
      -9.3568138674826024e-002 -1.0183096062447229e-001
      8.7462196232403991e-002 -4.0574192877283956e-002
      -6.1102146077463497e-002 1.1965945377874680e-001
      -2.2081898740610517e-001 -1.4191538065841960e-001
      -1.7587100348486165e-002 6.5217121150259988e-002
      -4.3851222393942180e-002 -5.1593122353964804e-001
      1.0305016058419195e-001 2.6348453263426813e-001
      -2.5897573554129007e-002 -8.9408678144552011e-003
      2.8246594620871474e-001 2.4844072307859702e-001
      -1.2955520008505436e-001 5.9277522828747528e-003
      8.7399535717150756e-002 -2.6129270339677664e-002
      -9.1328655999638575e-002 7.2997141742026081e-002
      4.7919039174242332e-002 4.3545563574294614e-002
      8.2225949963131040e-002 -7.1016545495264330e-002
      -1.3459603273698634e-001 8.6842805751504284e-002
      -5.6241133020830329e-002 1.2816557530936484e-001
      -2.4575881133349356e-001 -5.6366832363653176e-002
      2.0902514993801316e-001 2.7994563805207633e-002
      1.3269565523621382e-001 -1.3557250513466990e-001
      -9.3465680105363526e-003 -1.7971517623563257e-001
      -1.1633713031086340e-001 2.1262856749308397e-002
      5.7727742520205190e-002 1.5429389759928365e-002
      -1.9945435408572232e-001 1.8921786480586372e-001
      -2.7502436554498660e-001 6.4818755362414493e-002
      3.2903468790493034e-003 -2.7105451972214936e-002
      -7.8956396738167012e-002 -4.2637764430524444e-001
      1.2857378121269530e-001 7.0426957738546264e-002
      -7.3374786115539714e-002 1.2305640530894016e-001
      3.8916330614785843e-001 1.2153297215240619e-001
      -1.0215850104405198e-001 -1.0896907369867285e-002
      8.8711323751164174e-003 1.3603032315652475e-001
      -8.0361060137882495e-002 8.3274694150255638e-002
      -2.3072827844358110e-001 1.6545874299242966e-001
      9.7558812912646425e-002 -1.6075487273686154e-001
      -1.6808403663242943e-001 9.3587033243488105e-002
      -1.2984208811356882e-001 1.0812404347177239e-001
      -1.2918061258197558e-001 -4.6388104799980491e-002
      2.0478369338506572e-001 4.8452232412823003e-002
      1.1431293653491727e-001 -1.3543351487715655e-001
      8.2646480653021270e-002 -7.4306885525305996e-002
      -1.3832960475919365e-001 -3.4634594263908101e-002
      1.1823761675199294e-002 6.6047486362619423e-002
      -5.6864197208273091e-003 1.2419930092244079e-001
      -2.1705510274633000e-001 1.1169457873898186e-001
      -1.1707212987028240e-001 -3.5109951743622178e-002
      -8.6670129048179695e-002 -1.2804581871634793e-002
      -3.1048737028840499e-002 2.9810315894170065e-002
      -1.1192403288216674e-001 1.3951810693615088e-001
      3.5647798810425663e-001 -1.3961039871918010e-001
      1.0689782188266828e-001 4.3530827616322558e-003
      8.9949342265323626e-002 1.4903947476024304e-001
      -8.7788527949918385e-002 1.0834672475480127e-001
      9.8367126885010855e-002 1.7301485209166173e-001
      9.2973482182433127e-003 -1.2465432125316354e-001
      2.4338522704521890e-002 3.1490118122075411e-001
      -3.5463624636530744e-002 -8.1274543798374010e-002
      -1.0299181498359913e-002 -6.8227922426130960e-002
      -1.3519234215370839e-002 -7.6329212956581405e-002
      7.7962544285513108e-002 -7.9645478744456717e-004
      1.2492648858542124e-003 -1.4425186438120387e-002
      -3.1193329958422698e-002 -2.0454952796590642e-001
      -1.1449945191034272e-001 1.5276804577656164e-001
      -6.9785793970397270e-001 1.7410411969702326e-002
      -5.1114125553392467e-002 -2.0197178842584440e-001
      8.8180634901919619e-001 -3.6284067125323324e-002
      -5.9999668926703986e-001 -7.9652344975644807e-001
      6.8645318347550932e-001 -1.3140858109255740e-001
      3.9727260162621675e-001 3.4339279930315747e-001
      -1.3123838430553147e-001 7.5113921655230592e-002
      3.9138149202275108e-001 -7.2448327755424091e-002
      8.7900093031272630e-001 -3.6355668538059205e-001
      -3.8914951677918880e-001 5.5856448940560643e-001
      1.3051901381367742e-001 -7.9058617296932462e-002
      -6.1581349736805631e-002 -4.7582946399215620e-001
      -5.2078544360472301e-001 5.8235218190223759e-004
      7.1542759438532444e-002 -2.1880667863301134e-001
      -2.1968209444298678e-001 1.7440039811556304e-001
      -1.5034894380837838e-001 -1.7819453253333201e-002
      1.8720288069460272e-002 -2.4954607066278894e-001
      4.8695432608953521e-001 5.8020863218893470e-001
      -1.5098884551575532e-002 -2.0403073504324579e-001
      -1.0796704167397680e-001 7.5528841911214187e-002
      -2.2854567080419960e-001 1.5225229078578598e-001
      -6.7559953110527871e-002 -2.6207575045750270e-001
      4.8373319375821489e-001 -1.0925839061815203e-001
      -1.4023069650735413e-002 -3.1971684204199730e-001
      4.1885253170483189e-001 -1.4051809222915160e-001
      3.9092358027517538e-001 4.3843613764460271e-001
      -1.3528034360213267e-001 1.2652523990035558e-001
      5.2463222796880885e-002 -1.5876377399733393e-002
      3.8239967698077659e-001 -2.0885623846729856e-001
      -4.3752160666094092e-001 1.4790251139648911e-001
      -4.9379904771189177e-002 -5.8191383881655651e-002
      -9.5484645143986427e-002 -3.5519889982715325e-001
      1.2886321749829189e-002 2.3407993801112764e-003
      2.4814673671263821e-002 -2.8244764420540791e-001
      -2.2515342404426417e-001 9.0341891926042042e-002
      1.3899718699070876e-001 -3.2849616961196967e-002
      -7.6456709476891774e-002 -6.0172777425940766e-002
      -8.0090017772313990e-003 1.2692459995853330e-002
      -1.0102919766975624e-001 -4.7095274779291658e-002
      2.1227895360937214e-002 5.5953039457355344e-002
      -3.6265589152443733e-001 -2.6088168678068430e-001
      2.3916972424794439e-001 2.0701072554640590e-001
      7.0739214229681227e-002 -6.4972785597486171e-001
      1.8566692924485451e-001 8.3595831115791136e-002
      -8.7957200565131580e-002 6.6034619736978509e-002
      8.8267291419012850e-002 -6.5647395185239071e-002
      1.9745891662888465e-001 -2.1864198091771239e-001
      -1.4945268212516163e-001 -1.0915170588582672e-001
      -2.1664657151190705e-001 1.9660400978634412e-001
      -1.0710001370936384e-001 -4.1779043118499193e-001
      -2.2845526361130575e-001 -1.3884850292647213e-001
      -2.3317633729621134e-001 8.2030879628401443e-002
      1.5694150024880310e-001 -3.1244558443074756e-002
      3.6018823949427403e-001 1.0564393894121840e-001
      -6.5832578190670829e-002 1.3470992409775026e-001
      -2.4775327913367784e-001 -2.2230767614032639e-002
      -1.8283648120082055e-001 2.7629506619554467e-001
      2.4415706524662870e-001 -3.9369536182338949e-001
      -1.9307621167825664e-001 1.5985239000944344e-002
      -9.3023326065141687e-002 1.0373144008246299e-001
      -3.0977853225758628e-001 -1.9679865753388540e-001
      1.1781167185893805e-001 -1.3359945378376042e-001
      8.5885644477883535e-002 -3.2516445238915115e-001
      -9.6324941064469330e-002 -5.2987198924661624e-002
      4.4022451054114904e-002 -9.7456970375292308e-003
      -4.8391168777758717e-002 -2.8602435313836516e-001
      6.0941610861242355e-002 -3.1534128559205521e-001
      -7.4573987785582482e-002 -2.4143340108057681e-001
      -2.9217975499223348e-001 6.1646050660278513e-002
      6.5374489830269285e-003 -4.1931182447015665e-002
      -4.2356841709146109e-002 -1.3479854217274156e-001
      -1.0404573527807796e-001 5.8931720580831772e-002
      1.2927735742066906e-001 -1.0796605731499669e-001
      -2.9957765821594567e-002 -3.0473828023466049e-001
      -2.4626632091831718e-002 1.6493281976956270e-001
      -1.2931666320847518e-001 -1.2910943568778857e-001
      -1.3718497112824193e-001 1.2939212524190025e-001
      -8.0191452135249253e-002 -1.7900125601699724e-002
      7.0172267721845216e-001 -1.8316071889791155e-001
      -1.3780034389117965e-001 4.9705605879022986e-002
      -2.1992635018423515e-001 3.7118744182615848e-001
      -6.5002536629105434e-002 5.2858066156798436e-003
      -2.5085124738575082e-001 1.9652749665826347e-001
      1.0636442601596503e-001 -6.5995091598425509e-002
      -1.9307377420625987e-001 -3.0877234682094334e-001
      -4.8393473056349799e-002 3.0448048672642065e-005
      -1.2112842764112948e-001 -4.0431373932438848e-002
      1.9943409491957839e-001 -2.2906317076960606e-001
      -1.7338493325121025e-003 -1.0177984314649252e-002
      -4.5421245415834637e-003 -7.1249613785864373e-003
      5.6162614696134217e-001 2.8510801687147130e-001
      1.7006308755142405e-001 -2.4607880920632885e-001
      6.7748665873557157e-002 1.7913684234281238e-001
      2.1118574856754752e-002 5.5461710686469834e-001
      4.9010371759439281e-001 4.2379665677449385e-002
      -6.5532487086172722e-002 7.8570768940700042e-001
      -3.4229136603835093e-002 -1.7971112658834479e-001
      7.6827194733504123e-001 3.2414141622400548e-002
      3.3209985493165306e-001 1.6545907323491157e-001
      -1.3915816812860379e-001 4.7248785968126514e-003
      -9.3982891792766377e-001 8.8096083711676404e-002
      -1.2494237294219715e-001 4.9793718682856503e-001
      2.2716448450468364e-002 2.7022268689718981e-001
      -4.9427219814755487e-002 5.1786014394933588e-001
      -1.2939088962163595e-001 1.8563158145165435e-002
      -9.1065547219723333e-002 1.1744399749244173e-001
      -7.6148494199398495e-002 -1.1420278021466421e-001
      -4.8809150278311911e-002 1.7189953983441416e-002
      3.0484531481100446e-002 -1.8984032281799797e-002
      -1.9703812776600691e-002 -9.0615468409146735e-002
      2.4839819981280895e-001 2.1828834386421411e-001
      -3.8619000105646270e-002 -7.3175186248869400e-002
      6.3768680627072361e-003 9.7868912705341399e-002
      -1.5811907011718137e-002 4.4153029967246765e-001
      1.2618749561999329e-001 -9.0323180997974234e-002
      -7.0514156875533265e-002 8.6906647316029734e-002
      -9.1569322940138184e-002 -5.2990272285680304e-002
      -1.6253062171865940e-001 -2.4490771054280369e-001
      -1.4369864415187726e-002 -4.0566931536089373e-001
      -9.9223757267571613e-002 1.7446642917867666e-001
      1.3404511418433482e-001 -2.9325313492490745e-001
      7.9109902522114486e-002 -5.1524200873245912e-002
      2.1785401426397108e-002 5.7593323381618343e-002
      -9.7121334533107673e-002 4.8696561667232979e-001
      7.4415975200775697e-002 -1.1770944828286882e-001
      -1.0034390949380470e-001 -2.2260113627939563e-002
      9.8776042482292783e-002 -8.9378771086512487e-002
      -6.9661221953524019e-002 -8.5224468072579204e-002
      -2.9195233025350270e-001 1.0534296483920970e-001
      3.8288624217333173e-002 -1.0804638457606215e-001
      -4.8334918820044731e-001 -5.6262919292881406e-003
      4.3485261254865362e-002 1.9582231409100505e-002
      1.4895507124610480e-001 -2.6364374654888734e-001
      3.1822662122728165e-003 2.5489734588275614e-001
      -8.3430891032303403e-002 1.5815829315028032e-001
      1.5985805631604497e-001 -3.3498425914672288e-002
      -1.8287966380659118e-002 -7.3762199079476121e-002
      -2.2355670079392292e-001 -4.7628597251311300e-002
      -7.4717029245053107e-002 3.0737616147687531e-002
      1.2109095707155738e-001 -1.4144185942937329e-002
      -1.0289442282221201e-001 -2.7876098708712327e-001
      3.0820914200696697e-001 1.6520908378292570e-001
      1.2460081594992355e-001 -9.8076663526445285e-002
      1.8635386282384256e-001 1.4491399650719919e-001
      6.2682108612023321e-002 -7.5170666498944133e-002
      1.3977635336811772e-001 -6.8110844098371037e-002
      -2.3043658110345699e-001 1.7864222426247144e-002
      -1.4909956618620065e-001 2.9270621335161347e-002
      2.0038181923542903e-001 -1.5218397625302132e-001
      -1.7955191724553783e-003 -1.6054719334225719e-002
      -2.1354111479976814e-001 -1.3207233889267905e-001
      5.4612497709004656e-002 1.1407187473877624e-001
      7.5845777861477601e-002 -1.7995531688538159e-002
      1.4196944304181299e-003 -2.4763715678983589e-001
      -1.2407867948824522e-001 5.8121264423451502e-002
      -2.6769865200145221e-001 9.4652181928699161e-002
      -1.0147559165975176e-001 -3.5345958053451587e-002
      -3.2819944482895985e-001 -3.8971956399977242e-001
      1.0609317101478744e-001 -1.5259507515731105e-001
      -1.0687930212875622e-001 1.7647238225386591e-001
      -5.4550560481398325e-001 2.3938431884322590e-003
      -4.8184307198487319e-002 -1.1468569688508577e-001
      5.6183734434285815e-001 -8.8765813971979746e-002
      -1.1091515448547466e-001 -6.9912661105516849e-001
      3.7247578673298698e-001 -1.5896246193583222e-001
      -6.4717781329304801e-003 4.7857229471190083e-001
      1.7957197046860451e-001 1.3888093751201511e-001
      4.6574960364385236e-002 -2.8476004030090766e-002
      1.9260860068828087e-001 -1.3091203467004692e-001
      -1.3252355087699863e-001 3.7147800361032152e-001
      -6.3149131696351293e-002 8.1665261527517671e-002
      -4.0805490773536721e-002 -2.4689990284590560e-001
      -3.0202036890574624e-001 -6.7404334507088470e-001
      -1.1823430389738757e-001 -1.3733672467909860e-001
      -2.3107148749210779e-001 -1.0709605423635929e-002
      1.8425502126302290e-001 -2.1952270519473814e-002
      -8.8634043701330559e-002 -4.4325862951939360e-001
      -3.9866062076194214e-001 -8.1063934549014283e-002
      -3.3865651777779648e-001 -6.3621712491542104e-001
      -9.8752649077005275e-002 1.2903507131896155e-001
      -1.3204971742767863e-001 1.3034361529399671e-001
      3.7074622655746688e-002 -3.1527191796351545e-001
      8.8354069060147000e-001 -1.6123337335992649e-001
      -4.3796895082338333e-001 -6.0621599341874022e-001
      7.6088400344094154e-001 -1.5535183235332128e-001
      2.0285563265820139e-001 3.7315168735895743e-002
      -1.0567166999209794e-001 1.3029010607397590e-001
      4.5448456693881978e-001 9.3111161238379980e-002
      7.4369406046003295e-001 -3.2080170839942912e-001
      -1.2254753528717920e-001 2.2659168322232792e-001
      -5.3845093192921099e-002 -6.0930093271275465e-002
      1.9319325945942281e-001 -6.0977569011298594e-001
      -3.0024716371358356e-001 -9.0331367404683935e-002
      1.3977515755783801e-001 -2.0130402046804249e-001
      -5.3332782433115587e-002 -1.6039456454838910e-003
      -9.5448695473556847e-002 -7.7343708301845310e-002
      -7.5276663338911434e-002 -4.0241557114613402e-001
      -2.5128627476431870e-001 1.0650711442227231e-002
      -6.6096640793260900e-002 -1.9699643081973975e-001
      -6.6357063665025126e-002 2.8455285404054686e-002
      -9.1408710095341283e-001 3.3196844076320849e-002
      -6.4438225873835089e-002 -8.6997621178431317e-001
      1.7188877501923505e-001 7.5029270118955035e-002
      -5.5148282146171346e-001 -1.5538951578880951e+000
      7.6907556911128960e-001 -1.3712102122360745e-001
      3.5362898838082935e-001 1.1042569351219422e-001
      1.5727735174131499e-001 3.5161066050680152e-002
      9.5026796443743644e-001 -1.2066385710931307e-001
      8.7357313680729898e-001 -5.7389828538231498e-002
      -4.6957727711963948e-001 4.3862071220837162e-001
      3.7595319600427618e-001 -2.9289061971119107e-002
      2.8904219302248557e-001 -9.8655302214118598e-002
      -2.4217685741872524e-001 7.4703182298177884e-001
      2.5480366679214647e-002 1.3655458982837640e-001
      -3.8794307183310728e-002 1.3596605932731309e-001
      -6.0706130287665090e-002 9.6789732485979010e-002
      4.9273548864160271e-002 -9.4314629112713122e-001
      2.3851451184783359e-001 9.5309309228371120e-001
      -8.7825062438968191e-002 -3.9311559768946035e-002
      -7.8368962301988671e-002 1.8705689154311190e-002
      4.4266833783411695e-002 1.7025585484739880e-001
      -5.6742452745010503e-002 -1.0209395504864394e-001
      -1.4523773844237252e-002 4.3075163875642482e-002
      1.3216785497431888e-001 8.6197414195418001e-002
      3.3056264300322169e-001 -7.4777920924244623e-002
      2.1510039084870344e-001 4.5760101537090048e-001
      1.4527824978235981e-001 1.0728880374867675e-001
      1.7970267532565562e-001 -6.5508940624732004e-002
      6.2829335527126484e-001 -2.8875832784669808e-001
      -3.2642610530465554e-001 1.3647910374935696e-001
      -4.7333136278726276e-002 -1.1599524196527031e-002
      2.6702539419105381e-001 1.0865384488868794e-001
      -9.9275210098458674e-002 2.9388693673338889e-001
      1.3823363533356503e-001 1.3858549781395580e-002
      -3.4918109135569371e-002 1.1135307390765971e-001
      2.0432146919651087e-001 8.0333076918453858e-002
      2.2333885132422829e-001 9.7198584683660882e-002
      -2.5808484893994205e-001 -1.3967414872228308e-002
      1.5984059204861664e-001 -6.3271123054519915e-002
      -6.0745745090308671e-003 4.2699006506845105e-002
      -4.0328187916812329e-002 -6.1319664095554221e-004
      -4.0156266404034878e-002 1.1715248818742899e-002
      -2.0047164849160279e-001 -2.0324333431540254e-001
      -3.9852825451388872e-002 3.4405776012455702e-002
      -8.6916432171943822e-002 2.7397394842945021e-002
      1.9481427221851706e-004 4.8263636288630278e-002
      8.4999663488936603e-002 1.0473145076811234e-003
      -3.1007314027096194e-001 2.2335868991523542e-002
      -2.3194027750301785e-001 -7.5761193017614331e-002
      -2.8257068828102479e-002 -3.8025418521241000e-002
      2.7472707496990018e-002 -4.4705834472999202e-002
      8.9430978285986815e-003 -2.8386307263716725e-002
      1.3916394303159091e-001 -4.6378239187413919e-002
      -1.1877776671242515e-001 1.0472984163179803e-001
      1.8115600309512238e-002 -1.9518301258718951e-001
      7.6612713419357908e-002 7.1244801080075970e-002
      -5.2099626485024673e-003 2.0330454541915274e-001
      2.2945554430798008e-002 -4.4631399957094597e-001
      -8.6523347033368558e-002 2.9299210071261288e-002
      7.6775155134031964e-002 -1.4956878141678726e-001
      4.0065190545185314e-001 -1.3953915229983599e-001
      9.2162427339126510e-002 2.2129128901295987e-002
      -7.4480180291306611e-002 4.6727863550145032e-001
      -4.8431846487041420e-003 6.9030067857610761e-002
      1.3550223710566339e-002 1.4239262259992447e-001
      8.1644427191260527e-002 -2.8050346952049232e-001
      2.5268045837830361e-001 1.7669911174154208e-002
      8.5662585953865611e-002 -1.5144792935881907e-001
      -3.5474200401757958e-002 2.1451027561394514e-001
      -7.2315218392918920e-002 -3.4353714444395944e-001
      -1.4148888443265481e-001 -2.9829189763091343e-002
      4.2386123982794607e-002 7.6932640314603951e-002
      1.2984697522963146e-001 -6.8165265222822430e-002
      5.0519677897118101e-002 1.2149405656944488e-001
      -4.5598689135007524e-002 1.7024090121859034e-001
      6.2314303303737332e-003 3.9971392482738249e-001
      2.2088426693369781e-001 -1.7108501856474628e-001
      -1.2305029215875449e-001 -9.9152088757381643e-002
      3.3825199883303741e-001 -3.1483547094816361e-001
      6.9931247932247947e-002 2.7512303834056475e-002
      -8.1305776113752268e-002 -8.7300611075031356e-003
      3.1077337728314409e-002 3.4618320714113132e-001
      3.5538116206213216e-001 -2.7419072075050188e-001
      -1.5660382592956545e-001 -1.6433668741777699e-001
      1.3564621211606459e-001 -7.3097611571653412e-002
      -7.2610478970837791e-002 5.0468824652669247e-002
      1.0706083537739944e-001 2.8565964098068893e-003
      7.4384459973585268e-002 2.3700604997894303e-001
      -9.6640284522426703e-003 1.8327787761209996e-001
      -4.0042913121582972e-002 -8.2579625525469352e-002
      2.0686372899312949e-001 -1.5493566772914108e-001
      -6.0029283984193021e-002 4.8093194392529182e-003
      3.3906100651555243e-001 1.3038786992203807e-001
      1.3410208521667452e-001 3.5785623260368071e-001
      -1.6969286716579057e-001 6.9465700506454273e-002
      7.8017228930877994e-002 -1.6629004357010080e-001
      -7.5909654946271679e-002 -6.2814785611956317e-002
      4.8804449598497730e-002 -1.6925300654738580e-002
      1.2380130391708787e-001 -4.7204389825428107e-002
      -1.2132906321140689e-001 1.4998429515454559e-001
      5.8469109379144957e-002 5.1728394258535090e-003
      1.8076339708973876e-001 3.3609815846912451e-002
      -1.4227823581901397e-001 -4.7783462598321563e-001
      1.2106715603907602e-001 -1.1806912180037898e-001
      -4.8044072020475496e-002 -2.8762010953492739e-001
      3.0076284479223205e-002 -1.0305013810947885e-002
      6.1351570093998720e-003 -3.2489070408254972e-001
      -4.7921637523328127e-003 -8.6616687602394604e-002
      2.1160209690804379e-004 -4.5780570984307626e-003
      7.1564703471894114e-002 -2.3677276073503367e-002
      -9.0187722839604398e-002 -1.5009735677975414e-001
      1.1545690243066656e-001 1.4370265284063047e-001
      -5.7667984656515202e-002 -8.3071909583208509e-002
      3.9560581548212420e-001 2.6642763495264554e-001
      5.7767887627502755e-002 2.4910855411083210e-001
      -1.2556378225047035e-002 -1.5350455451959510e-001
      -1.6744578710496028e-001 6.0037259861562875e-001
      1.3545948668726665e-001 2.1050544087132014e-001
      -6.4570978371245119e-002 -9.1923302643495255e-002
      -1.5933442045424190e-001 -1.8199605181427556e-001
      1.0330238309905082e+000 -1.7524110510511129e-001
      1.0978106685496596e-001 -3.1076523222502828e-001
      -1.3856740876497772e-001 5.9138300267991462e-001
      3.2040342441772413e-001 -1.8596473521740695e-001
      2.4817515383865681e-002 -1.9765829038517391e-001
      4.6809512034626376e-002 1.9001227846850866e-002
      -1.3444683269872843e-002 -1.3163918060433308e-001
      -2.0738650439271356e-001 -2.7622878851688903e-001
      7.8486243951598599e-003 8.7457870663006670e-002
      -1.1650181102155163e-001 -1.5562352969221263e-001
      -1.1673272877872638e-001 3.6228083344101596e-002
      1.2337799370579570e-001 -8.8012214234901714e-002
      -8.7329383039151318e-002 -1.5043884004133820e-001
      -1.8919407169288388e-001 2.8479472210154386e-002
      3.0212394478979626e-001 2.7870078610934623e-001
      -2.2984844168817961e-001 4.8529819648822170e-001
      2.5839326391127942e-001 -4.0773391042381213e-001
      -2.9129083531279676e-001 -2.7284355774190215e-002
      1.4403005563300525e-001 -2.1699594521699025e-001
      -5.4661920391871281e-002 -9.7138309780171794e-002
      -4.4323657604671156e-002 -7.5109144309199244e-003
      8.0291627040716393e-002 3.0163289651391556e-001
      -1.4244567846482195e-001 -2.9949033532343326e-002
      1.3707820060556430e-001 1.1123590647481613e-001
      -1.0580457542871206e-001 3.1576308830829577e-003
      -9.7126004979005611e-003 6.3060464801779473e-002
      -1.7867855332278071e-001 4.3710111133353484e-002
      -1.5040177740647495e-001 1.1351671160354811e-001
      -4.3075326046456014e-001 2.6490936596074887e-002
      3.1578714855207279e-001 -3.1056188291402692e-001
      -4.8601787974246961e-002 -1.1124015891145522e-001
      7.0761469746312543e-003 7.8356887013135590e-002
      1.3671928839449088e-001 -8.5905618608132103e-002
      2.0872025660907648e-001 1.2468598373290075e-002
      7.7745882308246347e-002 8.2158953147263958e-002
      -1.2496969459295772e-001 -2.6686205282519998e-001
      -3.2878122232083986e-003 -1.6287026350043358e-002
      -1.1221245639853918e-001 -1.1042583102204737e-001
      -1.4731884930523020e-001 -1.7321727320633104e-001
      -1.1558780344855196e-001 7.1706821416004624e-002
      -5.8848089634686285e-001 -2.3217506212752988e-002
      -6.2176639944687966e-002 -1.5440991503952983e-001
      1.0484184190656565e-001 -5.9464755481414000e-002
      -3.1951276220807684e-001 -6.2197821788834684e-001
      1.2460936552731876e-002 -1.2199654072072567e-001
      4.7305666960476304e-003 3.8922457827739199e-001
      -1.1035349957597655e-001 5.2156324084418830e-002
      1.8037542458981784e-001 -1.7694005820265746e-002
      2.3662758991347824e-001 -1.0249514194637188e-001
      -1.2937945594804690e-001 2.5747100550103591e-001
      -6.0545467031940303e-002 8.0978163942895295e-002
      7.2894335821482286e-003 -1.4478105107611769e-001
      -1.2850681175977971e-001 -1.3972609880043099e-001
      -1.0365631179897364e-001 -2.6970436107275719e-001
      -2.2564278021999007e-001 9.8547808011817783e-002
      1.7698754000265268e-001 -8.6244467386637352e-002
      -7.2919439825092761e-002 -3.1980407536164174e-001
      -3.4736276432112034e-001 -7.6659795316148235e-002
      -5.8982269464419777e-002 -6.6587369542328662e-002
      -8.4381224776918326e-002 1.4982961386795163e-001
      -6.6891325577516880e-001 7.8153751512183983e-002
      1.4753100695325773e-002 -6.3355400733585132e-001
      1.9435238062130011e-001 9.8600956400234377e-002
      -3.5860728310935558e-001 -1.5287964237685611e-001
      7.8015587926297114e-001 -1.5285788726112995e-001
      2.0474287673093292e-001 5.1072741548358358e-001
      -2.6329344349300210e-001 2.1309853638887592e-002
      7.6785336831838080e-001 -5.4284229530909681e-002
      7.7376118908090374e-001 -1.0533313934687792e-001
      -1.2390271330506325e-001 2.1198018496590926e-001
      4.4612065061415418e-001 6.7216838054578287e-002
      4.1362581501756215e-002 -1.3099313053880957e-001
      -6.1898769655008135e-001 6.9949460451296752e-001
      -4.6294060529502357e-002 2.1353174459949217e-002
      -4.8971633013705072e-002 1.1553697257085545e-001
      9.3400361705485185e-002 6.1376813540810655e-002
      -9.5818687885596485e-002 -1.0496013075935737e+000
      5.8325717160287371e-001 -2.5944741709736225e-002
      -3.2006774550941230e-001 -1.8810055189660244e-001
      7.0869701164524401e-002 4.0968389406045524e-002
      -3.5568902148527221e-001 2.4295252569477798e-002
      -5.8861899279300342e-002 -1.8497999761033714e+000
      2.6662836355765029e-001 1.7506043486973816e-001
      -9.0114763282910737e-001 -8.4496895538574024e-001
      7.8336899692963335e-001 -1.3018766818016034e-001
      3.3044386401193820e-001 8.6380737070656211e-001
      -1.2281383642663730e-001 2.9549966174108915e-002
      9.3687520240209288e-001 -3.1703602221071120e-001
      8.5310307960273313e-001 -5.1182931653414609e-001
      -4.7689724514189430e-001 3.8589638705594975e-001
      1.3184944117039121e+000 -2.1891144929941563e-002
      2.8946162023748534e-001 1.6005490925979671e-001
      -1.0788033487961624e+000 1.8902262008572064e+000
      7.8514211744503071e-002 1.0003777222069087e-001
      -4.7459402847875344e-002 1.4582618961522056e-001
      -6.8985278770545305e-002 1.3568640188420825e-001
      4.8723519359070266e-001 -1.1706686531327537e+000
      9.6831000532927647e-001 5.4858423204281537e-001
      -1.1689289093258745e-001 -3.0757955201857857e-002
      3.1331392594486362e-001 7.4461618905556489e-003
      9.5937066645833249e-002 1.7182941354694600e-001
      -6.2547918300748379e-002 -2.6031450362588293e-001
      -2.7279253570129339e-002 4.8223145870361361e-001
      -9.5967897103160352e-002 -4.3019333789917735e-002
      4.0610805539422801e-001 1.5147054485608435e-001
      1.8086487839388883e-002 -3.4927088384662947e-001
      2.2103016818867455e-001 5.5634963123014212e-002
      6.3715255213167443e-001 -2.0775465672786680e-001
      6.1578953212483267e-001 -2.2197475136410369e-001
      1.7689115070883013e-001 2.6492249766813242e-001
      -5.5997029319656381e-002 -4.2640709796599612e-002
      -2.5261251987882014e-002 -1.2837393469066402e-001
      -2.0061822422753370e-001 5.6253297785968859e-001
      8.1124246814180304e-002 3.2990912913910736e-002
      -3.9606925615872514e-002 2.6155565074269138e-001
      1.9559732884107509e-001 1.2627189580174275e-001
      1.9672771917589235e-001 -9.3510581964576456e-002
      1.8499214754835902e-002 3.0825229889239140e-003
      -4.0577117873594422e-002 4.3277512994451824e-002
      -1.4314311729813168e-002 -1.9205365022184492e-001
      -5.1518263277682545e-002 -1.4210816080895746e-002
      -2.1904797251757943e-001 1.4735104810523795e-002
      -1.0148008494103340e-001 4.0572050400533560e-001
      -1.3185753860618740e-001 -4.0593844429391714e-002
      3.0813125740750496e-002 -5.0021669178004741e-002
      1.8323042156111788e-001 5.7654424081882101e-002
      -1.4114837507114519e-001 5.4945838757649204e-002
      -2.9784649443550387e-001 -1.2533276029642160e-001
      -1.6195582273097794e-001 -6.6025242369297132e-002
      2.7972204363104286e-001 1.1684844032132756e-001
      -1.4566309473354522e-001 -5.1220802028683843e-002
      2.3276642802752698e-002 4.6782738731011263e-003
      1.3076565433922732e-001 -2.7590553428188801e-002
      5.6106997190422385e-002 4.9392190454201089e-002
      -1.3538030753348440e-001 1.1043956840820621e-001
      -1.2038735427475482e-001 6.5693741784489057e-002
      9.5378016601135304e-002 -6.6653841758750540e-002
      -2.3251858962502045e-001 -4.6669314943989143e-001
      -2.6229837206037609e-002 4.9298001021088729e-002
      2.4802642494999288e-002 -7.0144094776060331e-002
      7.5984038693382855e-002 -1.2741781549124367e-001
      -9.1860347198322673e-002 -3.0670903641424102e-001
      4.0816820481712168e-001 1.0796111233945237e-001
      -1.1660530061930520e-001 2.5428329327250859e-001
      6.8710802312263827e-002 -1.7155303183649630e-002
      -8.0425243540505204e-002 2.5813761157120885e-001
      2.6521813117318166e-001 1.9568548169753436e-001
      2.3209228033896075e-002 -1.0152371450571940e-001
      -6.8768684227877965e-003 -1.0532344946687421e-001
      -1.5808374269851355e-001 -6.2749317582176126e-002
      8.9059695258522684e-002 -1.1498075449790898e-001
      2.6404342996223531e-003 -4.5554817638680523e-002
      -8.7402590870672529e-003 6.0532015800502680e-002
      -5.7325231777516812e-002 4.3118244445240671e-002
      -1.6408119126244247e-001 -5.7058368377161675e-002
      2.7449574810085720e-001 1.3322139902759031e-001
      9.6448370654366733e-002 -1.2838839059362955e-001
      -1.9692434494096456e-001 2.0244129950860285e-001
      -2.1696092815818216e-001 2.2292352384785297e-001
      -1.3676534767496359e-001 -1.0220148434219041e-001
      -8.4053251785474563e-003 1.5880586575163838e-001
      -3.4366068593521509e-001 -1.9911843401570161e-002
      4.5214686491285732e-004 1.5675151256923600e-001
      3.8072659369091946e-002 -6.0739639343230054e-002
      4.9375044284901803e-002 1.6113108796229422e-001
      -2.2478175991768004e-002 2.2775399608860172e-001
      -4.8595651370212704e-002 -1.3352689961814873e-001
      -7.5389879486570541e-002 4.3342066813128727e-001
      -1.9757622777513729e-003 -1.1106177516224525e-001
      1.0658845765867381e-001 6.5497278527112110e-002
      2.9532114957973910e-001 2.4950067936092979e-001
      2.0121592759797213e-001 1.0243696991787650e-002
      -2.8264213958247419e-001 5.2484954279407088e-002
      -2.3978239141145527e-001 2.7287812464148846e-002
      6.2303858668412607e-002 -5.9090299188160478e-001
      8.9974027412156557e-002 -7.9152105588018762e-001
      1.3212458357913465e-001 1.0301265282641067e-001
      -1.3326764380834302e-001 -6.5699934092556339e-002
      -6.5305155443617119e-002 5.6289079295192279e-002
      -3.8323233384862260e-001 -2.6324385794429422e-001
      -4.6847745203255985e-002 4.9531354457825437e-002
      1.3991003474942369e-002 -2.0965452671010126e-001
      1.8685206680838073e-001 6.6672508804857204e-003
      1.0552274322134168e-001 -1.1866971540808438e-002
      -2.4047146215486984e-001 1.2288178477148094e-001
      7.2175456042950850e-002 1.0120061597955776e-001
      -3.1739526618410990e-001 2.5860131977779324e-002
      1.8288366823023600e-001 -3.7560761784680118e-002
      -1.7732997153518490e-002 -1.5234530626078482e-001
      1.8133387929618144e-002 -4.7461458320600933e-002
      2.9773781301488778e-001 -1.6846433972041375e-001
      -2.5265833985785725e-002 1.1548547707915607e-001
      2.8825376683729387e-001 -7.6451338993480375e-002
      -1.3898099702293656e-001 -3.3115940347672457e-001
      1.5508548144379911e-001 -1.5290959867968534e-001
      1.9935992609575548e-001 -4.0994495056565400e-001
      3.5286997925621022e-001 1.7599369693336026e-001
      8.4572889324889561e-003 2.4912021773675744e-001
      1.9164702340289597e-002 1.8242062424240910e-002
      -3.8568499583308097e-001 -1.1810585296481815e-001
      -3.5588770276896039e-003 -1.7852709696798729e-004
      -5.0898423689700982e-002 -1.8955943418409699e-001
      -1.5419785193676394e-001 5.6828159454631211e-001
      3.6531754045178461e-001 -1.5139665630420518e-001
      -1.4734434274207289e-001 -2.4476960064921022e-001
      5.0570922304835099e-002 -2.4344493181980506e-001
      -1.4123096614041042e-001 -2.0260144824814108e-001
      -3.0835003835307728e-001 -8.2480113922213841e-002
      1.1555742689168591e-001 4.8292153460122470e-003
      1.7885615476615538e-001 -6.0814907865934791e-002
      -1.1625990167605005e-001 3.2697230723567325e-002
      1.2792006484322715e-001 -1.1918996499331860e-001
      -3.2787095859127463e-001 -4.7856988824548079e-002
      -6.1604803053826665e-002 -2.6606198748771070e-001
      2.8015002804343703e-001 -3.6510852278659953e-002
      -2.7775218798562396e-001 -5.4385761004838384e-002
      2.9819352094719631e-001 8.6196118099562152e-002
      -1.8009446527436160e-001 2.1787321928076633e-001
      1.4315099548922519e-001 2.0968148667343731e-001
      -6.4648963060567527e-002 -1.0366034868197735e-001
      5.1527768090749515e-003 2.4384200941757951e-002
      -8.7899977696270365e-002 3.1307708855995775e-001
      -2.8782257472404815e-001 2.1371634099889295e-001
      8.8816632577332619e-002 1.0288656494041448e-001
      -1.9533699445096311e-001 4.1031461987858606e-002
      -5.2672792468416052e-002 8.1005939727350609e-002
      -9.0304262508619518e-002 -1.1404605414351850e-001
      -1.5566185363882637e-001 -7.1198592416013090e-002
      -2.1536667159207698e-001 -4.3363742413111764e-002
      -3.5528299473429725e-002 -9.3575929931419569e-002
      4.9910624059298504e-002 -1.7035345033779417e-002
      3.4775876904023582e-002 -1.5425206174650119e-001
      8.6928316701260930e-002 -9.4638223378015987e-002
      -1.3229006435226669e-002 -6.4923933440615089e-002
      1.5289845746251851e-001 -1.2013320460870526e-001
      -8.2803031586600975e-002 2.3114040827446614e-001
      1.2922842729885661e-002 -2.4158793155393318e-001
      -4.1811719400110126e-001 -4.9459749418003091e-001
      -1.3809932399059210e-001 -5.3113231394921842e-002
      -4.9392899512795824e-002 7.5830590821714242e-002
      -9.7871415047650220e-002 1.1029162670053914e-001
      -3.9238368818334840e-001 -1.2308987898318170e-001
      -1.6630733798184420e-002 3.5591289881828597e-001
      -2.2567750287912777e-001 2.6723838461902161e-001
      -5.5252488285637870e-003 -4.8767386250727005e-002
      2.3842927213228388e-001 9.2235217541452474e-002
      -2.7438795910494557e-001 6.0338054768123525e-002
      4.4853601476940702e-002 -1.9935407686001477e-001
      5.2974868521962304e-001 -1.0065129565215369e-001
      -9.0988774982708520e-002 1.5466431432997643e-001
      -5.3482133738935074e-002 7.6468621346311480e-002
      -4.8406348514113774e-002 -1.2406802657230587e-001
      -9.3915236764353663e-002 5.7297567499720936e-001
      4.5563146083758554e-002 -1.2830749580878059e-001
      -3.6342307394044204e-002 2.1250336055435459e-001
      -1.5138360511209828e-001 -1.3872761241785816e-001
      2.4424711744980315e-001 3.9149083258782924e-001
      1.6099292031599176e-002 6.6131727591505274e-001
      -1.4160914058033527e-001 -4.6873890288521874e-002
      -1.7393822847586851e-002 2.9763367628458434e-002
      -1.0279575012721194e+000 8.2200211623140396e-002
      -5.4151493215089586e-001 -5.9255868838531989e-001
      2.5667384066158638e-001 1.9610515236910359e-001
      -5.3431774139152988e-001 -5.9477567759805750e-001
      2.2057053198705365e-001 9.1927950649063964e-004
      7.9424825384270439e-002 6.5542411299531955e-001
      -1.2030477832744625e-001 1.9013429213541592e-002
      7.3843607452815185e-001 -3.0696460265803072e-001
      8.5893905855169850e-001 -1.3244775588231508e-001
      -4.5532523416863291e-001 3.9051053216644788e-001
      3.9858538959367296e-001 1.6101354333937362e-001
      2.6851841225983164e-001 -1.2929350080414306e-001
      -6.5211234491117653e-001 7.0134871872353499e-001
      5.2295779290860031e-002 -8.9856195389432254e-003
      -5.1637027839584987e-002 1.2111027125587134e-001
      1.9819950778272175e-001 8.7688382299801262e-002
      -9.6349646461059979e-002 -1.0998951950987450e+000
      1.1540017676396022e+000 1.8558912615238868e-001
      -2.3212089550091064e-001 -1.8311767634544951e-001
      -3.7569380424775520e-002 3.4160369850924681e-002
      -1.8579311227870439e+000 3.1783153570124248e-002
      -4.7655009926543652e-002 -1.8645425001230618e+000
      2.6065093411842355e-001 3.6340992984854603e-001
      -7.8013877392813580e-001 -5.9238118378312103e+000
      8.0808679308536302e-001 -1.4294136933908963e-001
      3.9910970343522784e-001 8.6477497777708145e-001
      -1.2158713043546450e-001 1.6872437811232179e-002
      1.6741151305091009e+000 -2.2236312239767958e-001
      8.7693622964285500e-001 -6.4608984770244826e-001
      -4.7287632898652016e-001 3.7377071666495204e-001
      1.3140772428636638e+000 -3.1607235850551960e-002
      2.8185364452482647e-001 1.5495047479076382e-001
      -1.1508785145157530e+000 1.8666107345245533e+000
      2.4177615813377820e-001 1.2771124816692797e-001
      -4.4046109901159147e-002 1.7167618933517256e-001
      -3.5430966085633425e-002 1.4061724377685650e-001
      5.1224003909507793e-002 -1.1687243069330984e+000
      1.6168545679680038e+000 1.5318164108359107e+000
      -7.2285068371597053e-002 -4.9794511713140734e-002
      -8.6479155352853776e-002 -5.4958526137933519e-002
      -3.1428750287818907e-001 4.2429726674701677e-002
      -5.5277514430108851e-002 -3.0826584530374412e-001
      -8.7620545965212526e-003 3.1730724372116009e-001
      -1.4808607324485487e-001 -1.4946189855501707e-001
      2.3286709161749955e-001 -1.8934422539337071e-002
      3.7479499998454358e-001 3.6696892308264895e-002
      1.9661969244163355e-001 1.0425881573207241e-001
      4.2244256491605064e-001 -1.1140380074909964e-001
      2.3699458969757417e-001 -1.0705180964166783e-001
      1.9909006391052897e-001 2.6113139073685554e-001
      -7.7753582959565401e-002 -2.2463615794051341e-002
      1.8168827347226191e-001 -1.4863383440092662e-001
      -2.2390644513246921e-001 4.5829862075151478e-001
      7.0423446823296890e-002 -2.7011167813732698e-002
      -4.8319733272209085e-002 1.6205823596594360e-001
      1.7985561441666653e-001 6.4969728432560277e-003
      2.0727834375857815e-001 -1.2033123276795483e-001
      1.0228535485711704e-002 -1.2464404019541799e-002
      -1.4131258973496050e-001 6.4543198111676053e-002
      -3.2312924516564763e-003 -8.0279259896882671e-002
      1.7825531406616649e-002 -3.9547406654552038e-002
      3.8123489770134335e-002 2.2337641479499265e-002
      -1.8506141145498973e-003 2.2737801968621382e-001
      -2.1995312106719905e-001 -3.1455018800811752e-002
      1.4132141563299086e-001 -5.3096507080848003e-002
      1.4267058487510187e-001 5.4049522040631057e-002
      4.7447626678642912e-002 3.9995224631424818e-002
      -1.4633246349502843e-001 -5.0834018459058328e-002
      -1.4302767643658379e-001 -6.3602407908730382e-002
      6.4010833789121355e-002 8.8204097908064494e-002
      -2.0001316607867629e-002 -2.1000325396376935e-002
      2.1879635789487442e-002 -5.1563911346377493e-002
      4.5356195676185533e-002 -4.9983876784364563e-002
      -2.2231879208793600e-002 5.0830896668583724e-002
      2.8501607768056665e-002 -1.2281684377386932e-001
      -3.3693981218516585e-002 5.6696578208218662e-002
      1.0193733960330015e-001 1.3826468095571248e-001
      -2.1940660527184347e-001 -1.0577302961624804e-001
      -6.1212452766375595e-002 8.2763398274606881e-002
      1.2239656642762220e-001 1.0539009008411916e-001
      2.1993398566826949e-001 -1.7327420196607524e-001
      -3.6352414304187192e-001 -1.6238380797302740e-001
      2.3202188852226992e-002 9.6196735163742220e-002
      2.0139013213873844e-001 -3.8366289859598507e-001
      6.5262456559224885e-002 1.7184817110753564e-001
      -4.7683620440656341e-002 1.9775998614478765e-001
      -4.6176004823391299e-002 1.9939554891214445e-001
      -6.4568307011762596e-002 8.8494736120236658e-002
      -4.0439884228148391e-002 2.1500218379211047e-001
      9.1822656755983043e-002 2.5169084019075744e-001
      1.1216561272862373e-001 5.2439191195375601e-002
      -4.6449492127208974e-002 -1.3532013725385553e-001
      -7.4914984338865315e-002 2.2522281692292606e-001
      -1.1749784522319652e-001 -3.9673827405579165e-001
      -2.9282158200858440e-002 -7.0504692124758669e-002
      -6.4984246600079093e-002 2.2897435720415324e-001
      -1.7815446534845952e-001 -1.2407206636909156e-001
      -9.3522903376566005e-002 -1.6639810438608266e-001
      -1.1501379115193194e-001 3.0687096612731224e-001
      5.6344669201624752e-002 -2.8977028988902531e-001
      1.4079292599376456e-001 1.9441929503592786e-002
      -2.4356895551951962e-003 -1.7809431672571571e-001
      1.9308559946446948e-002 2.4236063027657931e-001
      -1.2459078897175471e-001 1.5713342251137433e-001
      2.4742933414782822e-001 1.4496908857656321e-001
      -5.4126512417562368e-002 6.6508553021104894e-002
      -3.3893637754865319e-001 8.9504136774261459e-002
      9.2816337992006684e-002 2.0861405519983464e-001
      -6.0965303007341307e-002 -1.6312708377731555e-001
      -4.0668845936322917e-002 7.2827005931969557e-002
      3.0482919800474645e-001 -2.0847232032343960e-001
      -4.7031482340260382e-002 2.1000164767305202e-001
      4.4331585910762750e-002 -3.5536887951070475e-002
      9.7780406754398266e-002 -1.9903541497072952e-001
      -2.6193612231495222e-001 -4.4001834737659828e-001
      8.3513854667297882e-002 -1.9756310811726979e-001
      2.2321418330777551e-001 1.0377892606158370e-002
      1.7633389672238706e-001 -4.3496054594020839e-002
      1.6599095640789868e-001 1.1565288865888755e-001
      1.1379006317506786e-001 -2.1685731664479851e-001
      1.4070452840874123e-001 2.9934644948908912e-001
      3.6283748946188255e-001 -9.0298692624461593e-002
      3.5460150849838230e-002 -2.1891586638657484e-001
      -1.7688252691815615e-001 2.2454033060856644e-002
      -1.1121056274860541e-001 1.1432340980673160e-001
      4.3058952021067665e-001 -3.2553671361676396e-002
      -9.1233093913591926e-002 -3.4038858894259214e-002
      1.6794236442582552e-001 9.5399235140323516e-002
      8.9056449780708535e-002 -5.1569549468874744e-002
      9.1700054178976476e-002 6.7710228165282632e-002
      -4.6040666979029088e-002 -4.7919330770222351e-001
      -2.6062706788558591e-002 2.2315379572105504e-001
      1.6850443308044408e-001 -2.7575122780841194e-001
      7.1317934419048223e-001 -1.1598114227400966e-001
      9.8639702778141825e-002 1.4254138736581115e-001
      2.1086412985452142e-002 -4.1419772031571556e-001
      1.5833286084752626e-001 2.4322285691088316e-001
      2.0054431264763053e-001 2.5479909423998942e-001
      5.8130247735261806e-002 2.4766832532028277e-001
      -9.4428775597528283e-002 -7.1224128653938498e-002
      -5.0132501120126009e-002 5.0536528578860340e-001
      -1.5723010132095161e-001 -1.1602474367624693e-001
      -5.8122053802925774e-002 2.0800007862434508e-001
      1.4476478863797333e-002 -1.3015532019697726e-001
      -2.5184008047741668e-001 1.3736256879121339e-001
      2.1557885819886002e-001 -4.8712040717459049e-001
      -1.3789791475849184e-001 -1.9523968950606690e-001
      1.3762862177655988e-001 -1.7621446233502031e-001
      -1.9669686855728455e-001 -5.9337611708502491e-001
      -1.2281275330200354e-001 1.2784931852552678e-001
      -2.4369560623282080e-001 2.0525794822578780e-001
      8.1512980403670637e-002 1.4628108066154924e-001
      2.1585833030103496e-001 3.0753452275166576e-001
      -3.6995070669550496e-002 -1.1217092770813136e-001
      -1.0255960472489551e-002 2.8075004961142935e-001
      1.4768913797986524e-001 -1.9208822311157534e-002
      9.3660872589535985e-003 -3.1841507711550525e-002
      -3.8944343833788353e-001 1.7735037529031136e-001
      1.5912565374882406e-001 1.1804560457022240e-001
      -1.1626625510956196e-001 1.0641799071523293e-001
      -2.4758207086160951e-002 4.4751909711462319e-002
      2.0846589085822737e-001 2.2407811889423190e-001
      -2.6243519278464300e-001 2.0727855485704397e-001
      9.7982331588905291e-002 4.0114845083952272e-002
      -4.1502135818459834e-001 5.9462901103577347e-002
      2.7134553445281092e-002 3.9855421380221384e-002
      -2.4411678187382288e-001 -4.1349257284362445e-001
      -2.9029123554623798e-001 -1.2323968057348639e-001
      1.0003118515620324e-001 -1.8607075611515347e-001
      -1.5900763549955652e-001 -1.0960005649240426e-001
      4.9668398149177909e-002 2.1949193111447041e-001
      8.3721732998072770e-002 -3.8440455995834844e-001
      4.8482398599928228e-002 6.3921912561715394e-002
      -5.3333429198862782e-002 -6.3234911992607945e-002
      1.1598253290453292e-001 7.1096823603389481e-002
      -3.5703970662292328e-001 1.8205697717743122e-001
      1.1267772588815518e-001 1.1982222611672430e-001
      -4.3537529776359069e-001 -1.3173771662229284e-002
      -8.8039008183415896e-002 -2.5631383049574408e-002
      -1.8272890294336319e-002 3.1428687711630848e-002
      -1.3083705589847242e-001 1.3404858845826176e-001
      -4.6093808639835060e-001 -2.6905665521406325e-001
      2.4961674545154609e-003 2.0108934416040739e-002
      -2.3502933855282004e-001 -1.0621194008909273e-002
      -8.9599805077004502e-004 3.8829598758427236e-001
      3.1374697158757903e-002 8.7329919160049133e-002
      -9.2411583490790622e-002 6.1763939461464565e-002
      8.0978972915412992e-002 -1.2716595079226203e-001
      5.2412181271073166e-001 -9.5662512259861526e-002
      -1.5540476221620128e-001 2.0107243558565133e-001
      3.5243635341495083e-001 7.4394299900828159e-002
      2.7334848786843641e-001 -1.2745203763630913e-001
      3.7460164914389726e-001 4.0777286468314938e-001
      5.7055300204863706e-002 -1.2084927927596766e-001
      -6.0157648296188491e-002 2.5147121428739422e-001
      6.5404754381166164e-002 8.0413207414980925e-002
      2.2645816280920006e-001 -3.9307287415669490e-001
      -8.4540841791006047e-003 1.8726729426701946e-001
      -1.6670936342077555e-001 -4.2717852628199077e-002
      -1.5625360796941506e-001 3.4595166656692093e-002
      -1.1123291419548689e+000 1.3406493868751895e-001
      -5.4869279635582036e-001 -3.6816558227341800e-001
      2.6402582345439590e-001 9.5793550128537897e-001
      -9.1476204422958196e-001 -1.0234907145794472e+000
      2.4912705184064962e-001 -1.2364524502930264e-001
      1.0807112842555974e-001 8.7248980332517156e-001
      -9.8724639782169665e-002 1.0008170813014082e-001
      9.7061644188357987e-001 -4.3017838317535716e-002
      8.6005747208989269e-001 -3.4635289122484214e-001
      -4.8813386695799360e-001 3.7941591925909612e-001
      1.7789412883080875e+000 4.0601106231664741e-002
      2.6698064079680067e-001 1.2059965670596641e-001
