<?xml version="1.0"?>
<opencv_storage>
<ann type_id="opencv-ml-ann-mlp">
  <layer_sizes type_id="opencv-matrix">
    <rows>1</rows>
    <cols>3</cols>
    <dt>i</dt>
    <data>
      140 40 54</data></layer_sizes>
  <activation_function>SIGMOID_SYM</activation_function>
  <f_param1>1.</f_param1>
  <f_param2>1.</f_param2>
  <min_val>-9.4999999999999996e-001</min_val>
  <max_val>9.4999999999999996e-001</max_val>
  <min_val1>-9.7999999999999998e-001</min_val1>
  <max_val1>9.7999999999999998e-001</max_val1>
  <training_params>
    <train_method>RPROP</train_method>
    <dw0>1.0000000000000001e-001</dw0>
    <dw_plus>1.2000000000000000e+000</dw_plus>
    <dw_minus>5.0000000000000000e-001</dw_minus>
    <dw_min>1.1920928955078125e-007</dw_min>
    <dw_max>50.</dw_max>
    <term_criteria><epsilon>9.9999997764825821e-003</epsilon>
      <iterations>1000</iterations></term_criteria></training_params>
  <input_scale>
    4.3841048496651034e+000 -2.2341703850207209e+000
    4.1127420558783134e+000 -2.3426063810653459e+000
    3.8883115616024373e+000 -2.2912510155934673e+000
    3.7761193226874861e+000 -2.3560276113778231e+000
    3.8525120497023431e+000 -2.6600025816913835e+000
    4.3103654885302385e+000 -3.1936304796955866e+000
    4.6246647811756789e+000 -3.5906063380836675e+000
    4.9032381692999385e+000 -3.7553916621075492e+000
    5.2649910604090007e+000 -4.0677987706917760e+000
    5.4523478621079455e+000 -4.3169949126352920e+000
    5.4375909655240191e+000 -4.3321845686163609e+000
    5.5225670570467109e+000 -4.4711395118602359e+000
    5.2814211519732819e+000 -4.2215872744168719e+000
    5.1412746194665742e+000 -3.9435084154656534e+000
    4.5885107057967272e+000 -3.3125382099133907e+000
    3.9599837858569007e+000 -2.6223934103699533e+000
    2.4385775626637369e+000 -1.0905152257095228e+000
    2.5103519534061514e+000 -1.0638249406892013e+000
    2.7865908377763478e+000 -1.0052499380943520e+000
    3.0611650376772834e+000 -9.8267913028657894e-001
    5.2047669668232626e+000 -3.6047051661481477e+000
    5.9544833474196883e+000 -4.5447888136830557e+000
    6.1361698112908618e+000 -4.7179990682032065e+000
    6.3052364170988824e+000 -4.7615440930150825e+000
    6.4047450258713345e+000 -4.7254060508108147e+000
    6.2437175316491000e+000 -4.5686875819195221e+000
    6.3318477926779009e+000 -4.6901369135087698e+000
    6.8789959932614497e+000 -5.1712240317531162e+000
    6.6335741740600094e+000 -5.0241590209767288e+000
    6.4318318004529820e+000 -5.0591763958682199e+000
    6.0605101824936858e+000 -4.7463318228916487e+000
    6.0469847109106336e+000 -4.6247750393154821e+000
    6.2210727615130743e+000 -4.5844525067824753e+000
    6.2790738672132242e+000 -4.6227344817849838e+000
    6.3011460008859990e+000 -4.7377487016931283e+000
    5.9580321886100673e+000 -4.4679197856897845e+000
    5.5903635011738055e+000 -4.2000669617635751e+000
    5.5545947165634759e+000 -4.2426039228405923e+000
    5.5022174132098085e+000 -4.1736879245960852e+000
    5.2615572342000609e+000 -3.5612544850334458e+000
    1.4346833766095642e-002 -4.6485720275772791e-001
    1.0808212065396127e-002 -6.1993916689950734e-001
    1.0730538611219481e-002 -8.2752433695433436e-001
    1.0556526534636134e-002 -1.1631011060722454e+000
    1.0217140789198982e-002 -1.2094558024974276e+000
    1.1141348497661133e-002 -1.6022539754406555e+000
    1.0706150820068022e-002 -1.2854912207417122e+000
    9.8019961129152886e-003 -8.7773607859118774e-001
    9.8452397106076703e-003 -7.1209374026402095e-001
    1.2884522636414852e-002 -5.2196237885845942e-001
    1.2701066359479696e-002 -5.2142695051524646e-001
    9.2691863887071554e-003 -6.7233350945067505e-001
    1.0314854883809614e-002 -9.9138797203953144e-001
    1.0440810414267089e-002 -1.2542701562768692e+000
    9.8742658506852741e-003 -1.1618810282153242e+000
    9.6698398253622538e-003 -1.4268548892102462e+000
    1.0485956169013023e-002 -1.4163947480175481e+000
    9.9392849075953683e-003 -9.1044763710806453e-001
    9.2025582068837840e-003 -7.1800263107667317e-001
    1.1521433206076173e-002 -5.4935252968705084e-001
    1.1250819429227068e-002 -5.3488206043235242e-001
    9.3471347962729295e-003 -6.3287623253937153e-001
    1.0815233061460663e-002 -8.6976850158408825e-001
    1.0083189629657902e-002 -1.0281932774220401e+000
    9.6257018956909871e-003 -1.1638602122457484e+000
    9.2656841864657072e-003 -1.1914860447705047e+000
    9.6628333125013659e-003 -1.1472426537718863e+000
    1.0890578339375723e-002 -8.5633994452186402e-001
    9.7336646654308540e-003 -6.2222059789556050e-001
    1.1065423532781565e-002 -5.2475036545527431e-001
    1.1422200474670425e-002 -5.1064325763450735e-001
    9.4594193801092984e-003 -6.5633583359617209e-001
    1.0290999119135603e-002 -9.9883727726252969e-001
    1.0174103828709249e-002 -1.3105040948688260e+000
    9.9374359413134140e-003 -1.3482610502206893e+000
    9.9670979935759605e-003 -1.2512121999411492e+000
    9.7884830515168001e-003 -1.1701895214359506e+000
    1.0281534507789911e-002 -9.3857883129020447e-001
    9.9506945687644066e-003 -6.0902368289625242e-001
    1.1782212116512385e-002 -4.8466332682861907e-001
    1.2046537474676416e-002 -4.9442312978823644e-001
    9.6068129808013682e-003 -6.7314386440786633e-001
    9.5012485276237350e-003 -1.0238632781169890e+000
    9.9640768336149831e-003 -1.4042888864898093e+000
    1.0257456291724429e-002 -1.5143448219041791e+000
    1.0788530843717238e-002 -1.6816913866983128e+000
    1.0498176536677931e-002 -1.6217679648816725e+000
    9.4002805679171374e-003 -1.1066139943594371e+000
    9.8159890424284260e-003 -7.0367327793901391e-001
    1.2714380793077049e-002 -4.6110821009559433e-001
    1.1602700257156415e-002 -5.0555232214733625e-001
    9.4507768629806654e-003 -6.6855881824916374e-001
    9.6316407822971701e-003 -9.7916367277980432e-001
    1.0581884436289542e-002 -1.3194855780748405e+000
    1.0439772185609987e-002 -1.3150273037662383e+000
    9.9549626492592969e-003 -1.4145109410704770e+000
    1.0372113779403986e-002 -1.5379150369667438e+000
    9.5410079384723422e-003 -1.0667461009056394e+000
    9.2757713765278527e-003 -7.4065861642895103e-001
    1.1668340200454109e-002 -5.1767194834152608e-001
    1.0676174300451898e-002 -5.6150786517314666e-001
    9.1557169911495422e-003 -7.0880403801689706e-001
    1.0185860452022667e-002 -1.0151064616087713e+000
    1.0154249836699063e-002 -1.1099085276676606e+000
    1.0251260031275388e-002 -9.9599828496970799e-001
    9.9286443864702468e-003 -1.0453789788870034e+000
    9.6063344506671627e-003 -1.0704150768394900e+000
    9.6570952545633262e-003 -8.8987801747808570e-001
    9.0542854022533873e-003 -7.4361701214001030e-001
    1.0630343136298110e-002 -5.6544627959751770e-001
    9.9911803848673226e-003 -6.8117800723256117e-001
    8.7878401258428204e-003 -8.5356796190594408e-001
    9.9083707590894438e-003 -1.0908410091979244e+000
    9.9057977882436206e-003 -1.1341159273734591e+000
    1.0299362067293656e-002 -1.1207931538489810e+000
    9.6439466981942650e-003 -1.1542097108322993e+000
    9.5074609329815069e-003 -1.0655831076293494e+000
    9.6629839683542475e-003 -8.6429727089085218e-001
    8.7246316979602574e-003 -7.6623927462651509e-001
    1.0416801378785338e-002 -6.0948106200527108e-001
    1.0419567851893990e-002 -6.8674772886094682e-001
    8.5197282840177371e-003 -8.9651435958226366e-001
    1.0113205444430812e-002 -1.2967547249567704e+000
    1.1399369089577451e-002 -1.3936527978117015e+000
    1.1246773635938645e-002 -1.2874789365381827e+000
    1.1030756832189306e-002 -1.2994687993429301e+000
    1.0813947488740846e-002 -1.2416698804819235e+000
    9.2183307348657536e-003 -9.6931065550587014e-001
    8.7420062096547329e-003 -7.9612948137175676e-001
    1.1946383429237010e-002 -5.7701306592718882e-001
    1.1493363948360914e-002 -5.4790847556310329e-001
    9.8752711632148858e-003 -7.3508340290781149e-001
    1.0354450291297062e-002 -1.0137554311861892e+000
    1.0156309784927200e-002 -1.0778949944339702e+000
    1.0056402896314168e-002 -1.2386667951814572e+000
    9.7616313074339427e-003 -1.1295262127692911e+000
    1.0088623387354893e-002 -9.9848149315346624e-001
    1.0059740558319900e-002 -8.6284360465140719e-001
    1.0275584415316695e-002 -6.5998070826762345e-001
    1.3055054113258524e-002 -4.9234060397242785e-001</input_scale>
  <output_scale>
    5.2631578947368418e-001 4.9999999999999994e-001
    5.2631578947368418e-001 4.9999999999999994e-001
    5.2631578947368418e-001 4.9999999999999994e-001
    5.2631578947368418e-001 4.9999999999999994e-001
    5.2631578947368418e-001 4.9999999999999994e-001
    5.2631578947368418e-001 4.9999999999999994e-001
    5.2631578947368418e-001 4.9999999999999994e-001
    5.2631578947368418e-001 4.9999999999999994e-001
    5.2631578947368418e-001 4.9999999999999994e-001
    5.2631578947368418e-001 4.9999999999999994e-001
    5.2631578947368418e-001 4.9999999999999994e-001
    5.2631578947368418e-001 4.9999999999999994e-001
    5.2631578947368418e-001 4.9999999999999994e-001
    5.2631578947368418e-001 4.9999999999999994e-001
    5.2631578947368418e-001 4.9999999999999994e-001
    5.2631578947368418e-001 4.9999999999999994e-001
    5.2631578947368418e-001 4.9999999999999994e-001
    5.2631578947368418e-001 4.9999999999999994e-001
    5.2631578947368418e-001 4.9999999999999994e-001
    5.2631578947368418e-001 4.9999999999999994e-001
    5.2631578947368418e-001 4.9999999999999994e-001
    5.2631578947368418e-001 4.9999999999999994e-001
    5.2631578947368418e-001 4.9999999999999994e-001
    5.2631578947368418e-001 4.9999999999999994e-001
    5.2631578947368418e-001 4.9999999999999994e-001
    5.2631578947368418e-001 4.9999999999999994e-001
    5.2631578947368418e-001 4.9999999999999994e-001
    5.2631578947368418e-001 4.9999999999999994e-001
    5.2631578947368418e-001 4.9999999999999994e-001
    5.2631578947368418e-001 4.9999999999999994e-001
    5.2631578947368418e-001 4.9999999999999994e-001
    5.2631578947368418e-001 4.9999999999999994e-001
    5.2631578947368418e-001 4.9999999999999994e-001
    5.2631578947368418e-001 4.9999999999999994e-001
    5.2631578947368418e-001 4.9999999999999994e-001
    5.2631578947368418e-001 4.9999999999999994e-001
    5.2631578947368418e-001 4.9999999999999994e-001
    5.2631578947368418e-001 4.9999999999999994e-001
    5.2631578947368418e-001 4.9999999999999994e-001
    5.2631578947368418e-001 4.9999999999999994e-001
    5.2631578947368418e-001 4.9999999999999994e-001
    5.2631578947368418e-001 4.9999999999999994e-001
    5.2631578947368418e-001 4.9999999999999994e-001
    5.2631578947368418e-001 4.9999999999999994e-001
    5.2631578947368418e-001 4.9999999999999994e-001
    5.2631578947368418e-001 4.9999999999999994e-001
    5.2631578947368418e-001 4.9999999999999994e-001
    5.2631578947368418e-001 4.9999999999999994e-001
    5.2631578947368418e-001 4.9999999999999994e-001
    5.2631578947368418e-001 4.9999999999999994e-001
    5.2631578947368418e-001 4.9999999999999994e-001
    5.2631578947368418e-001 4.9999999999999994e-001
    5.2631578947368418e-001 4.9999999999999994e-001
    5.2631578947368418e-001 4.9999999999999994e-001</output_scale>
  <inv_output_scale>
    1.8999999999999999e+000 -9.4999999999999996e-001
    1.8999999999999999e+000 -9.4999999999999996e-001
    1.8999999999999999e+000 -9.4999999999999996e-001
    1.8999999999999999e+000 -9.4999999999999996e-001
    1.8999999999999999e+000 -9.4999999999999996e-001
    1.8999999999999999e+000 -9.4999999999999996e-001
    1.8999999999999999e+000 -9.4999999999999996e-001
    1.8999999999999999e+000 -9.4999999999999996e-001
    1.8999999999999999e+000 -9.4999999999999996e-001
    1.8999999999999999e+000 -9.4999999999999996e-001
    1.8999999999999999e+000 -9.4999999999999996e-001
    1.8999999999999999e+000 -9.4999999999999996e-001
    1.8999999999999999e+000 -9.4999999999999996e-001
    1.8999999999999999e+000 -9.4999999999999996e-001
    1.8999999999999999e+000 -9.4999999999999996e-001
    1.8999999999999999e+000 -9.4999999999999996e-001
    1.8999999999999999e+000 -9.4999999999999996e-001
    1.8999999999999999e+000 -9.4999999999999996e-001
    1.8999999999999999e+000 -9.4999999999999996e-001
    1.8999999999999999e+000 -9.4999999999999996e-001
    1.8999999999999999e+000 -9.4999999999999996e-001
    1.8999999999999999e+000 -9.4999999999999996e-001
    1.8999999999999999e+000 -9.4999999999999996e-001
    1.8999999999999999e+000 -9.4999999999999996e-001
    1.8999999999999999e+000 -9.4999999999999996e-001
    1.8999999999999999e+000 -9.4999999999999996e-001
    1.8999999999999999e+000 -9.4999999999999996e-001
    1.8999999999999999e+000 -9.4999999999999996e-001
    1.8999999999999999e+000 -9.4999999999999996e-001
    1.8999999999999999e+000 -9.4999999999999996e-001
    1.8999999999999999e+000 -9.4999999999999996e-001
    1.8999999999999999e+000 -9.4999999999999996e-001
    1.8999999999999999e+000 -9.4999999999999996e-001
    1.8999999999999999e+000 -9.4999999999999996e-001
    1.8999999999999999e+000 -9.4999999999999996e-001
    1.8999999999999999e+000 -9.4999999999999996e-001
    1.8999999999999999e+000 -9.4999999999999996e-001
    1.8999999999999999e+000 -9.4999999999999996e-001
    1.8999999999999999e+000 -9.4999999999999996e-001
    1.8999999999999999e+000 -9.4999999999999996e-001
    1.8999999999999999e+000 -9.4999999999999996e-001
    1.8999999999999999e+000 -9.4999999999999996e-001
    1.8999999999999999e+000 -9.4999999999999996e-001
    1.8999999999999999e+000 -9.4999999999999996e-001
    1.8999999999999999e+000 -9.4999999999999996e-001
    1.8999999999999999e+000 -9.4999999999999996e-001
    1.8999999999999999e+000 -9.4999999999999996e-001
    1.8999999999999999e+000 -9.4999999999999996e-001
    1.8999999999999999e+000 -9.4999999999999996e-001
    1.8999999999999999e+000 -9.4999999999999996e-001
    1.8999999999999999e+000 -9.4999999999999996e-001
    1.8999999999999999e+000 -9.4999999999999996e-001
    1.8999999999999999e+000 -9.4999999999999996e-001
    1.8999999999999999e+000 -9.4999999999999996e-001</inv_output_scale>
  <weights>
    <_>
      -1.1467603903740656e-001 -1.8622457333343209e-001
      2.4574870625635944e-003 3.4259547412361931e-002
      1.2725881051251559e-001 1.4615009862223052e-001
      1.4360379536887508e-002 -2.7560247813764199e-001
      -5.7074750293890517e-002 -1.0659899501632024e-001
      9.5968907223351094e-002 -1.0037203807738575e-001
      -1.9392233138718118e-001 -2.1698302666340919e-002
      1.7939070011810482e-001 1.2025550618677205e-001
      -1.3432148274162459e-001 7.8492136666884357e-002
      1.0306046122856915e-002 7.7474743261683743e-002
      -4.1800967139913714e-001 -1.4589507616335601e-001
      5.8092782045198604e-002 2.9369892184938207e-001
      -4.8379494822097246e-002 -1.0307015192930200e-001
      8.3751087875289940e-002 -2.1369567227754069e-001
      -1.6116454528034502e-001 6.0010553401003774e-001
      1.7748612540329001e-001 3.0753923747339668e-002
      4.5711384837812064e-002 3.9793969050474561e-002
      3.1818499281308821e-001 1.3881233786650743e-001
      9.9484738810019221e-002 -2.1370461702678373e-001
      5.4034659770801366e-002 5.6752186845083721e-002
      -1.1334003447179812e-001 -1.4561427599241530e-001
      -4.8914748531338467e-002 -2.0670580056513430e-002
      1.0015102490336709e-001 1.5248669016744687e-001
      7.8699298776953863e-002 -1.1350641552700926e+000
      -1.4980546690217719e-001 -2.3564984394577379e-001
      7.7306182398970663e-002 -3.1028396939576558e-001
      -1.8222789848302762e-001 -1.5884959434182719e-001
      7.9745541664724739e-001 9.3769574689567356e-002
      -1.2763031606878208e-001 5.2977720070392371e-002
      9.5534360324680649e-003 1.2194449645991480e-001
      -5.6343935333108097e-001 -1.7457783666041896e-001
      -1.3443233848759194e-002 2.5183115536576184e-001
      1.2300169688521605e-001 -9.5724919253561053e-002
      -3.7856197267644089e-002 -1.8349520137601386e-001
      -4.5642234663290571e-001 -2.0065110588883861e-001
      4.9658233408249064e-001 1.8323136333633906e-002
      3.7654818598315550e-002 3.3274343734391670e-002
      1.2494960612885021e-001 1.9370238661409567e-001
      -4.1600620568275304e-001 -1.7854223266054492e-001
      2.6481860970343045e-002 5.2044532084960382e-001
      -1.0933955146495186e-001 -1.0077711211257588e-001
      -4.4891139757243494e-002 5.3037405788317919e-003
      1.5988404831084391e-001 1.4328699020139193e-001
      7.2162083067418351e-002 -4.4696954817462442e-001
      1.5254615945621702e-001 -9.7427560437859995e-002
      5.0390353525317587e-002 -3.2679162178522458e-001
      -1.8012942051758841e-002 -1.3020411529725759e-001
      2.4181395544959594e-001 8.8005449662957549e-002
      -1.4292130019518046e-001 3.6254081137851300e-002
      -7.9044906498416473e-002 1.3499187451648004e-001
      -2.0685193847350467e-001 -9.7855365614581635e-002
      1.7811643711136112e-003 7.2218404514504370e-002
      -2.1797440763775672e-002 -1.1113262550149461e-001
      -1.1393210835052051e-001 -7.6085939575802966e-002
      -3.2544216082139886e-002 9.3235377098865271e-002
      4.9088273648730524e-001 4.4773160364084831e-002
      1.7934219965196539e-002 4.1620939952528108e-002
      7.3749150039918165e-002 1.4941157282895348e-001
      -4.4041787904901369e-001 -1.3590966132059742e-001
      2.2526173435863980e-002 -1.2737168574492536e-001
      -1.6674527848796286e-001 -1.6612434982605773e-001
      -9.7291969930396335e-002 3.1943334842197454e-002
      1.6790125855284962e-001 1.5629687517908950e-001
      7.6969961246367541e-002 -1.2270448136439402e-001
      9.6574977374548204e-002 -1.2027181335408618e-001
      3.0636729340233929e-002 -6.6130498226802087e-002
      -1.2015001924307860e-001 -1.5589739145421114e-001
      1.9851449402703075e-001 8.3246912455255132e-002
      -1.3554585020877521e-001 6.5529195944670632e-002
      -4.9742305623585625e-001 1.6170835319658389e-001
      -2.7008408192530631e-001 1.2311967148095465e-001
      4.3924371917069410e-002 1.5705713395823800e-001
      -2.1880513043805862e-002 2.1230999314904622e-001
      -7.9177289410870183e-002 -6.9893516470697373e-002
      -2.4007161010087402e-002 1.0605818119951589e-001
      2.7412219192833792e-001 5.9245022610347808e-002
      8.7273368453652540e-003 1.7816004247669177e-002
      4.4137970147890498e-001 -3.0557642895377136e-003
      -2.1125479544500955e-001 -1.4258207834686126e-001
      4.8833221266545673e-001 -1.5072352544639994e-001
      -1.6321368435862207e-001 -1.9815715002432771e-001
      2.1225246377090411e-002 3.6993172222030579e-001
      1.5843244455598682e-001 1.4707805777843924e-001
      -1.4426199436246723e-001 -3.3103611271639516e-001
      -1.1191323680152052e-001 1.8048488501704851e-001
      3.0459279140241810e-002 1.4521030080931616e+000
      1.9538487104006533e-001 3.6593040516787040e-001
      1.5154876994976008e-001 -1.2596195376480270e-002
      -1.2992807674886217e-001 2.3570923161057622e-001
      -4.2438487807463238e-001 1.6323070656175728e-001
      -5.4124135483711744e-001 1.7885049755630653e-001
      -3.3024539427523464e-001 1.0307697136373350e-001
      -1.8473366239365116e-002 3.7343949251507760e-002
      -2.0504202109962971e-001 -5.4297638200441545e-001
      -4.1967066175135681e-002 1.1312247725792068e-001
      -8.3313980371251178e-002 -2.0389010668615531e-001
      4.3309521791266041e-003 -1.4690712816125082e-001
      2.3926987343680711e-001 3.7304150971225780e-001
      5.9863914292238474e-002 -1.0020814019813924e-001
      3.5226554121183601e-001 5.8005291950969360e-004
      1.0435675033796668e-001 -5.1423378817379961e-001
      7.6923928299129890e-002 2.2706244276880491e-001
      1.5023134832118110e-001 1.3140967650707644e-001
      1.8019092443587942e-001 -3.2073142082251715e-001
      1.8324504363159488e-001 5.7847408263499163e-002
      -3.6936015897554401e-003 -8.3524723699873210e-002
      8.0121992992676722e-002 3.3412179693870631e-001
      8.4699445397723269e-002 -2.3539708182752869e-001
      -1.7862665724433918e-001 1.0490549438983486e-001
      -3.2790928956520227e-001 -1.8468200022377962e-001
      -2.6838888121908078e-001 3.1599640026212905e-001
      -9.6054905888920439e-001 -4.0586779652153591e-003
      -6.3936336386115511e-002 -3.7114000558805441e-002
      -1.5906535896740226e-001 2.1633215695370980e-002
      -5.6959401547630524e-002 7.9082348168150324e-002
      1.5062631168372491e-002 -2.3229540970937521e-001
      7.3383067563503476e-002 -1.6524779119900632e-001
      -1.0663256674028600e-001 7.7368740660561441e-001
      9.3413289285362577e-002 7.3439231887187886e-002
      2.8873862964788638e-001 1.7605430561469909e-001
      -5.7799587681731317e-002 4.1348421270561331e-001
      3.5574000153252217e-001 -3.5452351176641347e-002
      6.6489031960392297e-002 1.3981310101378039e-001
      -4.4200614608741556e-001 -2.6502839305723100e-002
      9.0610892011375427e-002 4.6396443693861214e-002
      1.4265401958473065e-001 1.9020994756432950e-002
      4.1283098207255320e-001 3.4947651543382752e-001
      2.7712088247231259e-001 -8.2892243543475297e-002
      -1.4370775506371117e-001 1.4099635440017175e-001
      -2.0284535025974412e-001 -5.8684428707508611e-002
      1.6790740928141531e-002 3.0062716505436549e-001
      -2.9040402782979224e-001 9.5674806189958037e-002
      1.0033533851312691e-001 1.7946014987026843e-001
      4.9910431665040550e-003 -3.0861597873936669e-001
      4.4028074390102184e-001 1.3069557380277094e-001
      9.2549189580580699e-002 1.9933402393369951e-002
      -1.5175935150033742e-001 -3.5628213140972520e-001
      -1.0569420889895756e-001 7.7342868534604259e-001
      -3.7721710893325161e-001 -1.2528692351207604e-001
      -2.5306648231154246e-002 1.4432976105190296e-001
      -2.8071993188007149e-001 1.3328237615593524e-001
      5.1460785630735417e-001 1.7193137121206931e-002
      1.3339669264570075e-001 1.4454321375500148e-001
      -1.2670824596742131e-001 -2.1888840703648163e-001
      1.3464510509535491e-001 -8.1399597061730611e-002
      9.9747791798017633e-003 9.7678212480413973e-002
      2.1037843480252705e-001 2.4913567813951720e-001
      -1.0545779970015864e-002 1.9944846104481229e-001
      -4.1497063190636846e-001 -9.0743701764253060e-002
      -5.4781596743566274e-001 -5.4692569622495413e-002
      -1.6491920001371785e-001 9.3854962755925170e-002
      -3.4618771895410705e-001 1.0486432185668744e-001
      -2.2142271313551242e-002 1.3356848762681597e-001
      -1.3239172513781505e-001 8.8615491489227843e-002
      2.0728122695198227e-002 -2.6333469754349298e-003
      8.3726361705204297e-002 -1.4582745247316656e-001
      2.1128761918493899e-001 -8.6447140024195387e-002
      -3.2033406820478193e-002 6.0653426831699764e-001
      -1.6035711471566977e-001 -1.3379892732097759e-001
      2.2427423799557106e-001 2.2990536738574353e-002
      -1.3026707744798682e-001 1.4461462153752055e-001
      -1.4802175498271548e-003 -2.9038482005480839e-002
      -4.1238291374151387e-002 4.8040631881666901e-001
      3.0046756679667408e-001 -2.4715136824687234e-001
      1.4326802152277288e-001 -7.0923553800300310e-001
      1.0147375638585248e+000 -1.4788517320513639e-001
      -6.3103060545191061e-002 3.2480249244062503e-001
      -8.0896610737179533e-002 2.1159078195089431e-001
      2.4433682929392041e-002 5.0770907864134140e-001
      -2.8468629660170075e-001 -1.2747861827881363e-001
      -7.0682246216075473e-001 1.4981137765441307e-001
      1.8343799229028849e-002 -1.7690721927671002e-001
      5.4715058864746299e-002 5.0154120852740722e-002
      4.0020930605279442e-001 2.9013613228711632e-001
      1.8300810087439998e-001 -1.7085634555169993e-001
      -3.0142679240061448e-002 -5.7523251356878059e-002
      3.4431507797995003e-001 7.5494859331337372e-001
      2.0130346438174576e-001 1.5842336510026449e+000
      -2.7289946410992638e-001 -1.5891699375796234e-001
      3.1808057896497888e-001 -7.8428858404715751e-003
      -5.8598600673508944e-002 4.1529021451678701e-002
      -7.9768659870835257e-002 -2.1919782584988626e-001
      -1.5068713669918163e-001 -2.1605874736506320e-001
      -5.8160670926100284e-002 1.0932555379738768e-001
      1.1219096779246934e-001 8.3285096990563454e-002
      3.2388324294405046e-001 -1.1149970625453653e-001
      -2.3795879773970852e-001 1.4399476884445037e-001
      -1.0795699824437905e+000 2.2797319768726784e-001
      5.5063210783460083e-002 3.2139315123834422e-001
      -6.0019670373546630e-001 -1.2801642401185728e-001
      -3.2835499596424017e-001 1.3767548218847558e-001
      -4.0157528842621358e-003 -9.7008554272153366e-002
      4.0069404139206968e-002 8.4706832942287300e-002
      -1.0396841630914424e+000 1.9223427240361995e-001
      7.8056850592979632e-001 -6.6235550525720310e-001
      -6.5522989614174368e-002 -6.1184151106727196e-002
      1.9747515269104463e-001 -1.6886929099094958e-001
      -1.1315481933623774e-002 2.4310453730662998e-002
      9.2652270956118998e-002 -1.2368159398099812e-001
      -7.0017482096337708e-002 -1.9261961341437074e-002
      -8.9047453771905732e-002 1.7018708283737805e-003
      6.8644670482094619e-002 -3.8223083809009940e-002
      -1.2911104188904288e-001 -5.8601182922087314e-001
      -9.2091048328683478e-002 6.1149412146030413e-001
      1.2552471156173428e-001 2.5023091275721382e-001
      4.0452967408394142e-001 -3.3123289420191555e-002
      -6.4586718021089284e-001 -6.4464278031449176e-002
      -4.7363115541124556e-001 -8.1905894489407247e-003
      3.0322097461414876e-001 8.9230221367492216e-002
      -9.4442510009167091e-001 -9.1771371447951069e-002
      1.0425327497344303e-001 -8.0724786878510965e-002
      -1.6985465605736411e-001 -1.8261863995019337e-002
      -5.6766483543253740e-002 3.6224556839539945e-001
      -5.3753506641710025e-001 9.8189432138295452e-001
      1.1375768522777385e+000 -5.4415374904710845e-001
      -1.3440115809463660e-001 -4.4162153632388589e-002
      1.3367040010219286e-002 -3.5502055052323450e-001
      -2.3460303496899121e-001 5.0144802685754018e-002
      1.2586513958952381e-001 -1.0569522649995945e-001
      7.8391766533647995e-003 3.2230441553023043e-002
      -2.2255024631813547e-001 4.5086260435907521e-001
      1.6882035759285882e-001 -7.2756095683615282e-002
      2.7668089208622521e-001 -2.9889390116058425e-002
      -2.5995032007021396e-001 2.9417367238165593e-001
      8.1211134995485337e-002 3.4029373203141103e-002
      -8.6358184324969522e-001 8.4954645960599900e-002
      9.7495763189989950e-003 -3.5293172786972055e-001
      -4.2078926509349684e-001 -4.2489274050247897e-002
      1.1656098520188141e-001 3.0395220410459284e-001
      -9.6183583726664890e-001 -1.0847996677988493e-001
      -2.1422482511398039e-001 -1.1356240243972425e-001
      7.1850589910152666e-004 -1.3143602170419647e-001
      -2.4114849428530490e-002 6.3402483475637816e-002
      -2.5668864734645874e-001 -6.3117256634813218e-004
      1.2362304360156001e-001 -5.0929280194326604e-002
      -2.5901135138155190e-001 -5.2131919703174871e-002
      1.1225635177637976e-001 -2.2021629223533348e-001
      5.1664599241859302e-002 -3.2774226628351144e-001
      1.2689959942554488e-001 -2.2716094682348112e-001
      5.0026868101733801e-001 7.7253917407847546e-003
      -2.8618033953848793e-001 -3.0730625015016645e-002
      4.3370853601510650e-001 -1.0082004973618482e-001
      1.0689141494316010e-001 8.3220432703832253e-002
      -4.3180037697517638e-002 3.0439870391165785e-001
      -2.4624006203939164e-001 2.7738076216168844e-001
      4.0313528428225448e-001 1.8659761721594526e-001
      9.5516456563592511e-001 9.6186423245620239e-002
      -1.9556746908772202e-001 2.4925709148299244e-001
      -6.1740518695761644e-002 1.6667814455635376e-002
      -7.9426136694591665e-001 -3.2805290072551840e-001
      -4.1282056854256066e-001 3.2325787958628061e-001
      -4.1200588145130182e-002 1.8272006286793796e-001
      -1.3057224737264506e-001 -1.4126864141730378e-001
      -5.2245681197022165e-002 -4.3878172001474237e-002
      7.0637013850314134e-001 -3.2149526773425180e-001
      1.3497041932978066e-001 -2.7409224199885157e-001
      1.0704038632708225e-001 1.8499406456096889e-002
      7.7718410937851076e-002 5.3252876288229424e-002
      3.0085221588382666e-001 -5.7702070311233991e-002
      2.5317569782813349e-003 -6.3460077395257497e-002
      1.8758063286387536e-001 2.5378206833678182e-002
      -2.6671050734100976e-001 -8.9864885878162673e-002
      -2.8292674069543206e-001 -9.7714289191047785e-002
      8.9220102443302689e-003 3.7562068547171867e-001
      8.0549197171485579e-002 -4.7973046076295139e-001
      9.1295076832850020e-001 5.4944956352576013e-001
      -3.1928055785051701e-001 2.7615231779030902e-001
      -3.2068713161825085e-001 1.9787079393483051e-001
      1.3296961051129011e-001 -5.0399314943435147e-001
      -2.2923918607705606e-002 -3.5009737771382793e-001
      1.3057000246612532e-001 1.1432789876524423e-001
      6.8360081977075104e-002 -2.9535062461299688e-001
      -1.5642015591185127e-002 -1.0179848414294566e-001
      -2.3580210680148841e-001 -1.3345226290172274e-001
      1.9065482698241593e-001 -2.0408913853881230e-001
      1.2093146464775767e-001 -6.5040950575700940e-001
      -6.5758122473412693e-003 -6.5553007466194760e-002
      4.4578874982263328e-001 3.6721957531068067e-001
      2.3746044796615687e-002 -7.8435795891977189e-002
      1.9799400342405454e-001 7.8726806045854872e-002
      -1.1632600970825809e-001 -1.0110845322384422e-001
      -9.4838308065428020e-002 5.2845133821289314e-001
      -9.6611628714747252e-002 -1.9033485743062037e-001
      1.3659594944326864e-001 -2.7738450086234467e-001
      -1.7525397946317401e-002 8.5372348070300447e-002
      5.4302267983431718e-001 1.9341286539336738e-001
      -1.1699428558935676e-001 3.5052047473024006e-001
      -4.4773956948327275e-002 1.5414057616478369e-001
      -3.1767645915944315e-001 1.5962351620683690e-001
      -7.5186956597441887e-002 -1.9206423060611755e-001
      -6.5994061512992058e-002 -1.8858278548497923e-001
      3.7949842998965984e-002 3.7025480458469512e-002
      -4.7567186114363315e-002 7.2069279890121213e-002
      6.0425089143755029e-001 -3.5443283838697465e-001
      1.4908277537853865e-001 -1.4742788036042362e-001
      -9.7271714307793841e-003 -4.4325998651981868e-001
      1.6880313287920534e-001 -1.2042900353820143e-001
      -6.1472389739643263e-001 4.7739887219687464e-002
      2.3768042533394845e-001 -3.1051205566786533e-001
      2.8397765536409136e-001 4.0812527962677470e-001
      8.0349545271090594e-001 6.1900131243128986e-002
      -3.9437568350592950e-002 7.9683111741970736e-002
      -2.5732897132055244e-001 4.5575115644379029e-002
      9.6687124892307248e-003 7.4827282383243834e-002
      1.4351733292100341e-001 -9.0539761348845171e-002
      1.4416791516035363e-001 4.3664856177614755e-003
      -7.8020179158685754e-002 7.6291909914210462e-002
      -8.3527386312881591e-004 5.9636453581165046e-002
      -5.9897251227609798e-002 -1.8927058235610478e-001
      -1.7077946929003876e-001 7.8710158482077533e-002
      -1.1510774379824053e-001 1.8105675796616522e-001
      9.5869180791563147e-002 -4.7231170065672720e-002
      -2.2697134051440131e-002 -5.2656755164006051e-002
      -4.2984369191951749e-001 -1.9133578117591626e-002
      1.1573129827266662e-001 7.5847518248560175e-002
      1.9395821735695448e-001 1.0933277897361234e-001
      3.2790053518658310e-002 2.4229370607668974e-001
      4.9632992539113074e-001 6.7970800074111049e-002
      -2.7223891026151448e-001 -2.4244455313282534e-001
      1.0333000258281223e-001 -3.2260269508957440e-003
      1.1553194396095527e-001 9.7926199334444533e-002
      -5.7971457033933166e-002 7.3670311156687582e-002
      -6.8673594966810178e-002 1.7160328302581218e-001
      2.8767907771584222e-002 1.1443358982972393e-001
      1.4639760325479426e-001 -7.9318141846892176e-002
      -1.1168835800673400e-001 -4.9107860994745220e-002
      -2.1937853356749712e-001 -1.3628521262428603e-001
      8.5319363655476779e-002 7.1832812834982981e-002
      3.9888950303770314e-002 -3.2138077876758007e-002
      -7.3095277342549489e-002 1.4313891762443390e-001
      1.7989269806491454e-001 1.6775425480893130e-001
      9.9325262567271574e-002 1.2196774543709205e-001
      -2.7697093862830757e-002 -7.9210184853557533e-002
      2.1896816135931321e-002 -2.4507528972121731e-002
      2.0429210781468152e-001 5.9433738788503616e-002
      -3.1819826783181482e-001 2.9439859623886611e-001
      1.7345580144052030e-002 5.3709440941057018e-001
      9.3078588352882796e-001 -2.2068121432931076e-002
      -2.3599359996446270e-001 -2.6822939782308503e-001
      8.9198643844185599e-001 1.0399407425466385e-001
      1.1180927545508801e-001 5.9707243091344689e-002
      -5.2995300845211535e-002 7.6604937964305175e-002
      -9.2196828524276409e-002 4.0176309248621761e-001
      8.1987985116562606e-002 -1.0613140535371787e-001
      1.2496472550886542e-001 -9.2407981935468855e-002
      -1.1189970347398541e-001 -1.1758443320206109e-001
      -2.0846014626096518e-001 -1.1646184819461756e-001
      1.1144192788884868e-002 7.9181245242704895e-002
      1.5827909453903367e-002 -5.0044434978616797e-002
      -6.5188121683346353e-002 1.5162206234512265e-001
      1.8260103350434695e-001 1.0196558464362628e-001
      8.7479001889715274e-002 1.3046884867505087e-001
      -2.5377994001088033e-002 -8.7885218440400856e-002
      -8.8520083017538762e-002 -2.5435536323686073e-002
      2.0728681976610480e-001 5.4840424184486258e-002
      -3.2071595294975325e-001 5.5396537871456979e-002
      3.0875409705409015e-002 2.3738670741069942e-001
      5.8265487678795513e-001 -2.1622612286973271e-002
      -2.2030159134456739e-001 7.5573844175031588e-002
      4.0479855855257241e-001 -3.0396328277018200e-002
      1.0047049022533838e-001 -1.1683150002220835e-001
      -5.1255835068139979e-002 9.1346760583502801e-002
      -9.1624285274351111e-002 2.4548234231309415e-001
      7.6827712881773189e-002 -1.1496376731487667e-001
      1.4984051120083677e-001 -2.8459078038112793e-002
      -1.0671675509204454e-001 -1.4448476190991801e-002
      -1.9382485090432225e-001 -9.3710350135889298e-002
      -1.6398381694173592e-001 9.7049305351842044e-002
      3.3674403959496418e-002 -3.1058714626013315e-002
      -7.7403335146802490e-002 1.5874161601521339e-001
      5.3525063663481909e-001 1.2866207160104196e-001
      1.0354802180671785e-001 1.4518267090275716e-001
      -1.4469818326398701e-001 -9.0055157713164843e-002
      -1.0631175871086550e-001 -4.9245922777908673e-002
      2.4730854694335655e-001 -4.2064737385938626e-002
      -6.7272667695551930e-002 4.2687138798937145e-002
      -1.9693970484024884e-002 2.0210261822193551e-001
      1.2910583377816531e-001 -1.5390159368536112e-002
      -2.2774958399177067e-001 7.6986113322626712e-002
      4.1032757696953054e-001 -2.7684909535752152e-002
      1.0340893815155365e-001 -2.5271614039287116e-001
      -8.2476420387232047e-002 7.5796332158678079e-002
      -7.4040004441386711e-002 2.4795332582283175e-001
      8.3971425522886126e-002 -5.9904771917425742e-002
      7.7596067767021132e-002 -9.0598437433331055e-002
      -1.2131472725402005e-001 5.8889510931533232e-002
      -1.1047715300484248e-001 -1.4397622443489430e-001
      -1.7122610806970467e-001 8.1157766088711739e-002
      3.1739553316010125e-002 -5.0851894116469072e-002
      -8.2389997098178819e-002 2.1368200420965983e-001
      5.9694163514165222e-001 1.0233267269618097e-001
      1.0423936981453964e-001 1.4814153583969117e-001
      -1.3956699544617904e-002 -8.8566734498496377e-002
      -9.9829852072209860e-002 -3.9113271741661015e-002
      2.5304087913058487e-001 -3.7402950395042538e-002
      1.5779440933858087e-002 5.7148784698307524e-002
      -1.1848497155074075e-002 2.3900123108955743e-001
      8.0828119524066933e-001 -3.9288277377602134e-003
      -2.2849340090369485e-001 6.6059296344290558e-002
      4.1742564155771328e-001 7.7906038859445970e-002
      3.5910151086727633e-002 2.5013358760109392e-002
      1.8553370979143088e-001 1.9989928847950034e-002
      1.8562958701962584e-001 2.0820777372746851e-001
      4.3706411145971069e-001 -4.3385926192991270e-001
      -4.7343651787957630e-001 -1.4309561122353406e-001
      6.5241890429991622e-001 2.2812171169295962e-002
      -1.5063608796425398e-001 3.7335139034612941e-002
      4.7573036574029337e-001 -7.2226278857880268e-003
      5.7863259456715541e-002 2.5550059515094904e-002
      2.0476747167069778e-001 -1.4327380404725631e-001
      -8.2021713903747989e-002 -7.4735719356222183e-002
      8.8537686848388517e-002 -1.3833971408414561e-001
      -2.9768685234237331e-002 3.1294650909092378e-002
      -5.2274220542059946e-001 5.0151113465453701e-001
      -5.9802635093789858e-001 -1.5888692687544351e-001
      -2.6668705014337900e-002 2.9084695795190368e-001
      1.2691205650954876e-001 1.7543464503666550e-001
      -1.6604189614030673e-001 1.6501284433615396e-001
      -6.6278596698571030e-002 -7.4317308764397988e-002
      -5.6655992799053323e-001 3.4916834709985606e-001
      1.2953001563647237e-001 -3.2586529806981242e-002
      6.4187613119147147e-001 9.9138006444335944e-002
      1.5190854040306936e-001 1.1805334234678960e-001
      1.4987595038135812e-001 -1.3039423990753526e-001
      -1.0280528609537644e-001 -1.0246973124482360e-001
      -1.0432558321579603e-001 6.2455540523860287e-001
      1.9807173441506790e-001 -1.7366596666476283e-001
      4.8685198645342953e-001 2.1741971382139635e-001
      7.0477997268113685e-002 -1.5545908981967480e-001
      3.4532197816068327e-001 4.9183150694128069e-002
      -1.0102360154169222e-001 -1.8100225123441677e-001
      6.2321681533679940e-001 1.1636966449009378e-001
      2.1946282144458681e-001 2.1388705222940424e-001
      -1.8106322852370083e+000 -1.1286679800763674e-001
      -4.0658962880778265e-001 -1.3177668349040794e-001
      -5.9469532540835202e-002 3.3875052585192111e-001
      2.1512523228231531e-001 1.2984425857158879e-001
      -1.7371686311433371e-001 -2.9685747050467076e-001
      -1.0930255999974073e-001 8.5269581055461396e-002
      -2.4296553432135606e-001 4.6859725219192516e-001
      -2.8407415463338653e-001 -1.3966949904896098e-001
      1.4850973545804622e-001 -1.0160924919642993e-001
      1.0089223227980168e-001 -1.5989179503531170e-001
      4.9574661893374761e-001 -1.7854664604292375e-001
      4.8546169439226694e-001 1.6502782897584245e-001
      -1.4424641827180285e-001 -5.1519667428745308e-001
      1.2582299381709627e-001 -1.5428282797905504e-001
      7.9246326863093319e-001 -3.3695541018234665e-001
      -1.8487180120070432e-001 -3.5425385312959290e-001
      -4.8852037072822008e-001 -3.0844649809023555e-001
      -6.9574847240795878e-002 8.1624085511438876e-002
      -1.2450351380024867e-001 -5.7994030076416188e-002
      2.3117910154559707e-001 2.0725206294219259e-001
      -4.2305583492027739e-002 1.0260824027344979e-001
      -2.4306550579010735e-002 -3.1015449509917564e-001
      -3.8548112172480417e-003 8.2584920540264409e-002
      7.5377908666035637e-002 2.7197098568791750e-001
      -3.1447078334794587e-001 1.1610109298462675e-002
      -6.9456287524851112e-002 -6.0293436380886423e-001
      -5.5471535451294340e-001 -3.6517711107185707e-001
      -5.5785302876853715e-001 -1.0389480546493732e-001
      -4.9084335365605372e-002 -2.0917736955096070e-001
      8.8498436071213174e-002 2.3549662534956717e-001
      8.7574628385505116e-002 -1.2139752924822364e-001
      -4.2729002147599232e-001 3.0197830597210934e-001
      1.3828086605359613e-001 2.4110032205493334e-002
      2.0966933876957133e-001 -1.8489591327886298e-001
      9.2528914808958407e-001 -2.8653564343387133e-001
      1.1293780406089385e-001 6.3038035845153870e-002
      -2.4587464504916368e-001 -1.8696974955438801e+000
      -2.1407724061656808e-001 -3.5857439395360985e-001
      -2.9561511154126752e-001 -1.5003669747483053e-001
      4.6346402308629531e-001 -9.0237634770929054e-005
      -2.1552567817091645e-001 4.0663414639338667e-002
      9.4144303655226996e-002 -6.5595850689614515e-002
      -1.6031038768052161e-001 -4.1728352318362867e-002
      3.0631823236924670e-002 -3.7740258110183021e-002
      -1.4394606705207875e+000 -1.4715142791559777e-002
      4.5599192160414743e-004 4.8151464295105618e-002
      -3.6706183092184527e-002 -1.7532077205096114e-001
      -1.3142095007134255e-001 5.4536648149870810e-002
      -2.2985258421531601e-001 -3.1029324290888932e-001
      1.4589961403287069e-001 -2.4307317694264096e-002
      -3.0815909887366960e-002 -2.3666833616384916e-001
      -1.1297710882984656e-001 2.3505668494411275e-001
      1.9566666646888134e-001 5.0787326247169355e-002
      -8.8937878856931929e-001 2.9687592845297074e-002
      9.8796518164178102e-002 -2.2221228399044526e-001
      1.3425161538665323e-001 6.1380131208795312e-002
      -1.3198989619991661e-001 -1.5325654735232952e-001
      5.8970526219094122e-001 -1.2099037224490183e-001
      -2.8998135723768936e-001 -9.2562593715619160e-002
      4.9092023704953763e-001 1.3080401137446979e-001
      -1.2441573780612272e-001 1.2071436728064811e-002
      -4.4743496941451366e-001 9.7972657557493903e-002
      -7.2867764045955430e-001 -4.8473946609336689e-002
      7.2497463821199287e-002 -4.4192419090881774e-001
      -8.7218428602898468e-001 -1.2017329583580594e-001
      2.8250062113202115e-003 -6.7972693923385979e-002
      2.0260278265536499e-001 1.9323716449985356e-002
      2.0107338048618478e-001 3.2991559331225317e-001
      5.9873072396193341e-002 -4.7841302683333753e-002
      2.7332429264326558e-001 -2.5932556854367678e-001
      -1.2122760013197842e-001 -3.7671880397350660e-001
      -1.4827764756854120e-001 -2.4982233506598972e-001
      -3.0503927484902449e-001 -1.2266554732337177e-001
      -3.1131407695730950e-001 8.1558822660121238e-002
      7.0005494010814617e-001 -4.9485255689317315e-001
      -1.6618798596056927e-001 -1.9230630383416242e-002
      4.4335275502829070e-002 -3.9758722542260844e-001
      2.4939407054769769e-002 1.8174528816201549e-001
      -5.3242647459544079e-001 4.7888702531272864e-002
      3.8937788478817731e-001 3.0236228495629108e-001
      6.6356017459690192e-002 -9.4276502723792829e-002
      9.1438983046609554e-003 -5.4957183768548926e-002
      2.3096385033230016e-001 -1.0723328361247417e-001
      -1.2386303032838906e-001 -1.4299239865480649e+000
      -1.0358595887965456e+000 9.6683771445641414e-002
      7.2922415591838041e-002 -6.6409110368996147e-002
      -2.1238230133779049e-001 2.3468240303932440e-002
      2.1611780149958229e-001 -2.0010057131002488e-002
      3.9878534278204808e-001 -1.7419183923189800e-002
      -4.9007722175798206e-002 -2.8648079624366690e-001
      -1.4625986329201662e-001 -4.3959329577838419e-001
      -2.4461989750305635e-001 -8.6980546458336541e-002
      6.7311127563796577e-002 -4.4554773740986081e-001
      -4.3076167591408426e-001 -2.7032810901661604e-002
      5.3656612900373801e-001 -2.5937619305010778e-001
      4.1207856266202975e-001 -1.9476555298573045e-001
      8.4432494392816474e-003 -4.2617695057379812e-001
      -2.5561182264910491e-002 4.0956840394200628e-001
      -1.6007715480117618e-001 -6.4696921001254418e-002
      3.1733772203885829e-001 7.1529121134568135e-002
      -1.2347725464555033e-001 4.5361738822840683e-002
      -8.0351203144083760e-001 2.8177774081130758e-001
      4.8738841922690547e-002 7.9058308808305819e-002
      -8.8165799224029076e-002 -6.5086640630516279e-001
      -6.8173559142705731e-001 1.6461005417860752e-001
      2.0013757989667400e-002 -7.8383997308749842e-002
      -5.7236182473621966e-001 -3.0233915596916844e-001
      5.4096298551474811e-002 1.7422763992362775e-001
      2.9346889856253194e-001 -3.7724265893891701e-001
      3.8856333298757706e-002 -2.8915790098919408e-001
      -1.4550701208732930e-001 -3.7598563492089548e-001
      -3.4514169862855673e-002 2.7743212941549572e-001
      1.5865763925942161e-002 -2.3374434966461721e-001
      -3.1437076240838906e-002 1.0304730698520992e-001
      5.8988479189834098e-001 -1.1776292225986683e-001
      2.9067400619445606e-002 -5.2465472226601688e-002
      5.0276680533571860e-001 -1.2428814148858876e-001
      2.3457376014596476e-001 2.6369488414729664e-001
      -1.2552871100501068e-002 -1.5396867402117376e-001
      2.1442053883660014e-001 2.5447768011384386e-002
      -1.7295925317866293e-001 9.0751831298729407e-002
      -2.0913827196756657e-001 -2.0877041778140071e-001
      -6.0236943036636820e-002 1.1996970293180532e-001
      -3.9479592705236555e-001 -1.0786451061003690e+000
      -7.8951011087993461e-001 8.3831598538338950e-002
      -3.8416329822565082e-001 -7.0712024947555657e-002
      -3.0688448659465084e-001 -2.6450438552810185e-001
      -4.4933485338319000e-002 -8.1076130539707358e-002
      4.2930869424043111e-001 -2.7335593840935357e-001
      3.7610502165732218e-001 1.0794706030943242e-001
      -4.9292101216273990e-002 -2.6897722349746589e-001
      -1.7508964179771613e-001 1.1711101480157173e-001
      -1.0346048165762231e-001 -1.9414354711826676e-001
      -1.2421275273079804e-001 3.5058416494913675e-002
      4.5524911188976197e-002 -2.3942539269794039e-001
      1.8836937824819366e-001 1.3095583624915647e-003
      3.3926248063942083e-001 -2.3590920704529711e-001
      -4.0148203381247316e-001 -2.6764543660338136e-001
      2.7836678842923085e-001 -4.4003372775220678e-001
      5.2654934729167409e-003 6.1900421133498376e-002
      8.2390179226146151e-002 -4.7137309913528588e-002
      -5.8471430244288236e-001 1.4526052910940929e-001
      2.0430767024891486e-001 -1.8690804625777369e-002
      -9.8137673136008921e-002 -1.8834791862728217e-001
      -4.4269368149860364e-003 8.4182949970223120e-001
      -8.6447918822363551e-002 2.9290924143234065e-001
      6.6829178566039249e-001 -3.2195965759430606e-001
      1.4046911450560753e+000 4.9820063132915288e-002
      -1.9174326890779983e-001 3.5808584668484150e-001
      -7.9553123078479759e-001 -5.0404043996525871e-001
      -4.0900624912733985e-001 -1.9886227210809315e-001
      1.2743676804280962e-001 9.0591912860869012e-002
      6.1884977575929645e-001 -7.3579824114750481e-001
      -8.0077413888802662e-001 -2.0049275713926066e-002
      1.4322739386633221e-001 -5.7269594067390706e-001
      3.7513579521253532e-002 -3.7557901858416591e-003
      2.4920675988280955e-001 5.8245962001018378e-002
      -4.7611460372231190e-001 3.9042817025718402e-001
      -3.4422550031695315e-001 2.5754067045038187e-001
      3.2446785426078650e-001 -3.4730754449498835e-001
      2.1410994819829779e-001 2.1584568632314222e-001
      -7.0354438132852204e-001 4.5644030733157581e-001
      1.4113958258872390e-002 -2.4736440516333122e-001
      -1.3125183761027207e-001 -1.8493602425719177e-001
      2.2343599951052502e+000 1.0265917245617273e+000
      -4.5006102026508038e-002 -1.0195009493160645e-001
      3.8194227157825061e-001 1.9831666098265310e-003
      2.4641499100405737e-001 1.1150785171187343e-001
      -5.9310250407731058e-001 4.3680839754296791e-002
      -9.4899620800962148e-002 -5.3655011788073181e-001
      2.3949383339020269e-001 -3.0283042688380318e-001
      1.1192645240232907e-001 -7.0569050883352621e-002
      -3.2259903479638086e-001 -5.4365827907533570e-001
      7.0348919130881771e-001 4.4229869804713107e-002
      2.0509431504813161e-001 -1.5986045176024960e-001
      6.4782914317607654e-001 6.5224261805248637e-002
      -9.8860526718747385e-002 6.9199363310517903e-002
      -8.5537066728769584e-001 1.0708350938196319e-001
      -3.5569675874814410e-001 1.7251436324550711e-002
      9.4438404544985186e-002 -1.1468259531085516e-001
      4.5869298640760853e-001 3.3023165143566091e-001
      -8.2088338719037302e-001 6.3704881872709196e-001
      4.3708745994059391e-002 -4.0518895527626525e-002
      -1.1092499780627664e-002 -5.7674500211198065e-001
      -5.4376491017070938e-001 7.4461865054876963e-001
      -1.2910348036426711e-001 -1.3261587405754771e-001
      2.0383371260668068e-002 -8.7991858530110129e-002
      -9.6675546740906240e-002 2.3602373406741034e-001
      -4.2772939345554720e-002 -5.2767147006995974e-002
      -2.8243183435332272e-003 -4.4834870742225796e-001
      -6.8528265623993251e-002 -1.4771025541563826e-001
      -1.9994983232907437e-001 5.5510083148310602e-002
      5.5967399627587067e-001 -5.0575630319409627e-002
      2.1417618738517960e-001 1.3052404765590478e-001
      3.9258041377096181e-002 -3.2490917541710257e-001
      3.8723382334432210e-001 1.4104289782283630e-001
      -3.3051740353169939e-001 2.0585847563309778e-002
      -8.7863168939992409e-002 -3.4244318192821234e-002
      -3.2077525724415007e-001 1.9080619192516426e-001
      -1.3297804843426847e-001 2.2772191145952969e-001
      2.1863116912523115e-002 5.0189675835920306e-004
      -2.8110756239197837e-001 -3.7442267019209541e-001
      3.3494071160597932e-001 -3.1387046397529671e-002
      -2.7000360118824983e-003 2.4722739084235966e-002
      -3.6114261802405490e-001 -1.5380381707217746e-002
      -2.6263556929502335e-001 -5.7633259615932103e-002
      -1.4759392993345447e-001 -3.2314035515763131e-002
      -1.3200512591341901e-001 4.9579286978242937e-001
      -5.0116742715363323e-002 -7.0098280925301485e-003
      -8.9564282230550213e-002 -4.0542856476222322e-001
      1.1819564798660660e-002 -3.9597892549619859e-002
      -5.5789305610497275e-001 5.2374482507050270e-002
      1.9419191960085061e-001 4.2615137573776413e-002
      -2.3753573843824471e-001 1.9068481780884117e-001
      -6.1445796986686707e-001 -1.7189968123399590e-001
      3.1054012541347681e-001 3.1954711005796423e-002
      3.6312788310182774e-002 -1.9607701901011371e-001
      -2.6120236443153744e-002 -3.7780762947008451e-001
      -3.7470946420135057e-002 1.0896074491295960e-001
      1.0054348337239383e-001 5.4174961657909075e-002
      4.6552115609562228e-001 -2.3150423314106722e-001
      -2.1129438542984877e-001 -2.2861401432267775e-001
      -5.9459159836327669e-001 6.4600601051169840e-002
      -1.7677988066288664e-002 7.0586879425958857e-002
      -2.4279118730508947e-001 1.9145260478012041e-001
      -2.5873835205686246e-001 8.4374204335669112e-002
      -2.1011080778546146e-001 -4.4309401084314149e-004
      -6.6172779980271657e-002 2.2120573734123877e-001
      5.6309104374623324e-002 -1.8094317099452802e-002
      1.1491021493954255e-001 -5.5777396129428759e-002
      -2.2060018976491871e-002 -1.0907138632583264e-001
      -1.6778984373147934e-001 8.3130301919419627e-002
      -4.9413608755005872e-001 4.9306220043465174e-002
      1.9552623047254220e-001 2.3493920599260867e-001
      -2.1815685336585101e-002 -1.1187035222834123e-001
      -1.6099596162754290e-001 9.9477773509746761e-003
      -1.7815460224750948e-001 5.7343450257102073e-002
      -6.6452952641396035e-001 -1.8706101308706474e-001
      2.5515875749622929e-001 -1.0302134600287485e-001
      1.1843128960900569e-001 2.0301121219422880e-001
      3.5093057396507733e-002 3.2362965355788059e-002
      -2.1081206176174433e-001 -1.7937628447810838e-001
      -1.4959519405495800e-001 -1.1224350327083724e-001
      -6.8759502610784180e-003 7.8867977098578859e-002
      -1.1098552117614036e-001 -2.3363755156784044e-001
      -2.1018213709682229e-001 -6.6557568829134009e-002
      -2.5944404985934139e-001 -3.0191997307101526e-001
      -1.4022949152141126e-001 7.2227363243581999e-001
      -4.4212822994742419e-002 -7.7718502089751729e-002
      -7.6685864964371256e-002 -1.6542978716176344e-002
      2.2899362100027426e-001 -2.4726577387447049e-001
      1.0400959478100734e-001 1.8730945364204507e-001
      -1.0751620246149020e-001 -2.0471264583252358e-001
      2.6107171411481805e-001 3.4213577646047039e-001
      2.9038579074266441e-001 8.2663667621900878e-003
      -5.6057266765277267e-002 7.7204450087472537e-002
      4.3256245141578081e-002 3.8313936139019578e-001
      1.3606562032800390e-001 -1.8550403262837381e-001
      3.5675997741977272e-001 2.3741777049503146e-001
      2.7240179354873884e-001 2.1750077100315440e-001
      -1.9892013019895538e-001 -5.9220530666231827e-002
      -2.1983743465881184e-002 -1.1847601662629963e-001
      -1.2792047606761872e-002 -4.5106273690154763e-001
      1.7096627932265015e-002 2.4104834387715764e-002
      5.3768734682221000e-002 -2.9266075245836237e-001
      -4.0281624627611679e-001 1.1528891732304029e-001
      -6.3790207959484341e-002 -2.4983355702844334e-002
      -1.1164816996754559e-001 2.2046493540613082e-001
      -1.5437398558312471e-001 9.1698161308054404e-001
      1.5511142809781657e-002 -1.0226323577442072e-001
      -1.9448226224369130e-002 9.5533604001489192e-002
      2.5660045987651003e-001 -1.4923911985812197e-001
      1.2434362782775890e-003 -7.8688395094449123e-002
      -3.9290219607161635e-002 5.6306372461192918e-002
      -1.2093759326580054e-001 2.3779405478734582e-003
      6.5498385088707381e-002 5.0575512680401946e-002
      9.2180247571397061e-002 9.7125335582468941e-002
      -2.2466035617943532e-002 1.8584812974677595e-002
      1.1637411499820362e-001 -5.2961660561025625e-001
      -2.0557729764895730e-002 2.3103252771183019e-001
      1.7661711820622844e-001 -4.5294992062916667e-001
      4.6653389756056013e-001 -2.6876000638079595e-001
      3.6974822172846245e-001 -1.8599989132151071e-001
      -3.0942923590364124e-001 1.5723242811186958e-001
      9.8338711510423296e-002 -1.1231308858233344e-001
      -1.4070216345122857e-001 -5.0076902420637635e-002
      -2.4228626244215695e-001 1.6182634071763086e-001
      1.2552212120964350e-002 8.4259823242969401e-001
      -8.6253356006708207e-002 9.4989832040671449e-002
      3.6548064682027548e-001 -6.8458703375181160e-002
      -1.6765581805925078e-001 -4.8158596812715171e-002
      -2.0318888189419387e-001 2.4492439844436678e-002
      -4.9974175069729776e-001 4.1487533337246633e-002
      -7.5574280910426797e-002 -1.3411476846130543e-001
      -3.1461479919090513e-002 1.4844749764437924e-002
      3.6872941455910296e-001 2.0305086539419057e-001
      1.1036243730768228e-001 3.7102260185904556e-001
      -6.6690294682473575e-002 1.7014767560704513e-001
      4.6844585748809994e-002 1.5217920764273196e-001
      -6.2187766390302747e-002 1.7324927451972816e-001
      1.0123672166331520e-001 -6.5438632774788077e-002
      4.2310820299434859e-001 1.7980245944896672e-001
      2.4744730502521572e-001 2.7147355900780934e-001
      -2.1455953212881573e-001 -9.8222143197429623e-003
      7.8632090090743553e-002 -1.7693340827051585e-001
      -5.6940676504315335e-001 -9.7836839109334592e-002
      -4.0319296669990368e-001 1.4879843351197605e-001
      -2.6153814278727788e-001 -2.3693667097013666e-002
      -2.0811912639346228e-001 -2.0865765741782377e-001
      3.1555081220013415e-001 -3.7178857843418456e-002
      -2.4078575204879955e-002 -4.2113922325952646e-001
      3.0296929824057434e-001 -3.1455045635188972e-001
      -2.2011133604736308e-001 -3.0466325153730234e-001
      1.9426263727632492e-001 -8.2562736312202914e-002
      -1.3630063593213917e-001 7.8476466131998013e-001
      -6.1949164303461292e-002 4.9484662083265724e-001
      -5.8890096654021939e-001 -8.6133552337546271e-002
      -4.6907119808560487e-002 -8.6032255932931345e-002
      2.7092705132234218e-002 -5.7355876858998241e-002
      2.0821219991699039e-001 1.9367078555101336e-001
      -3.9399016687803559e-002 -2.1071202540866055e-001
      9.6431106428895158e-002 2.8690582108281654e-001
      1.9181391752870636e-001 -1.5088341513575709e-001
      -2.5498720479842674e-001 1.7285752204945884e-001
      3.5736740282857803e-002 -2.3340791826886548e-001
      2.5516460759313170e-001 -5.2790617704267110e-003
      -6.9446867729456330e-001 -6.5538424401511058e-002
      1.7722425908818404e-001 -7.6063214039906055e-002
      -2.8770188066514024e-001 -1.6170862863881330e-001
      1.4370249433539820e-001 -1.3297338588622304e-001
      -1.2973843144799702e-001 -1.2340449607696351e-001
      -2.7241612102840329e-001 -1.3792102388625810e-001
      -3.5001345238480358e-001 1.6298024223712448e-001
      3.2295743196203314e-001 -2.6760914172854189e-001
      5.5446749317314560e-002 9.0570255079474227e-001
      -6.1945077163277990e-002 1.1323982175816318e+000
      2.0228922598667168e-003 -1.3921084702873748e-001
      -2.0181377544590823e-001 6.8691046588974861e-002
      -2.4187999458777432e-001 -4.9068795838455505e-002
      5.5604051669337066e-002 -6.3935965553841484e-002
      -4.5488862425870175e-001 2.5136843797204023e-001
      4.8785247871053539e-002 5.0207556440146717e-001
      -4.9773765714467073e-002 8.1585527567129140e-002
      -1.4232314257225756e-001 1.2400471890835275e-001
      2.5118923716931862e-001 6.5128827789622090e-002
      2.0043547593815320e-001 -4.5336319550698556e-001
      -7.5946170919287548e-001 -2.9401339799152193e-001
      1.0359420216158632e-001 -8.6732726917527328e-002
      1.2142776667986156e-001 3.3168036670806766e-001
      -1.1688632378759417e-001 1.1085382886035033e-002
      3.8381103729605703e-001 -4.7947911400236998e-001
      9.7589778723954912e-002 1.0453352890288435e-001
      6.7575031655635120e-001 -8.9848634958450746e-002
      1.0899986980390486e-002 3.9503446259992775e-001
      2.0170470689554101e-001 1.4153652448333445e-001
      -9.8088386492644578e-002 3.6931993036080901e-001
      1.6781083535496175e-001 3.3375251073037304e-001
      -2.5480457859334699e-002 -1.7639247598439337e-001
      6.2527408579445798e-001 -1.3369847100226429e-002
      1.5783315934325812e-001 2.4757188457160989e-001
      -3.5605858375027594e-001 -2.1730426532368194e-001
      3.7246586607659016e-001 1.9690258637966276e-001
      -7.9759815569479933e-002 7.7745911681585886e-002
      -1.8924984903947090e-001 -3.9102828066362359e-002
      -3.3004208015868675e-001 -3.2420535602900466e-002
      2.8050129742935487e-001 1.6461225923713546e-002
      -3.5437095974579980e-001 -8.4578318817451148e-001
      1.3051420366119271e-001 -6.6519062102302939e-001
      2.9242680489290462e-002 3.3100115006567410e-001
      4.0735969961279470e-002 5.4007378737968376e-002
      1.2061564156616550e-001 2.7263119346734033e-002
      1.6752648296518853e-002 -2.1228135921192498e-003
      6.7910735047747606e-001 -9.4757665259197377e-002
      1.1477976549163182e-001 -2.3244591307355775e-001
      3.0955902211049008e-001 -8.6614213021045175e-002
      -4.8701902275794146e-001 2.2592542508870098e-001
      -7.9191560360160326e-002 1.2498698388312630e+000
      -9.3723084388908653e-002 -1.5334039344949246e-001
      -1.6256194316246347e-002 5.4980517580162779e-002
      4.6450820954281802e-001 -1.0725997965026154e-001
      -7.1361568719273683e-001 -6.6917222294721676e-002
      -1.4076510702801373e-001 5.6858990401363683e-002
      4.2301277443287572e-001 9.2960347960475573e-002
      1.9034078610516970e-002 5.0504578150527457e-001
      -3.8247403249509343e-002 -4.1679815698940269e-002
      1.7246300099630053e-002 -1.7308739813413607e-002
      2.2042238019965843e-001 -1.2292434561581081e-001
      1.7491892175228181e-002 -4.8517471020832026e-001
      -6.4945598858152889e-002 1.0720131360629764e-001
      -2.0208100969879610e-002 4.3155782528547258e-002
      1.1675296743186295e-002 -3.2094355703320726e-001
      -1.3884514884230315e-001 -2.4872372346692595e-002
      -1.2661288718795799e-001 -1.0282434141751773e-001
      8.1187088361908258e-002 -2.4966036926002705e-001
      1.1626534691425781e+000 -2.1239052655977889e-001
      -3.7642830592378468e-001 1.3359070325380207e-001
      1.7674296171964460e-001 2.6728172192691113e-001
      5.2053362100881212e-002 2.4540116173218475e-002
      -2.4689928892103999e-001 6.3261611772358714e-002
      7.4324618309278306e-002 -1.0280676743805188e-001
      -3.1191050178836532e-001 -9.5369528857034314e-002
      -4.5766617756118938e-001 5.8008120474896258e-002
      -3.2259019507834212e-002 1.7902763947077291e-001
      -1.3982598876877262e-002 7.8667783088543955e-002
      -5.6939338222100966e-001 -1.1305776299146883e-001
      -1.1106576022010650e-001 1.3507579667992148e-001
      2.2556002377453646e-001 -1.4057366574444810e-001
      -4.9458632494138566e-002 -6.9371874567146019e-001
      -8.8084467340144204e-002 1.5143891470598480e-002
      2.1017423199135124e-001 1.0644881843566137e-001
      6.5721661779392482e-002 -2.3895703384534249e-002
      -1.2173415754221598e-001 7.1930202866005349e-002
      -1.9250970706249007e-001 1.8652488977905296e-001
      1.5489248911800910e-001 -2.5068074500594656e-001
      7.5972180496059882e-001 -2.1594547433505351e-001
      -3.8668813624349874e-001 9.4750732239178171e-003
      3.4157960079495486e-001 -1.2529668748557729e-001
      1.4899379218914688e-001 1.1618668752758939e-001
      -6.3726984310057133e-003 -1.3665711995537888e-001
      -4.0520650026399860e-002 -9.0382215879342559e-002
      -2.7159861147635711e-001 1.6375950487719688e-002
      -3.9342749621934880e-001 2.9916555181891852e-001
      -1.3250976764796448e-002 -1.4257634333479660e-001
      1.3628757393068250e-001 -4.5539631791095503e-001
      -2.9266274686331317e-001 -8.0732117787176194e-001
      -4.7651744953023191e-002 1.2404220581882874e-001
      2.6277281043168771e-001 -1.3635936047853267e-001
      1.8455958956666678e-003 -6.4694005862253345e-001
      1.4833989257957700e-001 -5.3447412751261791e-001
      9.5240371216492967e-002 2.9575783311659365e-001
      -6.0600712255229561e-001 -8.0602443951650815e-001
      -2.0348611261511670e-001 6.4191670310567259e-002
      -4.8610076861899343e-001 2.3886497194804135e-001
      5.0893016110857847e-001 -3.5873172455788538e-001
      3.0421183423189496e-001 1.8845686248640708e-001
      -2.0045379885055881e-001 4.3261354437181952e-002
      -9.3473976976800122e-001 -1.5262395198148881e-001
      3.8447840134710295e-002 3.4649532564226031e-002
      1.0843595290585168e-002 -8.1902582141449493e-002
      3.4575419269080515e-001 4.5378381045803592e-002
      -1.1513740320644732e+000 3.7195973512565803e-002
      -4.0923694822648438e-001 -1.4894157129326413e-001
      3.5716415204871808e-002 -7.0566156989048515e-002
      -2.3992233538507837e-001 -2.5213651628570743e-001
      2.9346764167309308e-001 -5.2590410031459034e-002
      -5.6475967205297906e-002 7.7386078513218048e-002
      -3.2127737018943586e-001 2.5810368624617602e-001
      8.4408937393370791e-003 -3.7530109385829508e-001
      1.0218551230315480e-001 -2.0678053370981075e-001
      -1.2104553847505356e-001 -3.7066747457149187e-003
      -3.0856438526315894e-001 -1.5129046855470638e-001
      1.9073288055794235e-001 -8.5824923766039984e-001
      8.0104281586686743e-001 -4.8637989129526016e-001
      8.1597708136759081e-002 1.6289083785125789e+000
      7.0218187616160899e-001 2.5721769365208974e-001
      2.0401119962239891e-002 -6.9550920838666701e-003
      9.8643177548065775e-001 -1.5166487200016213e-001
      3.0948831827616308e-001 1.7392084152195378e-001
      2.8735879242219299e-002 -1.4948713512234460e-002
      2.2517164181604957e-001 3.0966713146769426e-001
      7.5644090820808904e-002 2.2333205345306489e-001
      -2.6822799245556211e-001 4.5811696940961749e-001
      8.1852805694020717e-002 -5.5656139047510156e-001
      1.7999338358741679e-001 3.1637620414790296e-001
      5.6710301661349705e-001 -2.4334074732136282e-001
      -2.1518708297965546e-003 -2.3192578375089529e-001
      1.1932451113651299e-002 1.4208560061090517e-001
      4.0268993622837874e-002 4.3106518056669374e-001
      -2.1591101371208996e-001 -3.5497265311969328e-001
      1.4974740074308301e-001 -1.1489859103636664e-001
      -2.3347722831692821e-001 -8.9183771442743354e-003
      2.4520547388353761e-001 4.3629679549462680e-001
      1.1767861878956762e-001 -8.5694173324111791e-002
      5.2433603569162456e-002 -6.8796090711507316e-002
      -1.8305842772042897e+000 -1.0480881601224071e-001
      -1.3994521465335731e-004 -2.1818075471499643e-001
      2.4190043774978204e-001 4.9790651490539717e-001
      6.6543210567701488e-002 6.7995594513310637e-002
      -1.9136894826735495e-001 4.0697069490377707e-001
      -3.3725159969534485e-001 -6.9299263680026069e-001
      -3.6119131319976255e-001 2.4309220005693030e-001
      3.9237899832034884e-001 2.9265110370467390e-001
      1.7032768923700539e-001 -3.2834782407740903e-001
      -5.3533352210838370e-001 3.2536310644816596e-001
      6.5312918387747984e-002 1.4019972106205737e-002
      -2.6989591867634455e-001 1.2511853920448826e-001
      -1.1820496451097491e-001 8.4345393800391716e-002
      5.8829025095353489e-002 -4.4351041154625091e-002
      -2.1998701080588548e-001 2.3584898505562768e-001
      1.2237526312958746e-001 3.3558215593289080e-002
      3.4092192872492638e-001 -8.2540770161556740e-002
      -2.3563263949919350e-001 -6.4701521498932824e-002
      1.2953648771537682e-001 1.6500978036565242e-001
      1.1519319951514037e-001 -5.7423693960026147e-002
      -1.7532755634160360e-001 1.3109519639196662e-001
      7.6580437715413485e-001 -2.9749711626658893e-002
      -8.4991621420975427e-001 -3.5302950635305880e-001
      1.0076360663641062e+000 -7.4983022721500669e-001
      3.8804008485440067e-001 -3.5589066472479045e-002
      -4.2623419670603774e-001 -1.8005213554667929e-002
      4.0847030888442590e-002 -2.1322440788986963e-001
      2.7439109164266368e-001 -6.8568857660482896e-001
      -4.7884392317163902e-003 7.4123652726407904e-002
      7.9616617841361259e-002 -5.1898653209376422e-001
      1.3626581028716254e+000 5.4340226977258999e-001
      1.3147278351669414e-001 -3.2457938691076565e-001
      -1.1203148424046820e+000 -1.2144290040779043e-001
      1.1501615626908625e-001 -6.9782630154292868e-002
      -3.1062785120044983e-001 7.4508520522209784e-003
      1.4444571952640270e-001 2.7201618470650218e-001
      5.3755444322272798e-002 -1.0126707744336970e-001
      1.7541658193371856e-001 -9.2131376677508037e-002
      -1.2217281302831910e-001 -1.0609943504150339e-001
      9.2335417294555328e-002 -2.5698982593637121e-001
      7.9329707653538251e-001 1.1373415291082048e-001
      -2.9870894497147582e-001 -9.2645242826493293e-002
      9.2829895029889753e-002 -3.1447427720344939e-001
      5.1566203066970828e-001 -2.6149519324803944e-001
      -1.0303984753906474e-001 1.9400248799765516e-002
      1.5733973760242773e-001 5.5373064133577654e-001
      4.2471833770014511e-002 -1.5612024522267201e-001
      2.5250305836921422e-001 -4.7070604860246296e-001
      -2.9227360809099268e-001 2.9539358409981181e-001
      1.9643835696952813e-001 -1.8637112106784738e-002
      4.4619470813355405e-001 7.4590184712906127e-002
      2.4157985523935710e-001 5.3528951990745227e-002
      -1.4263333624282326e-001 -1.6958874895088585e-001
      8.1920976223251327e-002 -2.4599763760440224e-001
      -1.9217577773539191e-001 8.1242995927857928e-002
      -7.9132987154416044e-003 1.6445779635875310e-001
      8.9342673619488056e-002 -1.1455770120326485e-001
      -3.9083465095418650e-002 -8.5644498162548835e-002
      -3.7029896887817784e-002 -1.0777781778015476e-001
      3.7863338989988456e-002 -1.7782250405362365e-001
      1.1679099485015141e-002 -1.1440990055363165e-001
      -1.0054368730820747e-001 -7.2632262114969912e-004
      -1.4954573388358094e-001 -1.1437442630484661e-001
      2.1323592146418754e-001 -3.3342577474949758e-001
      -1.5588176149317789e-002 8.4202291912961386e-002
      1.3048419311725121e-001 -3.4712981173636037e-001
      -2.4311303805457257e-001 -1.7592693961930589e-001
      1.0727115379401425e-001 -1.1385336427699506e-001
      2.4250765703308464e-002 3.5500568837690799e-001
      2.4023571423624718e-001 4.4191778062841808e-001
      2.0437628764991211e-001 6.7508929085618355e-002
      -4.1845721681653174e-002 -2.0016641656148132e-001
      2.5591946173137314e-001 -6.8898187657956744e-002
      1.1080483654778892e-001 -1.0946191867231301e+000
      2.2976178211850254e-001 7.5187632637327584e-002
      -3.2374199769964848e-002 4.2093287813157626e-001
      8.4454208080932638e-002 3.1621747056973754e-001
      2.7770698442523833e-002 -1.2796867839405318e-001
      -2.6401071714224766e-001 -9.3751372246858727e-002
      1.1617291625855254e-001 -2.6056204071766076e-001
      1.2830261541942595e-001 -1.2175341544275671e-001
      -1.2322698771150772e-001 -1.7181831892412885e-002
      -2.0443722459172084e-001 -4.5056182067122426e-002
      2.6786395888870795e-001 1.6479869743147451e-002
      -2.2814503713154433e-001 6.0146221226148308e-002
      -3.0127593263268138e-001 -3.5875495946169061e-001
      -1.5398458756439037e-001 -2.6713877654191576e-001
      1.5490815490405985e-001 -1.3908324420743021e-001
      1.7349648782360266e-002 1.0353068897238239e-001
      8.9472984094530902e-002 4.6820348328926237e-001
      5.8513135867484611e-001 3.7688690246363371e-002
      -7.5689114207096189e-002 -2.6023901627215542e-002
      5.2314367461234790e-001 -4.3107919866192924e-002
      6.3855037803751027e-002 -3.9754899423650131e-001
      3.1046026760959528e-001 5.3219838879222853e-002
      1.4728197930018525e-001 -1.7590017390297732e-001
      1.5075800815324539e-002 -1.9234538160311527e+000
      -1.4192619256399075e-001 -1.1722107588693806e-001
      -9.2611128079465932e-001 8.0295564140369063e-002
      3.0658093066686648e-001 -6.8558852377438428e-001
      1.0256356102885353e+000 1.8594853552529010e-002
      9.6477033949726870e-002 6.9895056097004291e-002
      6.8026827283406199e-001 1.3093344594070025e-001
      -1.3024042431190203e-001 -6.8689880654758950e-002
      -2.6717984047565019e-001 7.0132497558843418e-002
      7.6689405038620762e-001 -1.1271698018780445e-001
      3.6936573036556070e-001 -3.7139199984282878e-001
      -2.1028282682673511e+000 -1.5961933008090831e-001
      3.8271983680305301e-002 -1.2608026727515015e-002
      -3.7534094917009320e-001 2.6002080580492848e-001
      -7.2041995030586808e-002 5.4207053347688650e-001
      -1.1337490918733928e-001 1.1868667317996513e-001
      2.0311236973378546e-001 5.2332388147105068e-003
      1.1873201099941982e-001 -4.6417845640930511e-001
      2.3062867885367158e-001 2.9714318721434596e-002
      2.1707261923121485e-001 -7.5128191622586743e-002
      5.9294509684157379e-002 -1.3384018233865915e+000
      -1.2336374524875722e-001 -7.6720678407600398e-002
      -2.5839005748730037e-001 3.9143294393807114e-002
      2.9856816253225604e-001 -8.8149917315110304e-001
      2.2650880522233563e+000 -1.0852585039138446e-002
      9.7733262778097352e-002 4.3529097201950868e-002
      6.4502527704726953e-001 -1.3974102041423661e-001
      4.0502536321503038e-002 -3.1393857535652103e-001
      -3.4130796378227923e-001 3.3983471778043095e-001
      9.1300837855698214e-001 -1.0659766462190164e-001
      3.5811894155391333e-001 8.4514060252283432e-002
      -1.7040213798212414e+000 4.6697353642772103e-003
      -1.5874464372956393e-001 3.6450707527757226e-002
      -3.3623898686920645e-001 -3.8956726533264527e-002
      3.6810031053320896e-002 6.9212251434846350e-001
      1.7953665154986320e-001 4.1019960199877775e-001
      1.5099730704762960e-002 -9.6514543552543835e-003
      3.2998253792721706e-002 -8.3012264855408147e-001
      -4.9266225414013893e-003 -5.8698849867645675e-001
      1.8040187168884811e-001 5.3477967347033384e-001
      1.5890096757823718e-001 -6.5181875180719451e-001
      -4.4639244215623652e-001 -1.1940527248752780e-001
      -8.5174964475972870e-001 7.8836354549716173e-002
      1.9082226779477268e-001 -6.7481893126158310e-001
      1.5228854144816510e+000 -5.5024513732233682e-001
      -2.7047065928506205e-002 -4.5670931734724501e-002
      -3.1713917158689142e-001 -1.7841813611455010e-001
      3.3577261347179380e-002 -4.9854761791184882e-001
      -3.7488124704813004e-002 -3.2582596722123786e-001
      3.5845782151108185e-001 3.3207566276477735e-001
      -1.5416241256120880e-001 -8.6764996626872065e-002
      -1.0407119252908938e+000 -1.9156267778214373e-001
      -2.6831901818386555e-001 1.5365782726532018e-001
      -4.1711485370567292e-001 -2.3829980848033780e-001
      2.3931577249249616e-001 1.8224687921913341e-003
      8.3534674553073535e-002 4.9694693070811397e-002
      -3.1962642578301870e-001 -1.6478688033477434e-001
      -9.1172159620400706e-002 4.6389587750828909e-001
      -3.5042158886696745e-001 -1.1566650018936346e-001
      6.3529973128073638e-002 -2.5560837897620047e-002
      -2.2806340732620867e-001 -4.8037862937635949e-002
      7.7650546418649533e-002 1.0418869009408444e-001
      -1.1671111176539104e+000 1.1015018305850184e-001
      1.2428533426578446e-001 3.9180976169256115e-002
      3.7064652909454453e-002 -7.7664142817766224e-001
      -4.8778873784291221e-001 6.6680393640183661e-002
      -1.3473747694329097e-001 -3.0451348832478187e-001
      -9.0904460442375407e-002 2.7317115049607771e-001
      -9.0515538053751218e-002 1.3243994820909219e-001
      1.0157335835534304e-001 6.1893464149375466e-002
      -3.7088303570509007e-001 1.5329108318258004e-002
      -9.2742294934457278e-002 3.0156362049868435e-001
      -3.2536975059099738e-001 -4.7213915879657992e-001
      -1.5175891395322649e-001 -3.5319577410823322e-001
      -5.4362286850615238e-001 -1.9927272232199533e-001
      -7.1989606767386494e-001 -6.9601176567776382e-002
      -2.9282526628873018e-001 -9.2219869567498128e-002
      -2.0707313783456732e-001 -3.6227935536582948e-002
      6.7748483821341066e-001 -8.6159299998747649e-002
      -1.4580498496417815e-001 8.5026360655313674e-002
      -2.8600494991546911e-002 1.5928166504177849e-001
      1.1408486691379715e-002 -8.7878200124853426e-003
      7.9755443424591052e-002 -5.4835195349360977e-001
      7.6110593092097820e-002 8.3208121303072369e-002
      -1.5397156697599746e-002 9.8018816524444130e-001
      -3.5550913380853012e-002 1.4560168559603431e-001
      -3.2930075055531915e-002 5.9695748945817317e-001
      -2.5817960123886691e-001 -6.7211606464785412e-002
      4.8314539859696382e-001 2.5816300842042778e-001
      8.9622261794292304e-003 6.1670398577437217e-002
      5.0152196572849292e-002 2.1823715948430966e-001
      6.6833607770242665e-002 1.9307040442716500e-001
      4.6053906023678420e-001 -4.5760312163004441e-003
      -2.0798938732317918e-001 1.6386435871707453e-001
      2.6935743679720264e-001 -1.2499070877845084e-001
      6.1846914287111851e-002 -3.1819844357718896e-001
      -1.3823547122362562e-001 2.0404209958238359e-001
      4.9315844855959690e-002 9.2090639809993013e-001
      -1.1529424767980939e-002 -1.3934019802949635e-001
      -4.0821043336739554e-002 -2.6669001297939604e-001
      -1.0775437498446223e-001 3.6677328282578564e-001
      4.2070183740243050e-001 2.3836743149576611e-001
      3.9341416646599875e-001 -1.5186241248963903e-001
      5.2872917474506217e-002 2.3029320036597983e-001
      7.7186497726690229e-002 2.0067516089552478e-001
      -1.2827760426229934e-001 1.4535257917995776e-002
      9.7631071360537489e-002 1.6065025659661347e-001
      -6.9989620071820954e-002 -7.3474479832197209e-002
      9.6850828187966670e-002 4.8264530494493540e-001
      -3.5752063100835119e-001 3.8573964121855214e-001
      1.5241682509705551e-001 2.2828062312133093e-001
      6.2629358887651879e-002 -3.2436550859740648e-002
      -4.2266389955972261e-002 -2.6496817201596950e-002
      -2.3709111678793057e-001 1.5402452222520291e-001
      -7.2121710614126741e-002 -1.5375266672242685e-001
      7.1788868399727729e-002 -1.1398609144185098e-001
      -8.0579419964650206e-002 1.6823053462211285e-001
      -2.3844477849913193e-001 5.3345516974697726e-001
      -4.5126953190887376e-001 1.6346299758352899e-002
      -1.1095381128561612e-002 4.4973282417669888e-002
      7.5256816125232617e-001 6.2816448767549959e-001
      2.8949060543793387e-001 7.5594429072225827e-002
      2.4079732913943105e-001 2.8882265158497855e-001
      3.7694468896415978e-001 -8.0225395163905389e-001
      -4.1879432408013402e-003 6.7117320985943071e-002
      -4.9939865166988667e-001 2.1752616839627781e-001
      4.9355926536916783e-002 1.5535309043494969e-001
      4.6045163544921643e-002 -1.3727425989344533e-001
      -6.8202531824606194e-001 -5.1680138315183366e-002
      -1.5861418179246797e-001 2.6448874495604156e-003
      4.7495766104134939e-002 -4.3333019926534821e-001
      7.8902146755617208e-001 -3.2764207998970674e-001
      5.9448534257952823e-002 -8.2894493775115489e-003
      3.6053950403966040e-001 6.3650400162700682e-001
      2.2845751239577039e-001 9.8351801063419078e-002
      -4.1417934471931581e-002 -1.0753186676536675e-001
      -1.1130776023199258e-001 1.1025610997341124e+000
      -2.4710855185342123e-001 -3.2425396811237478e-001
      -3.9429981132200570e-001 5.1976006647069828e-001
      8.6583626118164192e-001 -4.1226160231196113e-001
      2.3035231407477241e-001 -9.7624326271660344e-002
      6.5365672640423464e-002 -5.3727502109288242e-002
      4.0632843800470736e-001 -1.0622747015093283e-002
      -1.5819326344565021e-001 -1.6305679369927165e-001
      4.3767253402752837e-001 9.5226441700266617e-002
      -3.4592053700862851e-002 7.6934989237213550e-002
      -3.0908082660087134e-002 -1.0698335300203938e+000
      2.6249313756885584e-001 -1.8110774886560466e-001
      -1.7713824524999836e-001 -1.7957583943005487e-001
      2.4805318050474323e-001 -5.6015550930985328e-002
      -1.8491286716401037e-001 -2.2046366189198888e-001
      2.1072423606359428e-001 -2.1563638106458682e-001
      1.7832947399201510e-001 3.8158930804120600e-001
      4.5513620940609867e-001 1.2129834475607609e-001
      1.1219415349656294e+000 -1.3341243709729975e-001
      -1.6627991233875325e-001 -8.3918580454067707e-002
      2.8630963995305653e-001 9.1540485314834746e-002
      7.9642940091585512e-002 -4.2282286276027742e-001
      -2.1860687001575385e-001 8.3141837910850572e-002
      1.3374645877308569e-001 -4.2789389036757081e-002
      9.6499243361248214e-003 -9.2369721937602761e-002
      -1.2410598940476375e-001 -6.3481683079703768e-002
      7.7486246821675070e-002 -5.0449779548411684e-002
      -3.0227545819342299e-003 -2.5078349221970347e-001
      6.6442534393143377e-002 1.3136142678370041e-001
      -4.1212149915647173e-001 -1.7991373466714956e-002
      7.4171591927031613e-002 -1.5770694136070579e-001
      4.9064635413262031e-001 -1.9965489262123953e-001
      -1.6165555367110629e-001 3.9739438556176745e-002
      1.4863538775171661e-001 -3.3156761072184282e-001
      -1.4613366996071198e-001 -3.6751735790422221e-002
      5.2679380557521416e-002 -2.7484747982854835e-001
      -3.0411271494005948e-001 8.7060457673768465e-002
      2.6547679784721945e-001 5.2429380463733277e-001
      5.2695076659840745e-001 -1.1130960615612599e-001
      3.2227080592308383e-001 1.2978203749664527e-001
      4.0672820805908220e-004 -1.7617301252677817e-001
      9.6067217320060738e-002 -2.2771932285137014e-001
      6.1701611109990936e-002 8.9155659118579603e-002
      1.5628929805996114e-001 1.9006132986650925e-001
      1.3925551656566981e-001 -2.8173973042941496e-002
      -1.1371156220419430e-001 -1.8474076180620396e-002
      4.5796723475622930e-001 1.9542067665848514e-001
      1.8730786131766722e-001 -1.6844271594068336e-001
      1.6196937154645483e-001 3.5912229499132260e-002
      -8.6475131223503490e-002 -7.7268094891314310e-002
      -1.7342952072162970e-001 -1.5217512822726720e-001
      -2.3493619740030472e-001 -2.0278130466562394e-001
      1.6239504863834942e-001 -3.7434161724123105e-001
      6.3051542956549009e-002 -2.7172876026943474e-002
      1.4455517443667143e-001 -1.1948362086970486e-001
      -6.8577618056180650e-002 -1.3650114173819736e-002
      1.8306331908573548e-002 8.0681930564526605e-002
      2.1095854347574181e-001 -6.1236983584649907e-003
      -2.8924412720454561e-002 3.8227664365368513e-001
      1.1252363640908253e-001 2.4655079766529411e-001
      -9.1981593006246101e-002 -3.0295420256160660e-001
      5.8949436515800091e-002 -3.9229289461103201e-001
      6.5516195104842898e-002 4.8512573593789368e-002
      1.4669461501461409e-001 -1.8908637683521609e-001
      -1.1711815916709549e-002 -2.7384074001998671e+000
      -1.2221926788856738e-001 -3.7736827089315195e-002
      -3.3414587256846956e-001 1.0444797245932956e-001
      1.4573482095257101e-001 -1.9307215020481400e-001
      7.3469871895039995e-001 -1.1639460960032574e-001
      1.2313907052878881e-001 6.1096263502357744e-002
      2.5188057411506054e-001 -1.5289873378884583e-001
      -7.5124304150156876e-002 -1.9823854086913367e-001
      -3.8497039228456986e-001 3.0656849544319359e-001
      2.5769407251561103e+000 -6.6779338805941918e-002
      3.8227083586083949e-001 -4.7373048622918898e-002
      -2.3139680025808138e+000 4.0113971439230504e-002
      -1.1956014478810421e-001 -8.2032750546378805e-003
      -4.0616358737630587e-001 1.0637796310129573e-001
      -9.2384760543125305e-002 5.2229854668509956e-001
      1.8252524659550873e-001 2.1832191383081144e-002
      1.4845652748207049e-002 -2.0187321403827754e-003
      1.1628805496641829e-001 -3.5560476720869266e-001
      8.1801578140217338e-002 1.1532145231730398e-002
      1.7931277867878465e-001 -7.7065248452803853e-002
      1.4385827136769305e-001 -1.2810208404788082e+000
      -1.3424430331370460e-001 -4.7669168889944505e-002
      -1.4299345289441301e-001 6.0818817421190427e-002
      1.3066236275676985e-001 -2.0288695233310428e-001
      8.1030119089355557e-001 3.8802466522607137e-003
      1.2941393866914830e-001 2.6958982331154187e-002
      5.5304802693153388e-001 -1.4857047381732255e-001
      -8.7997877271656366e-002 -2.9374800898061848e-001
      -5.7488118775865335e-002 3.2019100975106879e-001
      8.3496637447912703e-001 -6.3092573862112603e-002
      3.9085648478926155e-001 1.5588157913320494e-001
      -4.1259758275394876e-001 9.4055652494493235e-003
      -1.7496789282370048e-001 4.9812519179366486e-002
      -4.4665799876251766e-001 2.1664400922307456e-001
      2.3746991901453832e-001 1.5918664738417576e-001
      1.8446131619143943e-001 2.0875619106690810e-002
      2.4731879483381018e-002 7.1080255901782483e-004
      -4.4291171142331533e-002 9.4409517648767996e-002
      -3.8176629872680806e-001 -2.9451751555393979e-001
      4.0671609519645902e-001 -1.8965959081627878e-001
      8.1125809870465179e-002 1.3968576784972003e-001
      -1.6045343691394345e-001 7.7326752721479670e-003
      -9.8436367328266217e-002 9.9327363778106928e-002
      -4.5471522347849641e-001 -9.7198222153373759e-002
      5.3629589033312608e-001 -2.4697607025935129e-002
      -1.9471670593884422e-004 1.8686100791857968e-001
      -2.8937726163881256e-001 -3.3644272943428921e-001
      3.9666601304830718e-001 -8.2927412744510931e-002
      -4.3234588998811141e-001 8.4039313839237698e-002
      3.9946907504935825e-001 3.8043971695870135e-002
      2.0319240377757335e-002 -4.7202127707621744e-001
      -1.5095429366694538e-001 -1.1431441107163074e-002
      -1.2232919105951252e-001 -1.2959561333902209e-001
      -1.4766610832385721e-001 1.1788385821130448e-001
      -8.6319775264421597e-002 5.3698448415658051e-001
      -7.1534902266188125e-003 1.8301185708523923e-001
      1.1647763802766451e+000 -1.8199025487586987e-001
      -1.6450281267044278e-001 2.7614697153710011e-001
      3.6166634971140371e-001 4.2659371211809094e-001
      -1.0643502949433416e-001 8.7698714367543076e-002
      -9.7183225673222184e-002 7.7009598400015356e-001
      -4.9569198861438700e-002 2.3197309487369634e-003
      7.5340899816095805e-002 -1.9545375702814724e-001
      -1.1756277702880770e-001 1.6942851940009873e-001
      -8.3722967344820140e-002 -6.9602731082491431e-002
      3.9959784087815781e-001 1.1403663254627416e+000
      3.4425951604663951e-001 1.0662449695587860e-001
      3.1618264757665524e-003 3.5106079659870656e-002
      -2.6661860140141608e-001 2.4464795897835295e-001
      4.1122067815776908e-001 -2.1963703925178105e-002
      8.2569227764246933e-001 -3.4821810649635010e-001
      8.9144986357218925e-001 -2.1103020877171103e-002
      -1.2610193491950826e-002 -2.5266646672159648e-001
      5.8552696509539204e-001 9.4934078619124326e-002
      -1.8415899443087738e-001 -7.7926685872082613e-001
      6.2513727561246291e-001 -3.0597286978002508e-001
      9.7972845340692394e-001 -7.3376926049625278e-003
      -4.8689453199250610e-002 5.8939846057540587e-002
      -5.1214056798074536e-001 -6.6557243292817023e-002
      -1.0232501761701805e-001 -1.5399017403306087e-001
      3.4998070859185343e-001 -4.9567233677740817e-003
      -1.2128616107369365e-002 3.9853364354544596e-001
      3.7500709796248954e-001 -1.6079354504748311e-001
      -1.9368234775830118e-001 6.2382302901208164e-001
      1.8604469116773725e-001 2.7141597466543560e-001
      5.2810684141210276e-002 5.2654188695331505e-002
      4.5245827059347260e-001 1.3093503101116713e-001
      3.9937542444786242e-002 4.3089526484524787e-001
      1.5050083619826901e-001 5.3356139865450658e-001
      -1.6845778859541022e-001 3.9396265365360089e-002
      6.3681975769235921e-001 1.2721447559516898e-002
      1.5662588870940566e-001 -3.5174135029643026e-002
      -1.0738956143437808e-003 2.8872423731083091e-002
      1.1416742139362329e-001 -3.5497710691761958e-001
      -7.5048097289951643e-001 2.6298782049195124e-001
      2.1554915823427387e-001 -5.5910458948721153e-001
      -5.1885629434007735e-002 3.0177114257754378e-002
      3.1681314386574833e-001 1.7755876626797659e-001
      2.8812695743639771e-001 -2.6171727446724063e-001
      2.4667254166883146e-001 -2.7845682795870103e-001
      -3.2078186344010973e-001 8.8094925019314341e-001
      2.6631101568515569e-001 3.7021544769955056e-001
      1.0346365002197646e+000 -1.1762656028081641e-002
      2.8414158216635743e-001 5.1148322509882760e-001
      8.4079228912493746e-004 4.6209580922912058e-001
      -9.0743673385454124e-002 -7.0251467524601030e-001
      7.8686879747121441e-001 1.3752322393721392e-001
      1.1873980936816964e-001 5.5703977409471939e-001
      2.7578705711928969e-001 -3.0770673917134989e-001
      -1.0880474692553141e-001 1.0436047625287002e-001
      1.5980993843584601e-001 3.5329900748098643e-002
      2.0651439962798032e-001 -2.2032627119669487e-001
      -7.7838771385418323e-003 1.0385166481972632e+000
      -2.2889170600390663e-001 -1.0539361157042655e+000
      3.2585925818025149e-002 -2.7390751892918846e-001
      2.0482156552838965e-001 -2.9328267723537943e-001
      -3.9273734758795073e-002 4.3150523286592968e-001
      1.3149298050599634e-001 2.7151448140229181e-002
      3.9768824316043727e-002 -1.0753521343844924e-001
      3.1981904304501624e-001 -4.3007019909251064e-002
      -2.6609921798748681e-001 5.8828121353407625e-001
      3.0501394200665788e-001 1.8474240079062726e-001
      4.9272708408319543e-001 -1.0336629066978845e-001
      -4.9347639185732795e-001 1.3367670837780727e+000
      -9.3552455051077774e-002 2.2504371832521017e-001
      -2.2649486557494664e-001 -2.5402389238936013e-001
      -6.1976610673898436e-001 5.6726485535545296e-002
      1.0792371523755100e-002 -3.4202614578380808e-001
      -1.2035983868848699e+000 -6.5323027412474616e-002
      -9.4827464076947934e-002 1.6925153958520722e-001
      -7.8379169590709130e-001 -1.7071094034880763e-001
      -3.6948444380401645e-002 -5.4100852917285051e-002
      4.2260800707309581e-001 -9.9586925638044110e-002
      6.7456582814991262e-001 -5.8013945095194908e-001
      7.5965902271903613e-002 -6.7174837602307991e-001
      3.3254798414050274e-001 7.8066748153586552e-002
      -9.6951835462501676e-002 1.3923247111434853e-001
      -2.7470965028787647e-001 -2.4547914722757658e-001
      -6.3320067155310988e-001 -2.8955425823010239e-001
      -1.1429960434132361e-001 -1.5088616778909711e-001
      -3.8596033477703545e-001 2.1874555612507834e-001
      -5.1685201385262516e-002 2.0369539411559789e-001
      6.1900786949894426e-001 6.5455993636185694e-001
      -4.7902456377908204e-001 2.5989059307324834e-002
      -9.9780451595285979e-002 -9.3641472833743244e-001
      4.6293435322806276e-002 2.0199027002540720e-001
      -3.3186120486314857e-001 -6.2896078907515163e-001
      6.3477703254634943e-001 1.0794588093894100e-001
      -2.2462503385854488e-001 1.4185424597120225e-001
      -1.6115233032203402e-001 9.8928902799598942e-002
      -5.7770259099532906e-001 9.6970264733196282e-002
      -1.1705093235819947e-002 -2.4168043341671402e-001
      -2.5386513222082942e-002 2.4510956188590988e-001
      6.3052647115214822e-001 2.5509473341373823e-001
      -4.6052790009669331e-002 -3.7366351207577103e-001
      -2.1122115618127721e-001 -7.6983080924008143e-002
      -3.0251984302910573e-001 1.3372708528116395e-001
      6.2081617218460769e-002 -7.5634678879749659e-002
      -3.1703772806852729e-002 9.0578115111824689e-002
      1.8561878671029161e-001 2.0077551983909631e-001
      6.3583624521509384e-003 -4.2956673415119007e-001
      -4.8300318906508793e-002 -2.1022658930845633e-002
      7.4952286470507579e-001 3.2619694476314229e-002
      -6.6865633538234145e-002 -1.5079503389297369e-001
      -4.4482554326806430e-002 -6.1874772229414364e-002
      -4.7528428010765417e-001 -2.9705723759050756e-002
      -1.9682865943225974e-002 -1.8228615842947660e-001
      1.0746825931619424e+000 -1.8698517530526176e-001
      2.1116638233719415e-001 3.1368937919967387e-002
      3.9955906315668288e-001 -2.5309494540434026e-002
      8.2046074151384735e-002 1.4173502862722789e-001
      -2.3959961996454626e-001 -4.9833902104345529e-001
      -2.8175711028837397e-001 1.0811141288455287e-001
      2.7133513253394143e-001 1.5569406055748225e-001
      6.1397329800114830e-001 2.4083083879573808e-001
      3.1061787829118920e-001 1.3779049970031826e-001
      -2.0880647929862087e-001 -2.7996079284995756e-002
      6.1366759579011672e-002 -7.5368926823216956e-002
      4.8293093858172440e-003 8.2608145488091617e-002
      2.0755711713862410e-001 -4.3445416694294636e-002
      -1.5842801011605991e-002 -7.8062172404245600e-001
      -6.9541383665642567e-002 6.8043330663709739e-002
      -1.0686987935245058e-001 1.5293018936060807e-002
      -8.0386480687488507e-002 -1.4006917883047124e-001
      7.1970104544398417e-001 -4.8906242473185499e-003
      -1.6463794504035148e-001 -1.2627863005485487e-001
      -6.4254172953753574e-002 -1.6809536745286388e-001
      -4.2947785416419459e-001 -2.0572600649575301e-001
      3.3257036682752733e-002 -1.1717906686320359e-001
      3.6569573067528910e-001 -2.7188168103393043e-002
      6.4291303163709304e-002 -9.0837736259710880e-002
      -2.6879633668749842e-001 -1.5339639086563319e+000
      -3.6931412918170106e-002 5.9286062795815012e-002
      2.2588046950186427e-001 -2.6871396852831525e-001
      -1.0036330267803411e-002 7.5344812582453013e-001
      1.2385787353990423e-001 2.0832725383679951e-001
      -2.2158951296512577e-001 -5.9622850363441815e-001
      1.1879824531361603e-001 -1.3541610625372238e-001
      3.6603373061000222e-001 3.8001856542750068e-002
      1.7316912613659394e-001 -1.8159847583456964e-001
      2.0188043648318641e-002 -8.3214070173633836e-001
      -1.4214939732779414e-001 -4.2336883973779188e-002
      -1.9961905719769538e-001 -2.3475382590080926e-001
      1.2815702176860069e-001 -3.2697133092261588e-001
      6.0473338049990333e-001 -1.1501093554275064e-001
      1.2583420442756157e-001 6.0161502154454947e-002
      8.6513820955934884e-001 9.9253834491815837e-002
      -1.8329256551199838e-002 -1.9049212332971197e-001
      -3.9423347612919579e-001 3.0884282505219579e-001
      2.0414135631098644e+000 -6.5064383397884923e-002
      7.8152004908740447e-001 -4.6817811397489376e-002
      -2.6480374200841599e+000 -1.5595805014223854e-001
      -1.6407166486400809e-001 -4.0362245813461428e-003
      -4.3352019330633468e-001 1.8159081903628402e-001
      1.1507059049336108e-002 5.2694643340360248e-001
      3.3168539359843163e-001 1.2661779976444465e-001
      1.7671175386934374e-002 5.2476432360458718e-005
      7.8784973681255852e-002 -1.3507060479641542e-001
      -6.6490855189061782e-002 2.5751161478633790e-002
      1.9032000537484395e-001 -3.0646343756923156e-002
      2.0572271847997051e-001 -6.9567300084982786e-001
      -1.7587335690261052e-001 -3.9851273956523429e-002
      -9.2655478479409567e-002 -2.9336035207774630e-001
      3.8438099440452322e-001 -5.7840108097697851e-001
      2.7891229897934638e-001 -1.7133165762751090e-002
      1.4826071224130419e-001 2.4743485235697350e-002
      -3.6031910733710598e-001 1.2335161382736402e-001
      -1.0524703395416597e-001 -2.8769373356194822e-001
      -2.8579430525262622e-001 3.3889592399951401e-001
      7.0531081926686301e-001 3.1316495987491477e-001
      1.1122703131578453e+000 -2.4579001490978986e-001
      -9.3873519499632052e-001 1.9223924479037256e-003
      -1.7388120415586769e-001 -3.4726890095856867e-002
      -4.0401487593329588e-001 -6.0019117256296911e-002
      7.2020857143654055e-002 -1.7565094464495310e-002
      -2.9361493750089371e-002 4.6263306523669868e-002
      1.7726405364916806e-002 -1.1682538182696156e-001
      6.9792225642855907e-002 3.2403191952567217e-002
      -1.9005644344949765e-001 3.5731368892508519e-001
      2.0441036282513314e-001 -3.4245150187900741e-001
      1.9244712719157522e-001 4.2484560703114732e-001
      5.2750907938683089e-002 -2.7524260229444059e-002
      4.6918244863636480e-002 1.7187720053039199e-001
      -1.0975788947485671e-001 3.0322346461731334e-002
      -7.7878131637427822e-002 -8.7978729922955964e-003
      -1.4964605898893471e-001 3.7870475443007939e-001
      -1.0816031655638995e-001 2.1505051741112666e-001
      1.7763191333977801e-002 4.3690879512423098e-001
      9.6706590375799539e-002 -1.6501431774599018e-001
      7.6218369476774558e-002 -2.0342569932377444e-002
      4.1307416269271374e-001 2.9646458010798575e-003
      -1.1103223577650870e-001 -9.7223060364201169e-002
      8.2301426070618702e-002 -4.4471596417739644e-002
      2.8559201204277268e-001 -1.8214818601041165e-002
      -5.1897307808722903e-001 -1.2310188528963667e-001
      -4.2801837442375389e-002 -1.4314813441495602e-001
      -3.0674827216351785e-002 -1.7819687171353987e-001
      2.4366744430361370e-001 5.7974963313391426e-001
      -6.2414131481720747e-001 2.3746486221394916e-001
      -1.2913347043071119e-001 7.3568267632609458e-002
      -1.2113561255176820e-001 4.6237947630739895e-001
      -5.0918769517004547e-001 -6.7480280345950450e-001
      9.6829545945928436e-002 -1.4733145763862127e-001
      -7.7577764378035777e-002 3.1573837316469383e-001
      2.5353791732264580e-001 2.5346215530998051e-001
      1.1931866231714716e-002 1.3114759732776457e-001
      6.4521428132419656e-001 8.6810715817569828e-002
      3.0084678310746354e-001 3.5517561270388948e-001
      -2.6989972287073647e-002 1.9380395831597647e-001
      -9.8379762592783387e-002 7.6771951298135716e-002
      1.4078076267248463e-001 -1.0756970960738838e-001
      1.4646328235451000e-001 2.1413520706873412e-001
      6.6602800499342063e-001 -2.8855890345575924e-001
      4.9393679745741376e-001 -1.2997587099079827e-001
      4.2722561475011959e-002 -6.3368965110340042e-002
      -6.2784910658848477e-003 -3.9504545022669907e-001
      -5.8903484317257705e-002 2.8775229218038989e-001
      -1.4003043125373874e-001 3.5789738346853800e-001
      -1.8088137108844526e-001 -1.2316231091840643e-001
      5.5419350712038185e-001 3.4214817656331126e-001
      3.2953143142843366e-001 4.0169447043630524e-001
      3.8518248964710539e-002 7.2906129807946907e-001
      7.4550080099875404e-002 -2.3382401749550315e-002
      -1.0466924481166973e-001 -3.7099812329760490e-001
      3.7873514464427210e-001 -5.4245869123505382e-002
      1.5383047855927612e-001 2.0921563806558788e-001
      -2.6612091679012084e-001 1.2603048710790427e-001
      -2.8787757028105410e-001 8.2336531089825415e-002
      4.5843359792263233e-001 9.9994606992471008e-002
      1.0893110221253693e-001 2.0767848914275075e-001
      6.1728057445160238e-002 6.4124501923130378e-002
      -1.6420820761246133e-001 -6.3558144209744649e-002
      5.3414946776302463e-001 9.4487359576210919e-002
      -1.9479774069482000e-001 -3.1825200890627353e-001
      6.3747535293418867e-002 -6.2799875619398149e-001
      -7.9041727180481247e-002 -6.8293490252311417e-001
      -1.0485993798025581e-001 8.7116432377433717e-002
      1.0458251784175679e-001 2.1521635332517916e-001
      7.2125599329544432e-002 -1.3860734652350401e-001
      8.1849701420292881e-002 -1.9229064646026764e-001
      -2.8154025802070137e-001 5.1195894815413601e-001
      6.4275405089456880e-002 3.5561100170647125e-001
      -3.9957755534296918e-001 -3.3691970599890333e-002
      -1.0272509921449521e-001 1.0620558534995911e-001
      -2.3190708853818157e-001 3.6738811417507604e-003
      -1.2669132249206552e-001 -1.3065253371378993e-001
      3.5807806481360747e-002 1.4856707248788420e-001
      -4.0373064880216786e-001 2.2678112551538074e-001
      2.0075008923700341e-001 1.8950470914358930e-001
      -3.8817366934081782e-001 1.5300296257786436e-001
      -3.3371743955876915e-001 -1.8738297047046656e-001
      -9.6804944102286836e-002 -1.1201897493492230e+000
      1.1151683803884060e+000 2.7257646790417939e-001
      -1.2969564978415812e-001 2.0735626020917544e-001
      1.3409233242860669e-001 -5.9464070011798609e-001
      6.7773577340100288e-001 -1.0699477274728697e-001
      -2.1745418198589786e-002 3.8987809076601632e-001
      5.7711453450745931e-001 2.7721873541506808e-001
      2.4388979440277947e-001 -8.3090048454681917e-002
      -1.0265365920186498e-001 -5.3544034970235244e-002
      -3.8739779706405097e-001 5.5485235565734659e-001
      2.2068350209924961e-001 -9.7779735451414562e-001
      -2.5802935497918988e-001 -1.9385315022764665e-001
      -1.1681004261612975e+000 1.5708803504487187e-001
      2.6685537576671076e-001 1.7419023827383440e-001
      -1.6032154713656710e-001 -5.0282322148655623e-001
      1.5679275250593788e-001 1.3223407200014031e-001
      -9.2953276113648328e-002 3.0304772305909150e-001
      1.0841686368176501e-001 -3.7538047690187687e-001
      -3.6001034864115161e-001 1.1683208558452959e-001
      4.3546081771709492e-003 -1.3466589518668912e-001
      -2.1914481535230051e-001 -2.2449620691971617e-001
      8.3053603946181234e-002 -3.3134308160208797e-001
      2.2694706454801043e-002 2.9224968274553725e-001
      1.5589574372993031e-001 -1.4995215564228087e-001
      2.2161490310229745e-001 -3.9419040011411222e-001
      3.1876365706468507e-001 6.4784326834273265e-002
      1.2108793390040793e+000 -4.3287084135372217e-002
      1.6464069644375023e-001 -1.5299145126619829e+000
      -2.9893826370227256e-001 -7.3147633787582567e-001
      -1.7840865147298968e-001 -3.8208293816827299e-001
      3.0152090671784787e-001 1.6201500754717230e-001
      -1.1429294788029840e-001 -2.4619352834189662e-001
      -4.5700809150476507e-001 9.9724502544978014e-002
      -3.3666209909721628e-001 6.3205580197713732e-002
      -2.8758660772766245e-002 -4.6025651834771286e-001
      -8.4447024296886566e-002 -9.4652939002484560e-002
      3.0504802541472002e-003 1.8907426461958829e-001
      1.3001348971172683e-001 -6.6333817367201064e-001
      -9.6275172054574831e-001 -1.4895238334654506e-001
      6.8406716710793666e-002 -1.7604836294190820e-001
      5.0193716065975898e-002 2.5541105803646935e-001
      -3.0064056738269357e-001 2.3824208890045320e-001
      -1.2428973817112426e-001 4.6614768989770489e-001
      -4.4221260669506807e-001 -1.5989563086291411e-001
      -5.0305799829244699e-002 7.2928639545381285e-002
      -3.6344365393624445e-001 -2.1213427745734292e-001
      3.3378778298218736e-001 3.0559457097530416e-002
