<?xml version="1.0"?>
<opencv_storage>
<ann type_id="opencv-ml-ann-mlp">
  <layer_sizes type_id="opencv-matrix">
    <rows>1</rows>
    <cols>3</cols>
    <dt>i</dt>
    <data>
      140 40 54</data></layer_sizes>
  <activation_function>SIGMOID_SYM</activation_function>
  <f_param1>1.</f_param1>
  <f_param2>1.</f_param2>
  <min_val>-9.4999999999999996e-001</min_val>
  <max_val>9.4999999999999996e-001</max_val>
  <min_val1>-9.7999999999999998e-001</min_val1>
  <max_val1>9.7999999999999998e-001</max_val1>
  <training_params>
    <train_method>RPROP</train_method>
    <dw0>1.0000000000000001e-001</dw0>
    <dw_plus>1.2000000000000000e+000</dw_plus>
    <dw_minus>5.0000000000000000e-001</dw_minus>
    <dw_min>1.1920928955078125e-007</dw_min>
    <dw_max>50.</dw_max>
    <term_criteria><epsilon>9.9999997764825821e-003</epsilon>
      <iterations>1000</iterations></term_criteria></training_params>
  <input_scale>
    4.3952427144134019e+000 -2.2857807417297287e+000
    4.1547797893424736e+000 -2.4070911277231075e+000
    3.9417884012985480e+000 -2.3881838580403167e+000
    3.8515589197258637e+000 -2.4631589093314248e+000
    3.9521480352749654e+000 -2.7771646291488259e+000
    4.4530266037826287e+000 -3.3210784441688519e+000
    4.7970139984152205e+000 -3.7367472945338234e+000
    5.0352324435669011e+000 -3.8978964540419661e+000
    5.3957724775409659e+000 -4.2209462600546113e+000
    5.6050508412464799e+000 -4.4746458337587605e+000
    5.5744574675272771e+000 -4.4801122981158690e+000
    5.6768798075338296e+000 -4.6290766368319387e+000
    5.4558662864067076e+000 -4.3829765691168801e+000
    5.3057728183630530e+000 -4.0966093329231219e+000
    4.6674680219507341e+000 -3.4302339217860425e+000
    4.0057089935045038e+000 -2.7229714992265874e+000
    2.4434201304863401e+000 -1.1797886865688962e+000
    2.4997488678395858e+000 -1.1451742375982321e+000
    2.7573914790347791e+000 -1.0747697146775326e+000
    3.0543185840901543e+000 -1.0519341021693638e+000
    5.2090829563829102e+000 -3.5859023717093765e+000
    5.8649278862007401e+000 -4.4814256691233254e+000
    6.1557632612570066e+000 -4.7675019249912669e+000
    6.4014867101154440e+000 -4.8306129040916668e+000
    6.5561265329977534e+000 -4.8572932007049472e+000
    6.3831747715933549e+000 -4.7022886796775181e+000
    6.4338720985031941e+000 -4.8088377371355007e+000
    7.0394860511785442e+000 -5.3246471273290803e+000
    6.7967323292185604e+000 -5.1757478323665822e+000
    6.5780174127673439e+000 -5.1558374181290123e+000
    6.1419405875243687e+000 -4.8102756091696488e+000
    5.9578486761896290e+000 -4.6205224198011043e+000
    5.8331410760731552e+000 -4.2952175941943613e+000
    5.9310495516200366e+000 -4.4434627276813305e+000
    6.0596175723039023e+000 -4.6225115694700829e+000
    6.0252436580497033e+000 -4.5248100828696574e+000
    5.7180051805750516e+000 -4.3281855121239046e+000
    5.6089959653434063e+000 -4.2484223585799770e+000
    5.5567198710946286e+000 -4.1547093552849779e+000
    5.3698688662856915e+000 -3.6023327743191405e+000
    1.3688871195023959e-002 -4.8590906855837557e-001
    1.0733254874891322e-002 -6.5086763198414466e-001
    1.0677361831165072e-002 -8.5280285680825563e-001
    1.0528843846444796e-002 -1.1972547627466523e+000
    1.0162105802029619e-002 -1.2744293481934792e+000
    1.1211256650638386e-002 -1.6002613471147393e+000
    1.0698557202336138e-002 -1.2634108989658281e+000
    9.8281528174436177e-003 -8.9335357412594807e-001
    1.0072635633618196e-002 -7.1824472181428245e-001
    1.3277933305506705e-002 -5.1424190190945884e-001
    1.1931607274633660e-002 -5.5303599296182016e-001
    9.1372299221410720e-003 -7.3732624320211992e-001
    1.0437048195457325e-002 -1.0436698545601530e+000
    1.0711621384748831e-002 -1.2907952328981838e+000
    1.0141493494154750e-002 -1.2040135661839744e+000
    9.9468091724421153e-003 -1.4514135690731271e+000
    1.0723353794566187e-002 -1.4307190239250158e+000
    9.9573653158320664e-003 -9.7588434721608919e-001
    9.1549282787302538e-003 -7.8690595626628690e-001
    1.1307915400672556e-002 -5.8534562245533361e-001
    1.0811992220048545e-002 -5.6842645530075986e-001
    9.1932823372024609e-003 -6.9466258437583184e-001
    1.0996855429521710e-002 -9.1505994501231158e-001
    1.0359224752343736e-002 -1.0677246011386583e+000
    9.8074139596236159e-003 -1.1936090981990666e+000
    9.4551997089626916e-003 -1.2478844289259743e+000
    9.9296607753439868e-003 -1.1463435764285941e+000
    1.0888917919703306e-002 -9.0623338576117018e-001
    9.7087219507245182e-003 -6.9136426986710842e-001
    1.0898076565893398e-002 -5.6390244334651840e-001
    1.0956297106051959e-002 -5.4561717259162690e-001
    9.3019871119385967e-003 -7.1346396960748470e-001
    1.0434026350465747e-002 -1.0417029548747443e+000
    1.0329988013897014e-002 -1.3552182935082779e+000
    1.0081320453150022e-002 -1.4290567258433844e+000
    1.0035773232883270e-002 -1.3191410337199596e+000
    1.0085342417822265e-002 -1.2076521810506797e+000
    1.0399725889076634e-002 -9.8159389311910716e-001
    9.8833940697787750e-003 -6.7917707296682017e-001
    1.1388062592286663e-002 -5.2909663672069540e-001
    1.1418777499516650e-002 -5.2994029948133681e-001
    9.4457856086082054e-003 -7.3647065782895504e-001
    9.7441647932546109e-003 -1.0528268104256204e+000
    1.0156838457312549e-002 -1.3899641935397096e+000
    1.0464822465566114e-002 -1.5266545778786427e+000
    1.0914745410951446e-002 -1.6861133447883490e+000
    1.0583888436826233e-002 -1.5701960819654468e+000
    9.6294327151435800e-003 -1.1459992713203286e+000
    9.8091673383714547e-003 -7.6893931319365350e-001
    1.2021945499071519e-002 -5.1112398770089329e-001
    1.1191757694117522e-002 -5.3897592895263957e-001
    9.2475248077061589e-003 -7.5002537887626830e-001
    9.6985823194984805e-003 -1.0470854274294392e+000
    1.0774869879546340e-002 -1.3656064670829553e+000
    1.0640658797242651e-002 -1.3632430627077099e+000
    1.0233317695484249e-002 -1.4666041239960341e+000
    1.0600083901159754e-002 -1.5748138049069738e+000
    9.6442636767723276e-003 -1.1261091365364888e+000
    9.2461207014782835e-003 -8.0968604223272023e-001
    1.1254394715816114e-002 -5.6003809818892158e-001
    1.0766103335306896e-002 -6.0950211143501254e-001
    9.2863874463751592e-003 -7.7513724896299052e-001
    1.0349774742613655e-002 -1.0832070778358232e+000
    1.0377932121951908e-002 -1.1761091442074869e+000
    1.0430847753333691e-002 -1.0643177531093133e+000
    1.0151333147673637e-002 -1.1116687521419537e+000
    9.8603881747961926e-003 -1.1355550050044811e+000
    9.8341987319340053e-003 -9.6016454646005400e-001
    9.2168945509692960e-003 -8.1139163450101270e-001
    1.0634803860261999e-002 -6.1711700407050474e-001
    1.0260858391915154e-002 -6.9452862977135243e-001
    8.9642420099306872e-003 -8.8669041559451334e-001
    9.9354102120553060e-003 -1.1559067597002786e+000
    9.8587428915239798e-003 -1.2119194104001421e+000
    1.0393994277256043e-002 -1.1934290213116749e+000
    9.9682684942550993e-003 -1.2201361004174156e+000
    9.8138770566717545e-003 -1.1331041626609573e+000
    9.8851558609834682e-003 -9.3729325836643340e-001
    8.9888447255896051e-003 -8.2498999567116749e-001
    1.0671491671112195e-002 -6.4137541838904344e-001
    1.0687729499141280e-002 -6.5405503079795158e-001
    8.6807701580503827e-003 -8.7252645578554644e-001
    1.0252234889717046e-002 -1.2985820735186324e+000
    1.1524550090688737e-002 -1.4357089531529583e+000
    1.1423086249026883e-002 -1.3430641038386850e+000
    1.1247362364886541e-002 -1.3611851834911810e+000
    1.0819800410912002e-002 -1.3157384760994799e+000
    9.0826823042095446e-003 -1.0551619796968661e+000
    8.7228113480626191e-003 -8.4480500961357896e-001
    1.2046148118677068e-002 -5.7939551114531429e-001
    1.1869744727848750e-002 -5.1992762490691247e-001
    1.0098111760903640e-002 -6.9032095922622971e-001
    1.0391318884970130e-002 -9.3874339323894740e-001
    1.0224869863371901e-002 -1.0287469359771606e+000
    1.0276945217979913e-002 -1.2532536728720127e+000
    9.9580109046045803e-003 -1.1929972285123198e+000
    1.0174035555355513e-002 -1.0750649446503677e+000
    1.0160333548850880e-002 -9.2136525544541803e-001
    1.0459638601951633e-002 -6.6599602557175364e-001
    1.3488848470256075e-002 -4.7611455138585185e-001</input_scale>
  <output_scale>
    5.2631578947368418e-001 4.9999999999999994e-001
    5.2631578947368418e-001 4.9999999999999994e-001
    5.2631578947368418e-001 4.9999999999999994e-001
    5.2631578947368418e-001 4.9999999999999994e-001
    5.2631578947368418e-001 4.9999999999999994e-001
    5.2631578947368418e-001 4.9999999999999994e-001
    5.2631578947368418e-001 4.9999999999999994e-001
    5.2631578947368418e-001 4.9999999999999994e-001
    5.2631578947368418e-001 4.9999999999999994e-001
    5.2631578947368418e-001 4.9999999999999994e-001
    5.2631578947368418e-001 4.9999999999999994e-001
    5.2631578947368418e-001 4.9999999999999994e-001
    5.2631578947368418e-001 4.9999999999999994e-001
    5.2631578947368418e-001 4.9999999999999994e-001
    5.2631578947368418e-001 4.9999999999999994e-001
    5.2631578947368418e-001 4.9999999999999994e-001
    5.2631578947368418e-001 4.9999999999999994e-001
    5.2631578947368418e-001 4.9999999999999994e-001
    5.2631578947368418e-001 4.9999999999999994e-001
    5.2631578947368418e-001 4.9999999999999994e-001
    5.2631578947368418e-001 4.9999999999999994e-001
    5.2631578947368418e-001 4.9999999999999994e-001
    5.2631578947368418e-001 4.9999999999999994e-001
    5.2631578947368418e-001 4.9999999999999994e-001
    5.2631578947368418e-001 4.9999999999999994e-001
    5.2631578947368418e-001 4.9999999999999994e-001
    5.2631578947368418e-001 4.9999999999999994e-001
    5.2631578947368418e-001 4.9999999999999994e-001
    5.2631578947368418e-001 4.9999999999999994e-001
    5.2631578947368418e-001 4.9999999999999994e-001
    5.2631578947368418e-001 4.9999999999999994e-001
    5.2631578947368418e-001 4.9999999999999994e-001
    5.2631578947368418e-001 4.9999999999999994e-001
    5.2631578947368418e-001 4.9999999999999994e-001
    5.2631578947368418e-001 4.9999999999999994e-001
    5.2631578947368418e-001 4.9999999999999994e-001
    5.2631578947368418e-001 4.9999999999999994e-001
    5.2631578947368418e-001 4.9999999999999994e-001
    5.2631578947368418e-001 4.9999999999999994e-001
    5.2631578947368418e-001 4.9999999999999994e-001
    5.2631578947368418e-001 4.9999999999999994e-001
    5.2631578947368418e-001 4.9999999999999994e-001
    5.2631578947368418e-001 4.9999999999999994e-001
    5.2631578947368418e-001 4.9999999999999994e-001
    5.2631578947368418e-001 4.9999999999999994e-001
    5.2631578947368418e-001 4.9999999999999994e-001
    5.2631578947368418e-001 4.9999999999999994e-001
    5.2631578947368418e-001 4.9999999999999994e-001
    5.2631578947368418e-001 4.9999999999999994e-001
    5.2631578947368418e-001 4.9999999999999994e-001
    5.2631578947368418e-001 4.9999999999999994e-001
    5.2631578947368418e-001 4.9999999999999994e-001
    5.2631578947368418e-001 4.9999999999999994e-001
    5.2631578947368418e-001 4.9999999999999994e-001</output_scale>
  <inv_output_scale>
    1.8999999999999999e+000 -9.4999999999999996e-001
    1.8999999999999999e+000 -9.4999999999999996e-001
    1.8999999999999999e+000 -9.4999999999999996e-001
    1.8999999999999999e+000 -9.4999999999999996e-001
    1.8999999999999999e+000 -9.4999999999999996e-001
    1.8999999999999999e+000 -9.4999999999999996e-001
    1.8999999999999999e+000 -9.4999999999999996e-001
    1.8999999999999999e+000 -9.4999999999999996e-001
    1.8999999999999999e+000 -9.4999999999999996e-001
    1.8999999999999999e+000 -9.4999999999999996e-001
    1.8999999999999999e+000 -9.4999999999999996e-001
    1.8999999999999999e+000 -9.4999999999999996e-001
    1.8999999999999999e+000 -9.4999999999999996e-001
    1.8999999999999999e+000 -9.4999999999999996e-001
    1.8999999999999999e+000 -9.4999999999999996e-001
    1.8999999999999999e+000 -9.4999999999999996e-001
    1.8999999999999999e+000 -9.4999999999999996e-001
    1.8999999999999999e+000 -9.4999999999999996e-001
    1.8999999999999999e+000 -9.4999999999999996e-001
    1.8999999999999999e+000 -9.4999999999999996e-001
    1.8999999999999999e+000 -9.4999999999999996e-001
    1.8999999999999999e+000 -9.4999999999999996e-001
    1.8999999999999999e+000 -9.4999999999999996e-001
    1.8999999999999999e+000 -9.4999999999999996e-001
    1.8999999999999999e+000 -9.4999999999999996e-001
    1.8999999999999999e+000 -9.4999999999999996e-001
    1.8999999999999999e+000 -9.4999999999999996e-001
    1.8999999999999999e+000 -9.4999999999999996e-001
    1.8999999999999999e+000 -9.4999999999999996e-001
    1.8999999999999999e+000 -9.4999999999999996e-001
    1.8999999999999999e+000 -9.4999999999999996e-001
    1.8999999999999999e+000 -9.4999999999999996e-001
    1.8999999999999999e+000 -9.4999999999999996e-001
    1.8999999999999999e+000 -9.4999999999999996e-001
    1.8999999999999999e+000 -9.4999999999999996e-001
    1.8999999999999999e+000 -9.4999999999999996e-001
    1.8999999999999999e+000 -9.4999999999999996e-001
    1.8999999999999999e+000 -9.4999999999999996e-001
    1.8999999999999999e+000 -9.4999999999999996e-001
    1.8999999999999999e+000 -9.4999999999999996e-001
    1.8999999999999999e+000 -9.4999999999999996e-001
    1.8999999999999999e+000 -9.4999999999999996e-001
    1.8999999999999999e+000 -9.4999999999999996e-001
    1.8999999999999999e+000 -9.4999999999999996e-001
    1.8999999999999999e+000 -9.4999999999999996e-001
    1.8999999999999999e+000 -9.4999999999999996e-001
    1.8999999999999999e+000 -9.4999999999999996e-001
    1.8999999999999999e+000 -9.4999999999999996e-001
    1.8999999999999999e+000 -9.4999999999999996e-001
    1.8999999999999999e+000 -9.4999999999999996e-001
    1.8999999999999999e+000 -9.4999999999999996e-001
    1.8999999999999999e+000 -9.4999999999999996e-001
    1.8999999999999999e+000 -9.4999999999999996e-001
    1.8999999999999999e+000 -9.4999999999999996e-001</inv_output_scale>
  <weights>
    <_>
      -2.0511254900601011e-001 -8.2638773075413965e-002
      -2.0038846684444844e-001 5.3090532399803984e-002
      5.3824016112237782e-001 2.0385128412223044e-001
      4.2925568876839043e-002 -2.5743549740500826e-001
      -1.1116941007062164e-001 -2.3369517062448808e-001
      -2.1196575960190214e-001 -6.3699011723860763e-002
      -1.2471150185945155e-001 -1.4778334125621259e-001
      2.8234103777567565e-001 2.1682628870511159e-001
      -2.3486121857391376e-001 1.6097010014336849e-001
      -1.7860556237704786e-002 -1.1712132602841142e-002
      -8.5215317952876304e-002 2.2047194558419378e-001
      8.5665798942771459e-002 -1.2890606065365368e-001
      2.6452067167689802e-002 -3.5448906231913752e-001
      3.0982088480292502e-001 -2.6921973953560480e-001
      -1.0275015450246353e-001 -1.1781113895704960e-001
      1.2856432534157369e-001 2.0159653104919575e-001
      -1.9188890697897587e-001 -4.8543718245525481e-002
      5.2879823239002732e-001 1.1385484394754626e-001
      4.1274917282542323e-001 4.7158444520409657e-003
      1.2961098490181958e-001 -7.5667881963588325e-003
      -1.9068012645331495e-001 -1.5848399954186537e-001
      -7.3280922153549033e-002 4.1397196813640631e-002
      1.5035664623115763e-001 1.9767142766244694e-001
      2.7090752749482225e-002 -1.9176072782515363e-001
      -1.0508941921634675e-001 -1.9282426814179990e-001
      -1.1639040485878277e-001 -9.5793062963144798e-002
      -1.5431967589115708e-001 -1.6094474799970654e-001
      1.5650399845426516e-001 -5.0551450587307638e-002
      -2.2360826028958217e-001 1.2648305989799238e-001
      -1.5144102352024841e-001 1.0890193037876474e-001
      -1.3594492268926045e-001 9.8273624729314224e-002
      8.4094527708952746e-002 1.5976904800567734e-001
      9.4261359011666934e-002 -9.7171344044614472e-002
      6.1465403711931113e-002 -2.6700631148782505e-001
      -3.1699049865546319e-001 -1.8026286532363861e-001
      1.3878479016819956e-001 -2.1167699897666110e-002
      -2.3081958012464154e-002 -3.7348755384808335e-002
      2.0479964533384079e-001 1.5169212550702543e-001
      -2.1445315874797918e-001 -1.4467179270642586e-001
      2.0455342036208673e-002 8.6091258395103922e-003
      -1.7861395559104565e-001 -8.8484291291152983e-002
      -1.9985620021302181e-001 3.7245689297042361e-002
      -9.9673975706945583e-002 1.8852355149639202e-001
      -4.6321859089279251e-002 -1.3980561515955894e-001
      -1.0304583180514910e-001 5.1937648972578097e-003
      -1.2410813567474892e-001 -1.5108393788741345e-001
      -1.1900107288372530e-001 1.6727426958523792e-001
      1.4584998375867148e-001 -4.2558379088629993e-002
      -2.2057534688518041e-001 2.7891321410045150e-001
      -5.2242396980182897e-002 -1.5575063752203008e-001
      8.4611751469406304e-002 2.8570691050647069e-002
      8.4107812381634992e-002 -1.1324251707963963e-001
      -5.9958904690486113e-002 -1.5198067194585455e-001
      1.2494990259721707e-001 -2.7330346919847720e-001
      -8.6090876270750460e-002 8.9910811787302813e-002
      1.3751261173890533e-001 -1.2610779564271169e-002
      -2.3237959846417369e-002 2.2127825831705283e-001
      2.4314513006973748e-001 3.8304927804840944e-001
      -2.9400060850040549e-001 -1.0914196938211415e-001
      -6.0466746648911031e-002 2.9776284189942546e-003
      -1.9862612826366882e-001 -7.8603414376728784e-002
      -1.7737032208645953e-001 1.8098197403939617e-001
      -9.0256354269515809e-002 2.0778601256408955e-001
      -4.1153784233632480e-002 -9.9186049742218008e-002
      1.9190168743313879e-001 -1.0994847677517613e-002
      -1.6083698716088610e-001 -5.7918178644776747e-002
      -2.5728761361963343e-001 1.2763845643655472e-001
      9.6701630615969175e-002 -5.2126846950808138e-002
      -5.3418328412655725e-001 1.7284381878825383e-001
      -4.9705431753003439e-002 1.1422971179418377e-001
      1.1532598509983658e-001 6.2392311851330942e-002
      7.9455814483213413e-002 2.2250664913223794e-001
      -6.1149254033280864e-002 -1.0265354582992944e-001
      9.6859491392867411e-002 -2.9284094830189739e-001
      -1.0407383272956564e-001 9.7070617634715875e-002
      1.4034395788833795e-001 -1.9416497021769842e-003
      -1.4431881546634745e-002 -1.5241802627689696e-001
      6.9175160073641484e-001 8.7506692083638316e-002
      -2.7879034523107277e-001 -1.0642989257686121e-001
      1.7196823016884594e-001 -8.8570166618288995e-003
      -1.4205595478452923e-001 -8.8879004957080482e-002
      -1.0202764118112009e-001 3.9660598875729919e-001
      1.5583079212990597e-001 -3.7280294744933801e-002
      -3.2408462555161485e-002 -2.9303794233752239e-001
      -6.0231304715490331e-003 3.8276107577108415e-001
      3.5167880926018420e-002 2.8963403101502738e-001
      -2.9509399752903920e-001 5.5523054351605853e-004
      3.8146268178889065e-001 -5.0478972322448655e-002
      -1.7012348000262736e-001 -1.5290872482934700e-002
      -7.4339859391947025e-002 -1.5974926700478051e-001
      3.4812497401860515e-001 3.6457681154475827e-002
      -2.5200508646823699e-001 2.1206555664718438e-001
      -5.4163485751091707e-002 -2.0486537256600720e-001
      -7.5361373696913744e-002 -5.8727753163657659e-001
      -9.3169876694711662e-002 -1.6956984821918021e-002
      -1.5742723087039368e-001 6.7141638217402475e-002
      3.5821352527670602e-002 -3.1625222892819199e-001
      -2.0669857738056294e-001 1.8794510113032944e-001
      -4.7575989148655329e-001 -1.7254776743164169e-001
      4.6650455112669864e-001 5.4935690335306342e-003
      -7.6602827798238071e-002 2.2920562853438234e-001
      -1.5717671229945279e-001 -8.2090883822739741e-002
      1.5297084320408738e-001 -1.0296691001868441e-001
      -2.0306133763864295e-001 -2.5464592958081145e-001
      1.2319091045085488e-002 3.0345038861837603e-001
      2.7683882208686651e-002 4.6569193067887993e-001
      -1.2411676648997352e-001 2.0344908708586232e-001
      -9.1988679137062809e-002 -1.6853164543532761e-001
      -3.9475861714216237e-001 2.9433087048178957e-001
      1.0695780457296496e-001 -4.5462067260128353e-001
      -7.9533728505901707e-002 1.0821638384607780e-001
      -3.5762940477084737e-001 -1.3343792396047682e-001
      6.5253287701053020e-001 1.1378976841172482e-001
      -1.5018342526316789e-002 9.1696968280094293e-001
      -3.0500801247146392e-001 -3.2477334157143095e-001
      -1.0146021250460008e-002 2.3340476898005133e-001
      3.0016357037144553e-001 -1.9597097761440921e-001
      -2.0380959221416819e-001 2.3190130811840640e-001
      8.4551617032168305e-002 -7.1357925985428672e-002
      1.4223233046026379e-001 3.0683006022969789e-001
      1.2882935199449160e-002 -2.2298923253285410e-001
      -3.1661903535710155e-002 -1.5540936318003201e-001
      2.4849859066929941e-001 -1.7243297638878555e-002
      -2.1408456968273099e-001 -1.4758244369045664e-001
      3.1814815051396506e-001 3.0189026698358955e-002
      -3.0288462410300254e-001 1.5364928315407214e-001
      2.8330706034917447e-001 -1.5419335468525022e-001
      2.6944464471369078e-001 1.7218782568411850e-001
      -7.9674422464619366e-002 9.9087528954169821e-002
      1.1789612635269452e-001 -9.1455182725792311e-002
      -7.7562480397238953e-002 3.4081248606336972e-001
      -5.4384000363516261e-001 9.4804383019079522e-002
      6.5092857256678904e-002 1.5884368119763898e-001
      2.3978296521462868e-003 -6.5082240292073723e-001
      1.1618678374942827e-001 -3.7717533091631540e-002
      -1.2398054718971940e-001 3.2826092731404355e-001
      -1.4839196010057368e-001 2.5689070689211274e-001
      -4.8259363383857046e-001 -1.2416221501300297e-001
      -4.2356565902702065e-001 -2.2668386803225571e-001
      2.4767289086294458e-001 7.8395253962366407e-002
      -1.9675560127810374e-001 -1.5509257346298932e-001
      1.2046044828807836e-001 -2.9240120837472622e-001
      -2.9628159621223803e-002 1.7966495101621616e-001
      4.3125738928518598e-001 8.5101703185279029e-003
      4.0537384469266680e-001 -1.5834548537934964e-001
      -3.9024124434019092e-001 2.7907968907059555e-001
      -8.1667185924856223e-002 5.9139280172499885e-002
      -1.6335756370149848e-001 1.0488582811285746e-001
      -3.5458985646069374e-001 -2.6920740420260877e-002
      -2.6349775621770383e-001 2.0674577630277972e-002
      -4.0919099427766656e-002 1.9853559018600547e-001
      2.0832867635289481e-001 -4.2986568812092946e-001
      1.4176105032315833e-001 -3.6601673059367812e-001
      -3.2527409119797762e-002 -1.1902449644071084e-002
      1.2014625570374517e-001 4.5690559631628110e-002
      -6.3394391475275660e-002 -3.1330572053400479e-002
      1.2857352558418131e-001 -3.5570523358496128e-002
      -7.6667449726840836e-002 9.9351185893136254e-003
      -4.3337568034835877e-001 -4.0478206097860868e-002
      1.4867469161464564e-001 -4.0871092083624321e-002
      -1.8552446814292278e-001 -2.4067202352488007e-001
      1.4526868884460334e-001 -2.5477066462015241e-001
      -5.3994725375956620e-002 3.8882107602857685e-001
      2.4649034913079765e-001 4.3404665271804067e-002
      1.4593455700037281e-001 4.1969378792744039e-002
      6.0716120149252140e-001 -4.4643459473808420e-002
      1.0460171433885264e-001 8.5439329428182165e-002
      1.1365317160124992e-001 1.3467560712597859e-001
      -1.3571015966797162e-001 5.9314645714512934e-002
      -7.8594600679736715e-001 -9.5199808346711989e-002
      4.0912157862619225e-001 1.2366350317267526e-001
      -1.9335494029125383e-001 -1.4530417653867331e-001
      5.6672004422271390e-002 -4.4451305586853357e-001
      4.0356302229104246e-001 1.2409098454631648e-001
      3.0319560525956690e-001 5.5607777710823196e-002
      1.8472773483318100e-003 1.1029058763953395e-002
      1.2247784006304492e-001 -6.7541522549116064e-004
      1.2543035685277015e-001 1.9446842996180994e-001
      -1.2603596314157334e-001 -1.1790325701901481e-001
      1.0044210816306059e-001 -4.0495611001180210e-001
      -1.0250181183955695e-001 1.3937414834351538e-002
      -6.9477579469011980e-002 -5.5401866743288411e-002
      -2.3184897212596783e-001 -2.7475839408844915e-002
      -5.5890750149950076e-003 8.4494496610992093e-002
      -4.5881272161395359e-001 -1.7502172209107041e-002
      3.2703328528407122e-001 -3.4229315231962293e-002
      1.3814024995977689e-001 2.2327384489403349e-001
      -2.4617855288485999e-001 1.7422379985425468e-001
      6.5712108228234548e-002 -4.9772292121603307e-002
      -2.9863004226255735e-001 -1.0133184336654530e-001
      9.3456619347911607e-002 2.1175788365515000e-001
      -8.2623805887972093e-002 6.2916311411564785e-002
      1.4077758450632527e-001 7.1540680433953244e-002
      6.7433113144333201e-002 4.4171110283123094e-001
      1.0258018951341011e-001 -1.5085917912345773e-001
      2.4570386010825649e-002 2.4300358077311176e-002
      1.2307155859774145e-001 5.8600248018519582e-002
      -6.2206767972161614e-001 1.2550731339940505e-001
      4.5595590011650561e-002 -5.7474260161402460e-002
      6.1617755655872485e-002 -1.6225487123021208e-002
      -1.0762107328344375e-001 4.2876037558478908e-002
      -7.4460894520739326e-002 -5.1173522877456364e-002
      -1.7202712858889058e-001 -1.1305229893445705e-001
      -8.0099737935774799e-003 8.8821909507522245e-001
      -6.1007132388273544e-002 5.9744094240871376e-002
      5.4735491391684121e-001 -4.5454008387691563e-002
      2.3779627915889490e-001 7.9679128714898767e-002
      -3.6576170692915372e-001 -1.4927765406215712e-001
      1.4582975496779979e-001 3.5543702374725111e-001
      -1.0398745831757914e+000 -1.0492039536670462e-001
      -1.9891760263442823e-001 1.5361457075434817e-001
      -8.9125305254137185e-002 -9.3115616479678559e-002
      -9.5612487394453730e-002 3.4085725677994355e-001
      -3.7351213154003882e-001 1.0978531653954637e-001
      9.2548982147400727e-001 -1.9350994546756020e-001
      -7.5199492775485195e-003 1.0991221629310280e-002
      1.2403512731970541e-001 -1.2750853731064418e-001
      -6.6254285137930558e-001 -1.7056743159191670e-001
      1.7818436648597477e-001 -3.5768220909959465e-002
      -9.3806847909187183e-002 1.0391509162606252e-002
      -1.3280032955800494e-001 -1.0395033971030074e-001
      5.6593461267524037e-001 6.8178666760428996e-002
      -1.1946316065521079e-001 1.0452577375149232e-001
      9.4386792591252558e-002 5.6325507554730525e-001
      1.9068028417286290e-001 -3.2511165737970421e-001
      7.0934277105708821e-001 -4.1839472039091469e-002
      -3.9724592149453626e-002 -1.7642138401578394e-002
      2.9084494636517777e-001 -1.9815893225857770e-001
      1.0446870094188142e-001 -5.0661217437326456e-001
      -3.3143761742495031e-001 -6.3881866445202884e-002
      -2.7170379929508631e-001 1.5888557232824219e-001
      1.7604900923601823e-002 1.1793792739161658e-001
      1.5242074660001353e-001 1.3370418374845924e-001
      2.6874447610088278e-002 1.5069341785231982e-001
      1.9052961973898203e-001 -2.8007274319922382e-001
      8.0898278566467322e-002 3.0970776165324083e-002
      1.5911067515416921e-001 -1.4235724242533826e-001
      -1.9309098351465293e-001 -4.0049412982947685e-001
      2.5830499416019681e-001 -6.6633780682814087e-002
      3.9242219933524358e-001 2.5872080503679608e-003
      -1.4402297065569591e-001 -1.0155403264937821e-001
      9.5657812375713816e-002 8.7729078052256756e-002
      -1.9698266072783097e-003 1.8516537060182307e-002
      2.1806038646139403e-001 3.9524828757779090e-001
      3.8985414825007303e-001 -2.9440870056975887e-001
      5.1080698295945837e-001 2.5739821580952971e-001
      4.8048616191677262e-001 -3.4662863818219869e-001
      -1.4996820032691516e-001 1.3305677864550447e-001
      9.2780092895590693e-002 -2.3319969528210982e-001
      -3.0037446271012869e-001 -1.9619548639095602e-001
      -3.7892651140965161e-001 1.7256560791773340e-001
      4.5889832297625321e-001 2.0573222952931489e-002
      7.8783484414942886e-002 1.1251467277291098e-001
      9.5423401659777793e-002 -2.1964159675043729e-001
      8.3818004475384544e-001 -7.3467241681196294e-001
      -6.0140283639373827e-002 -2.7542585124771457e-001
      1.5338138828400774e-001 -1.3209945988785199e-001
      -1.1907380128615697e+000 3.8076082234777951e-002
      1.6143892523278730e-001 -3.6268706729717180e-002
      8.9896951204201339e-002 -9.9383716010881334e-002
      -1.5789663429584658e-001 -2.0315064410856046e-001
      1.2826007498896359e-002 4.6967292188167887e-003
      -5.2134310412512508e-001 -1.1251396631375030e-001
      -3.6838294617124118e-001 4.7024773052868163e-001
      -9.1124069089101353e-002 2.5627416791070484e-001
      4.7548855383410860e-001 1.4399872595252397e-001
      -1.2352475179156751e-001 -1.9439175400218604e-002
      -4.9363227365907425e-001 6.5147772595479256e-002
      1.9760942804117582e-002 2.4775207580376976e-001
      1.1291046016117952e+000 -2.7270505656763044e-001
      5.5948660451016721e-002 1.6698464144930830e-001
      5.9575746376320682e-002 3.7243383350338694e-002
      -2.4782135669033149e-002 1.0089378856085437e-001
      -1.8994041046083066e-001 8.8236916798206631e-003
      -2.5086213434580840e-001 -8.4088440730897537e-002
      -1.2636316039574702e-001 1.4938613599494732e-001
      6.6765799276392229e-002 -7.0381064140811453e-002
      5.6064724903337315e-001 -1.4843678260210365e+000
      -1.7801752124428849e-001 1.1903739924845086e-001
      6.5922721511670423e-001 -3.2081428166751018e-002
      -2.0283733310715191e-001 -2.0408688137155820e-001
      -1.6187751847316295e-001 1.2088658592946526e-001
      -3.5193033164499832e-001 -6.0607408116094511e-002
      -4.6632611896026153e-002 -3.3014314377340398e-001
      -1.6218989491676350e-001 8.6023419885390626e-002
      3.3412990254550606e-003 3.8150993816227687e-003
      -8.4649210761738503e-001 -4.2311468769123617e-001
      -4.0695859220320901e-002 -1.1343168482976118e-001
      -8.0822209544211876e-002 8.2611257125902038e-001
      1.5623295836826531e-002 -1.6548897728661510e-001
      -3.1991491875251583e-002 1.3488283837926646e-001
      2.1798770359589333e-002 -1.5026976689415092e-001
      -3.4694321171330339e-001 1.7725531332031380e-001
      -3.7024369788092149e-001 -4.2938723340483481e-001
      5.6447190853546124e-002 -4.0764474852449917e-001
      -1.4325912187206463e-001 8.0553377336023982e-002
      1.0755066708896489e-001 -1.3148188529869667e-001
      5.4641316313287981e-002 1.8613706758605283e-001
      -5.1627427108601820e-001 2.9381422828949233e-002
      -2.0666762779911213e-001 3.1877224598308818e-001
      2.4773730619419718e-002 -1.3536181360304184e-001
      -1.2141163032312090e-001 -3.2747652961384904e-002
      4.3536715773317684e-002 1.1721679100958938e-002
      1.8349868421050297e-001 2.0670461348819541e-001
      1.8461281143505140e-001 -1.8399579767526195e-001
      -4.0444771906060486e-003 -2.0526943349446290e-002
      -8.6240254082458695e-002 6.2465383572417585e-002
      1.6824698413525552e-001 -9.3629137544721762e-003
      -3.9793609054920970e-001 4.7321969380622282e-002
      -8.0953756901959509e-003 -1.6542823558088773e-001
      2.5385371915606925e-001 9.1101860360728593e-002
      9.2572960751563113e-002 -6.9817276067239517e-002
      -1.6019382732435954e-002 -6.2792917993976266e-002
      -3.3597527956844264e-001 -2.1049015038685771e-002
      -8.2900711758722309e-002 1.0516114902628812e-001
      1.5512428207676496e-001 7.6206830200717585e-002
      5.0738616213310460e-002 -1.7323905665126021e-001
      7.9320045556418334e-002 -4.6251553789035993e-001
      -1.6379174363268464e-001 -1.9876408937903595e-001
      1.6501533950709754e-001 -1.9923869155797952e-003
      1.1077117295574333e-001 -1.2539758912620583e-001
      -3.5120589808993308e-001 4.6106889709696364e-001
      -2.6714517316733294e-001 1.9488123672034005e-001
      1.8504203461158422e-001 1.8454495604804308e-001
      -1.1514759521072486e-001 -5.2759991638212944e-001
      -1.5745430799001714e-001 -1.9539935723240373e-001
      2.9152883066198038e-001 -1.5422765729430871e-001
      1.2005381427391357e-001 -4.1111508622052054e-002
      -4.0885635625622962e-001 4.4246504972410373e-002
      -2.2773181006549514e-002 2.6855314646021244e-001
      5.0990256928399968e-001 5.1900335465181358e-002
      8.9512211229671568e-002 -9.6850545382250297e-002
      5.4817364454769257e-002 -5.4489216298188578e-002
      -4.4877889964368545e-001 -1.5447581054968693e-002
      -5.2977654340142191e-002 1.1254589627706492e-001
      8.9947490017768306e-002 6.3657758856722063e-002
      2.6898145076546916e-002 -1.5910736493010305e-001
      4.3697161756723257e-001 -6.1902316681506775e-001
      -2.6511883695471489e-001 2.3170226986920317e-001
      6.4660049064390168e-001 6.2840129390806399e-003
      1.0656675918068809e-001 -1.0415646107503805e-001
      -3.4573102192041161e-001 1.0984990002078518e-001
      -9.3618276512141982e-002 2.0038860579574555e-001
      1.7293108763656259e-001 -4.5824695517669496e-002
      -1.1176207295665379e-001 -1.3589825647070641e-001
      -2.0389708378630542e-001 -2.7070713849204325e-001
      -6.8746064349710923e-001 -1.4291812128085449e-001
      -4.1790675706969052e-002 -3.5426493991084579e-002
      -1.3036512632734662e-001 2.4785664620666701e-002
      -1.7626393321106403e-002 2.7559821660112271e-001
      2.2366102192804635e-001 2.3948197831126262e-002
      7.9411322420965241e-002 -8.9621782067238670e-002
      5.7172280086511970e-002 -8.9679737412893604e-002
      -4.2608803718277444e-001 -1.5027071749381090e-002
      -5.2059788163943771e-002 1.0070323885968627e-001
      7.0436322708425231e-002 6.9050564032331924e-002
      -2.7677908563070983e-002 -1.6596078010634116e-001
      2.8147903838175642e-001 -1.4457844066006471e+000
      -1.8277536296701632e-001 2.3547458907003152e-001
      6.5153498808706700e-001 -2.8663084380254121e-003
      1.1416532384533842e-001 -1.1762716954758036e-001
      -2.3214609728813998e-001 1.4785650465998276e-001
      -9.3759078855285463e-002 1.8829804593730959e-001
      1.6177377097177317e-001 -4.3475970131971117e-002
      3.3742169369090351e-002 -1.2893957214968887e-001
      4.4996054526192381e-001 -2.9753969692346227e-001
      -6.0437276029302045e-001 -1.4741564718555453e-001
      -6.4508708636553294e-002 -2.0027886544764732e-002
      -1.1251979366550358e-001 4.6468252684065459e-002
      -3.4114242464402512e-002 -4.2592273901074555e-002
      2.1918945147087365e-001 4.2575667523441919e-002
      9.3681932266717838e-002 -5.8628196137242884e-002
      -1.5539912618929907e-001 -9.2789764659724827e-002
      -4.4294306387448784e-001 -3.0193009168728380e-001
      -4.7854810028388754e-002 9.8841082375221392e-002
      1.1123268967625857e-001 5.7909190803562154e-002
      -4.4293695375024880e-002 -1.5695410967846518e-001
      5.9700985930833972e-001 3.8416473051165662e-002
      -1.9038890315307538e-001 2.3321927066022674e-001
      6.5712500637228077e-001 -6.0647242828574368e-003
      9.8925914489153693e-002 -1.2341382158856866e-001
      -3.6837581442723205e-001 1.3662742761315744e-001
      -8.4549181235171050e-002 2.9502666333714234e-001
      1.6847232144768612e-001 -6.8408619707761770e-002
      2.3797100518954593e-002 -1.4521607254280661e-001
      -2.8459376064031809e-002 -3.2522195242818841e-001
      -1.1809554622845417e+000 -1.5960546710337178e-001
      1.1012670721286673e-001 -2.5410400377786819e-002
      -1.1681605593013389e-001 1.0695037140161094e-001
      -3.5272304415778825e-002 -3.8220202087087436e-002
      3.0787599814925870e-001 1.6807931258580950e-002
      9.5752643314539643e-002 -5.8588900735308841e-002
      -1.4993075888170596e-001 -9.1561078125056386e-002
      -4.3621572334783215e-001 -2.9052571768281099e-001
      -5.7282717718170569e-002 8.9619190332457466e-002
      8.3767962144963320e-002 6.8798444910416909e-002
      -3.7115090388934083e-002 -1.4595377105667051e-001
      5.5899034366850309e-001 -1.0938710693957170e-002
      -1.9390440505437886e-001 2.1394506401616564e-001
      6.4041891659051309e-001 -9.3728284269372405e-003
      8.0005343992311781e-002 -2.2062007114581672e-001
      -3.6269470850191290e-002 -1.8183457262955425e-002
      1.4284530710515830e-001 -1.5221550093556083e-001
      5.9687267847290681e-001 -1.5575214418882367e-002
      1.5291922989493212e-001 8.7955812722446628e-003
      -2.5726075438448548e-001 1.2580595759549257e-001
      1.1119683279569484e-001 -1.9020888509527761e-001
      3.7375215946563245e-001 1.1915998435219391e-003
      2.0986186531623219e-001 -2.3507675962815469e-001
      -8.7226009454748676e-002 3.5042633951171676e-001
      8.6219531452457532e-002 -4.8345184366361743e-001
      -2.9528403805050937e-002 -7.9362321796586505e-002
      1.5611763899290714e-002 5.0939707870255591e-001
      -1.1152527552652743e-001 2.1724661540454057e-001
      2.7423692071074701e-001 -2.9974474621584347e-004
      6.8244013460246292e-002 -9.3881522793165506e-001
      3.6046534268617753e-001 1.7471133032885267e-001
      -6.5727271297335388e-001 -4.6014018380057989e-002
      1.1694956505909332e-001 -1.9475352743139294e-002
      -5.9882520749332180e-001 -5.0161947223197490e-003
      2.6659403490215455e-001 -4.5229310586108784e-001
      6.5258865380222353e-002 -6.8660647571577166e-002
      1.5282542675534266e-001 -2.1434248266850434e-001
      7.3701118061490878e-002 3.3740383629042581e-001
      3.6146194423227340e-001 -1.8329470609959148e-001
      -1.3046922194143305e-002 -7.8945462240056261e-002
      9.4281850609619577e-001 2.2092985695111377e-002
      2.1314729085024053e-001 -9.1345282947024459e-004
      9.1976717464948093e-002 -6.6102740327114606e-001
      -1.4927660830764811e-001 -3.1856798446171264e-001
      -5.7203805777134620e-001 -1.3088931251210315e-001
      1.0982607221383404e-001 1.6907934109849609e-001
      5.8386283981039866e-003 -1.0468725898495948e-001
      -4.9883381810116739e-001 -8.1108482848054643e-003
      -8.3727768330608091e-002 -5.8967792851092504e-001
      3.0405182661578579e-002 9.7800237049383787e-002
      -7.5453698050862467e-002 1.4369197747804310e-001
      -9.1914685525059631e-002 3.1202559116021422e-001
      1.9737644397508100e-001 -8.6550913312576069e-002
      -3.9103936721384019e-001 3.9148169558719095e-002
      3.2904446947176029e-003 -5.4335120474529119e-001
      -3.8687600466833111e-001 5.8838903518233190e-002
      1.2454043734215890e-001 -2.1817091295420024e-001
      -1.4526931915419047e-001 -4.4555174590435842e-002
      3.4509568548979817e-002 1.3220186946045806e-002
      -1.4716648411699645e-001 -9.8534922545631010e-002
      8.6203421747979930e-002 -2.9779891584683799e-001
      3.2307738815868120e-001 -3.0471987974216230e-001
      2.2743595358608085e-001 -1.2966156865798684e+000
      5.2509494194542650e-001 -4.3785687499143300e-001
      -3.1411777991026274e-001 -2.7260776011044047e-001
      -2.2383010343441520e-001 -2.2261626009031624e-001
      -1.6984882701852239e-001 2.4058939887493402e-001
      -3.4678500015480712e-001 6.5043222811194609e-003
      -8.7151494958012637e-002 7.3011683613750044e-004
      -5.6921227249301383e-002 1.7311176628913463e-001
      5.2874927308513689e-002 2.6705869927338499e-001
      -9.0008807048405678e-002 2.1223507856392104e-001
      1.1681525994721806e-001 -3.1525876741559197e-002
      -2.6356504679075526e-001 -4.7036306722682758e-001
      -7.5610464764793578e-002 -2.3991830958319554e-002
      -1.1009440859606241e-001 1.2144013270344337e-001
      4.6813779407466133e-001 -3.6347170729338026e-003
      -1.0517086755717241e-002 -1.7878157802698297e-001
      -1.6526087605039844e-001 1.0579852378192700e-002
      6.5907068700676863e-002 4.9336711308916631e-001
      8.8414028785355625e-001 -1.7751372206230745e-001
      4.3397584629503394e-001 -2.6140619616220157e-001
      1.2120602027804481e-001 1.2828143939365488e-001
      4.2407156251768452e-001 -3.6697587302052126e-001
      -1.7457158106752163e-002 -6.4200217234713156e-002
      -3.5556542371217148e-001 -1.6567579695561929e-001
      1.3712244752725836e-001 1.7575085106662999e-001
      -6.2869229705893037e-002 7.4100508552009245e-003
      -8.8123983685965956e-001 -1.3092116699104472e-001
      -2.3514185440809823e-001 1.2763836843879182e-002
      -1.4460595755041734e-002 1.7652702381798810e-001
      -8.9832203004452493e-001 1.6772235673425695e-001
      5.2276248901282546e-002 3.1718417536645882e-001
      -2.8199982423466158e-001 -1.4037991803458619e-001
      -4.9468379884955130e-002 1.0764526987932271e-001
      2.4217169353248039e-001 -1.9068974961778792e-001
      2.8673505075763145e-001 -7.6765893282327385e-002
      -1.6346356382579735e-001 -7.2211844777710560e-002
      -1.2338244782677692e-001 3.9009477999532827e-001
      -7.8285060989191746e-002 3.9940906774777718e-001
      2.7942413444384112e-001 -1.4156383342890339e-002
      1.0739924061798065e-002 5.0798276215862068e-002
      1.5619925402225621e-001 1.0236061394207531e-001
      4.9717141040431602e-002 -2.6864805591949614e-001
      1.2449012309167566e-001 -1.8210819711193139e-003
      -1.4291618988703383e-001 -3.9608152417636372e-001
      1.3801487610505753e-001 2.7004545911414368e-001
      2.0246862698315743e-001 -4.5048757376011922e-001
      8.3926258088915268e-002 -1.3131395003694868e-002
      -2.3696997578397760e-001 -1.9934105169366129e-002
      -8.0368423912560702e-002 -1.2387886688088959e-001
      -6.9215800933970950e-001 2.8176332333624093e-001
      1.1399742991353078e-001 -2.7020362947127258e-002
      -8.8926445776074337e-002 -1.4265794521192537e-001
      2.3846678772071447e-001 6.6493624596493259e-002
      5.5815597077846357e-001 -6.3372732635097045e-002
      -5.1923471123772685e-002 -1.6044112035487679e-001
      -1.3178710604890354e-001 -1.8052898776971951e-001
      -1.8751055886206400e-001 1.0564110465785811e-001
      -1.3163063024169303e-001 -1.8739779569375500e-001
      5.1829016291084562e-001 1.7603232131690147e-001
      1.7846656642179726e-001 7.9279383669959916e-002
      5.0637573522770696e-001 3.3800598097144313e-001
      -8.4338544917767133e-001 2.4542698744782329e-001
      -5.0896816760223418e-001 6.6533594841974308e-001
      -4.2352196206865939e-001 4.5327971135839043e-002
      -1.5717983329149549e-001 7.3491638897523068e-002
      7.3838787647175899e-002 -4.0008249156707426e-001
      -1.0364893632762404e-001 3.8967345168266720e-001
      1.1774067504445049e-001 1.2788073679108345e-002
      -8.7821276151411706e-002 -6.9179739169371902e-003
      1.7958191443027006e-002 7.5639603767209407e-002
      1.6569683215858844e-001 6.0179764278789127e-002
      -1.3364850307235562e-001 1.7138465738422665e-002
      3.0868646397180299e-001 -4.6737983782138108e-002
      -8.4290560962004310e-002 -1.7171408219080048e-001
      -6.0958586616391697e-002 -1.2698057548052805e-001
      -1.8478029275834550e-002 -2.1710458498375351e-001
      -7.0360183251600233e-002 1.5757262669614272e-001
      -8.3455662787382923e-002 -1.4157592905615357e-001
      1.0487505409780870e-001 2.4331238075899175e-001
      7.4146643464918963e-002 2.4513841464465475e-002
      3.4505981065020641e-001 4.4370515043281133e-001
      1.8547511844972789e-001 -2.8369359149190285e-002
      -3.1085319364614498e-002 4.8447670456312319e-001
      3.1943632088943591e-001 -5.4890286068060157e-001
      -6.3697310171197494e-002 3.4922181732069119e-001
      6.0520356426759604e-002 -3.9149016622324340e-001
      -1.7613506182395311e-001 -5.5872397224673589e-002
      -1.9053828331531311e-001 -2.0791297712118459e-001
      -3.6835109665192783e-001 1.8467000734919144e-002
      -6.0766422424625355e-001 1.0489966325513517e-001
      1.5116617770078100e-001 -2.1945646306781457e-002
      -1.0081784792469176e-001 1.9829849706292299e-001
      2.4301528727294949e-001 -2.0034960790559750e-001
      1.4883240303898289e-002 -1.7417211090870907e-001
      2.4729943012430014e-001 -8.1205264875061656e-001
      1.7294990791443098e-003 -1.5726676590917565e-001
      -6.0823776615786869e-002 -1.2819500927817490e-001
      4.1945387632238862e-001 -7.1924290296858284e-001
      1.6292556719870377e+000 -3.6770899030096138e-001
      6.6631157171784014e-002 3.9816052855505275e-002
      2.2871904170933620e-002 1.6862169711823202e-001
      2.2400735661669025e-001 -1.5567115431591949e-002
      -1.3545314993813676e-001 3.2173125691672677e-001
      1.4942077724179675e-001 -2.5749438174720279e-001
      1.3172375837882219e-001 2.4598376278843984e-001
      8.3378504750038190e-002 3.2961093020068062e-002
      -4.5370075796891551e-001 6.4320496650700365e-001
      -2.3590578789966524e-001 2.3735240834640600e-001
      7.3893460761680074e-002 -4.1486226621594002e-001
      -3.9816445691842778e-001 3.8848416696547605e-001
      -1.2143087961142150e-001 -1.1322255813853470e-001
      -4.2225097642190101e-001 3.2224687347284946e-002
      1.5840103535852845e-001 -4.8311861534523166e-002
      -5.3019623265593487e-002 -4.4103609026877050e-001
      -1.6651398311807723e-002 -1.3393114385563148e-001
      -3.7412546554574588e-001 -1.3946756432510676e-001
      -1.1466065865199396e-002 1.9525880188101816e-001
      -2.9866407855415567e-001 -6.1708613175970994e-001
      -1.2345436078810745e-001 -1.0496303158599299e-002
      1.0362501940872518e-002 3.4753957892484366e-002
      8.8043076612710036e-001 2.0826381493006263e-001
      4.6417375749561574e-001 -3.5808836153354222e-002
      -3.4475502208531178e-001 4.3382438734328704e-001
      3.9840647749649086e-002 1.6069472051427111e-001
      -7.0647618439740351e-002 2.1253916518274857e-001
      4.5261004705489973e-002 1.7621926397385904e-001
      9.9074405392639175e-001 -8.6241967153973409e-001
      6.3516903259769120e-001 -3.8447693114255477e-001
      2.7466826602425987e-001 -1.0616749400358422e-001
      5.0370674718741751e-002 7.3365304183943003e-001
      1.0540355179131709e-001 2.6888994908052000e-001
      -3.1666008384935029e-001 -3.6276643519928992e-001
      1.1870909746882018e-001 -3.5965478337572171e-001
      -8.3016325646639758e-002 2.8044855384873396e-001
      4.5284901936368044e-001 -4.2733203330979763e-001
      -1.1074243846164718e-001 -1.6380158463592603e-001
      9.0112880077237972e-002 3.3053002728235786e-001
      5.3982628683003975e-001 -7.5159108202931413e-001
      -9.0680096860012160e-002 -4.5714871173852624e-002
      -9.1046645412881461e-002 -2.8989492985485515e-001
      2.2204472172134715e-001 3.2480758604978921e-001
      3.7004391439121714e-001 1.3931442470033107e-002
      -3.2072032546490209e-001 1.7266260405749459e-001
      -1.2903238164365927e-001 2.7738907773075966e-001
      -2.0356696292630688e-002 9.6648266829088503e-002
      2.5212654977576354e-002 1.0870345163696062e-001
      -1.1492712609959299e+000 2.0036893968245095e-002
      -1.4426366152174691e-001 -1.9819291199716543e-001
      -1.8383744281649939e-001 -2.0712813056229198e-002
      -3.7387404500661248e-001 4.0225005068785591e-001
      7.5547367994973316e-002 1.7905859404290522e-001
      4.8077220519939423e-001 -2.9321445199346813e-001
      2.3023394736669689e-001 4.4142434571150718e-002
      3.1097587583980162e-002 2.5581515966490037e-001
      -1.2456710146358931e-002 -6.2910641896257513e-001
      1.5453784906576265e-001 -1.7434378518621454e-001
      3.1507373273088513e-001 7.1544316162057836e-002
      4.3072143671615204e-001 -1.6071595600019364e+000
      6.3866414378153280e-001 1.0567148260325734e-001
      -4.1320506495511382e-002 -4.6659291653443721e-002
      2.8167557246771807e-001 7.4022228996763551e-001
      4.2541262172162898e-002 -3.5820228757862038e-001
      -4.7238377883759852e-001 9.0017706253325780e-002
      -3.2641083705354706e-001 -3.4253967788421588e-002
      -1.6063199032681619e-001 3.4186463769410164e-001
      1.2746191931911915e-001 3.9192451243934595e-001
      1.5596243692888440e-002 1.1328342416792880e+000
      -6.2658068574915793e-002 -1.6694724032966196e-001
      -1.4019212312209445e-001 -2.6004497119173314e-001
      -8.7250388055422778e-001 3.5141365712233785e-001
      1.2696731592702071e-001 -1.7953388460085293e-001
      -1.2698648587149930e-001 1.6101120860761396e-002
      -8.5516625609706257e-002 1.2677457373410458e-001
      1.9387161001109324e-001 -1.4073813417253486e-001
      -6.1583720966976195e-002 2.0102651176827413e-001
      -1.5541756697636910e-001 -1.1681082304227500e-001
      -1.3255062347990310e-002 4.9195577798737500e-001
      4.4176382519085483e-002 -2.4091239065340778e-001
      8.9180498390745641e-002 9.8404223685945078e-002
      -1.8914830317996065e-001 8.7556590580316798e-002
      7.3786948543544020e-002 3.0036140502172609e-001
      -4.8718131269662450e-002 6.2335397168720462e-002
      -7.2626045720033539e-001 -4.3803448784551946e-001
      -1.2799640032567725e-001 1.2841186520950307e-001
      7.9838367127744420e-002 5.8436548556206780e-001
      6.5837225730413271e-002 1.8472744729864832e-001
      1.5984131060763088e-001 -4.4902387475160635e-002
      -9.4004613946393312e-002 -1.2322726529118463e-001
      -5.5857293441843414e-001 -4.3085609382219357e-002
      -1.4809643821816867e-001 6.3437563677171530e-002
      1.6421842375673359e-001 -3.1668610483294897e-002
      -3.0796392427750935e-001 1.8066120426116682e-002
      -2.1849426570097627e-001 1.8045047441358605e-001
      4.0799063693592735e-001 -1.1363819446871448e-001
      5.8890025844969739e-002 4.1919544039854811e-001
      2.7671745590984974e-002 -1.2868475577751204e-001
      -9.1621618658368799e-003 2.0989185819752839e-002
      -3.7665639521936327e-003 5.1222927061287997e-002
      3.8405751480264073e-002 -1.0847888921223343e-001
      -5.5401380052852967e-001 2.8892382291421492e-001
      5.2443773186596328e-002 1.1462020759905725e-001
      -3.0560794341414910e-001 -2.7440287847496148e-001
      -9.9389753412841730e-002 -1.3489189266082843e-001
      -1.2521326486723022e-001 3.2694215003824667e-001
      1.3508628246003448e-001 1.2933002218639586e-001
      -5.0722382276272515e-002 -2.0734796382661666e-001
      2.1172298546609666e-001 -3.0828094658151661e-001
      -9.8062663840189335e-001 -2.3564691932783577e-001
      -4.4351991873953764e-002 -3.6560045503127699e-002
      -3.3990384846979205e-001 -2.7666725199273915e-003
      1.1499474294874068e-001 -3.8141201721736830e-002
      -1.6677142311837265e-001 2.1882410162357144e-001
      -1.0407669463175574e-001 -1.5245710001300608e-001
      3.9697215150260472e-002 -1.8161119860565436e-001
      -4.1457113169573186e-002 1.5258478118658006e-001
      1.5471743611174202e-001 1.9456247798699641e-001
      -1.3919553553219255e-001 1.3173115049303277e-001
      -4.7734859712622463e-001 -1.7456459994303822e-001
      1.5731346955140335e-001 -2.3198851116184674e-001
      -2.8440699892267618e-001 -8.7659171500987232e-003
      -1.2905170274293135e-001 -8.1342511491700520e-002
      3.1188794535889144e-002 7.7300476074597529e-002
      -8.4928564097062254e-001 7.7779613274386983e-002
      1.7944082347521562e-001 -1.3356852906382430e-001
      -1.2642564719323035e-001 6.1959502134568606e-002
      3.5198600974381294e-002 -1.0027833738397612e-001
      3.2977169716729970e-001 2.2301134220383786e-001
      -9.3615339561364377e-002 -2.5805798008091796e-001
      -8.0289407000250793e-002 -1.0475915576919666e-001
      -3.5946260117772966e-001 -5.2981734776992494e-002
      8.6612820431500454e-002 -5.8355661966653517e-002
      2.1087169756025348e-001 -1.4545562455212996e-001
      -1.0924030347552961e-001 1.1773326804072336e-001
      -4.5586939361145806e-001 -5.1186388752409862e-001
      -4.0306316531546336e-002 2.5044018036585719e-001
      2.4627478053462942e-001 -8.8369041732239514e-002
      -8.7120514317788375e-002 2.0332975753417629e-001
      -8.3628003482604713e-002 6.8563577223388505e-001
      -3.2440796882615996e-001 -1.0791340561353011e-001
      -1.3125210907836959e-001 8.6044662385798443e-002
      -1.0564313448835452e-001 -1.5389940057209889e-001
      3.8189565624674869e-002 -3.7817330719515402e-001
      -1.1238047975166132e-001 8.4360545533889761e-002
      2.5677298712488433e-001 -4.6954631663463774e-002
      7.8159337530532141e-002 -2.3150042421827596e-001
      -8.3407568003990656e-002 2.1659304111204286e-002
      2.4562495791527245e-001 -1.3227575557591323e-001
      -6.1347628907776675e-002 -3.4794361942700336e-001
      -1.7462701732641830e-001 -1.7427783187874990e-001
      -1.6032956717163258e-001 -2.5702927841359813e-001
      9.8602765154505875e-002 1.8881309619635696e-002
      2.7014047167481625e-002 -3.3253891176794302e-002
      -4.6329467148485147e-002 1.5263815638628511e-001
      -2.7835812204351940e-002 -1.5920934982416399e-001
      4.7959739744326609e-002 7.6404652656031732e-002
      -1.6756669470639540e-001 1.6823566534097587e-002
      -2.5750500788397057e-001 4.5420146641814804e-002
      -1.8444327420563386e-002 4.7773105273143890e-001
      -6.1683943442079403e-001 1.7839732161748914e-001
      -1.1849306240968678e-001 1.6767696075087446e-001
      -5.0000365875132380e-001 -2.9246925785997058e-001
      -1.8381013738037263e-001 5.0957636023407338e-001
      -2.1081528218964846e-001 -1.7088141669535825e-001
      2.7747682859054885e-002 1.3299413289184392e-001
      -3.8023130551537454e-001 -1.5871234532182855e-002
      -8.1938348903160523e-003 -1.0977653177492226e-001
      9.0981650399348094e-002 -1.9609746732512468e-002
      -4.1657707410018945e-002 -7.3397962669091643e-001
      -3.1759059248773025e-001 7.2475672533187860e-002
      4.8140213419451050e-001 -3.4816184124515800e-002
      1.0179113787660525e-001 1.7145788634865575e-001
      -1.1406144044812135e-001 1.9487100948839881e-001
      -8.8430240528785800e-002 1.8530751256601830e-001
      -3.0467753290479299e-001 7.9751578802617518e-001
      2.3509407155970573e-002 4.7654578370741954e-002
      -2.7719791658849635e-001 -1.3080321982721829e-001
      -5.7267009866498922e-002 -9.1725931819412285e-002
      8.2157367897889605e-002 -3.9612932563056209e-002
      -1.1241290294964909e-001 4.1313237542796546e-002
      2.2947166849695996e-001 5.1164010938965154e-001
      3.9950522095295884e-002 -1.4692164415706735e-001
      3.5694533494955033e-001 1.3016678910024071e-001
      -2.4237428966095578e-001 4.8749983738537472e-001
      3.4830156196170400e-002 -2.0202132577691215e-002
      -4.7468563659912399e-001 -3.2922684436300886e-001
      -1.9012183671091476e-002 -1.8941478178155799e-001
      8.7506431065984769e-002 1.5835465960049902e-001
      -6.6847651911277478e-002 -4.2101219280953006e-001
      -4.5115656714381974e-001 -1.2417383308982134e-001
      -2.6971947376297128e-001 -3.4594643293267219e-003
      1.4987445508881947e-001 -6.5210665010586671e-002
      -1.7520466942087634e-001 7.7659828814053283e-002
      -7.9475467627891528e-003 -3.4415911826529832e-001
      1.2998387189425328e-001 -4.7119809884841735e-001
      5.7006536122278362e-001 -1.3018804119666461e-001
      -2.3338576113161513e-001 -1.0114962256128193e-001
      7.2342100005620517e-004 -3.4210141854476117e-001
      3.9873847248531230e-001 4.3440265003731499e-001
      -1.1119669724659891e-001 2.7043009563642662e-001
      1.9481683348896234e-001 -6.8408870956671655e-002
      -9.2726163244626764e-002 -3.8202034041006289e-001
      5.9269205331076757e-001 -1.4818513434624442e-001
      3.0344247710525256e-003 -7.9803984691521523e-001
      -6.6784236536975849e-002 2.7117143611170141e-001
      -4.3234379013695096e-001 3.2741577952804204e-002
      7.9478761131346456e-002 -4.8978859367776025e-002
      -1.9704201856797228e-002 4.5731525110428461e-001
      9.5421610942181032e-002 -2.3191616523317576e-001
      -1.5570003630292412e-001 -1.6153174555817579e-001
      -7.6731772246722540e-001 3.6202187663255048e-001
      2.9712971276787636e-001 -2.9965453671715819e-001
      -1.1170031742205218e+000 -8.8962798216055558e-002
      2.8852068128820885e-001 -1.0351129852503026e-001
      8.9046316238790868e-001 -2.7501352047138999e-001
      3.0194195621358877e-001 -4.3928716763133591e-001
      -2.9267637499628924e-002 -2.4344435514660995e-001
      -1.2844583240087640e-001 4.0345499420352432e-001
      -1.5710694840199835e-001 8.6676039082202050e-001
      3.9603836030766566e-002 -6.5392411967841868e-001
      -5.5972051672907641e-001 2.9394499018554543e-003
      2.1132286820669668e-001 -1.1635493136352905e-001
      -5.6896358054266259e-002 -1.9057853268721245e-001
      -6.3051552132274702e-002 2.1092965833084992e-001
      -2.7074539702587369e-001 -8.9337487949193731e-002
      -1.2857270443817959e-001 -1.6700639060728877e-002
      -7.1998655549434876e-001 -7.2933042716520868e-001
      -1.6664141894108223e-001 2.5615163835091170e-001
      7.4874539538590953e-002 2.9857709889804341e-002
      -1.4350164672587545e-001 -2.8775634862061683e-001
      1.9720264673284396e-001 7.2154302701697745e-002
      4.7626219824188232e-001 -1.0380411594017172e+000
      -5.0745840910797568e-001 -1.4159426029702707e-001
      -6.5325693132187931e-002 -1.8971953990299106e-001
      5.8970043826708707e-001 -1.5873487345623058e-001
      2.1314418482372302e-001 5.0092343223596691e-001
      -9.9578819545764433e-002 -1.0134091821707732e-001
      3.3106806000882838e-002 -1.4758220176589792e-001
      -1.7466923542974563e-002 3.2254823683040212e-001
      1.0176919736537882e+000 6.0333508569558533e-002
      -7.7046897165491054e-002 2.8948525292586000e-002
      1.6574321126017727e-001 -5.9884712960643106e-002
      2.8263027758266385e-001 -3.4536887884007557e-002
      3.1568134579125031e-003 -1.0830096412900031e-001
      -2.0177571209279790e-001 1.9284905344486664e-001
      4.0173025141770902e-002 1.6888027278903643e-002
      -9.3436103634544176e-001 -4.6022363952445222e-001
      3.4603338566190561e-001 -1.1766047269071517e-001
      5.1902064252274649e-001 1.0881812963468886e-001
      -9.3787062388942619e-002 9.3797928924181956e-002
      -1.9922818064707301e-001 -4.7379549845167085e-001
      -2.0419831215960700e-002 -4.9592436917134809e-002
      -4.3260654780933638e-001 -3.0593349211190118e-001
      7.8841017605419159e-002 -6.8616360150280178e-002
      -2.4280073197596386e-001 3.5966407554939198e-002
      2.1426672773755268e-001 -3.9862237934839680e-002
      8.4737747501338459e-002 1.0961129394311776e-001
      -5.8423967795102366e-002 2.9948877817964847e-001
      -2.1047987779221750e-001 -5.8464851997920253e-001
      -6.3149144495452794e-002 4.0173149749168288e-002
      5.7724293962276307e-001 -9.3499155134975448e-002
      -1.9616135990791791e-001 8.4537197469354550e-002
      7.5183089622438415e-001 -4.2730385351479112e-002
      -2.5004486993111658e-001 -8.7359272643784763e-002
      -2.1272275310519687e-001 1.1068783343865722e+000
      3.5829313716194078e-001 -5.2887202873133832e-001
      -2.1095431607887979e-001 -1.6409220084783177e-001
      9.6274596004368149e-002 -8.8672404797869170e-002
      5.8563734573255317e-002 1.0843780019978926e-002
      3.8447112054426236e-001 1.8905894238321855e-001
      9.4416326709659965e-002 -9.2899047016774483e-002
      -7.2286033799075070e-002 1.5553022498196617e-001
      4.4927880348438748e-001 -2.1776352013270711e-001
      8.6569300583464986e-002 -4.2085424047416514e-001
      -2.6542835950340127e-001 2.2151042398758139e-001
      1.4497290043368716e-001 2.5122717441074738e-001
      -4.5273173743296910e-002 3.9322618537946892e-002
      2.7546041159123456e-004 1.8157235565834406e-001
      -1.7025480751603375e-001 4.6961246124261058e-001
      3.6304510821026599e-002 2.3440223965833965e-002
      1.3448787157507930e-001 -1.5449522398338181e-001
      -1.6490972408698457e-001 2.9737995245183368e-001
      7.5059812418804772e-001 -1.3181113556528012e-001
      1.2729330603605385e-001 8.1357817575255398e-002
      -2.6460384889024607e-001 1.9162444153066388e-001
      1.1131430850691085e-001 -7.6549381220546622e-002
      -1.0287036131646178e-001 1.5099652198746594e-002
      -2.2082850775888570e-002 4.7041345106896261e-002
      1.6296732620622545e-001 3.2010210968812625e-002
      4.9341490442232278e-001 4.8805793021154412e-002
      -5.6308027770461773e-003 -4.5348942989106286e-002
      -9.3998954054284128e-002 1.4075840407220946e-001
      3.5309570285972708e-001 -2.2833496359064773e-001
      1.0144978253315870e-001 -5.0520001256440761e-001
      6.3035604611817384e-002 2.5571723613090916e-002
      6.1220684438791077e-002 2.1875559534518932e-001
      1.6181063469350701e-001 -1.4273200309265785e-001
      -6.4329116606005354e-001 4.2583569668037155e-002
      3.0817180213814421e-002 1.9937140991822200e-001
      4.0347137322313015e-002 -3.2864197976067745e-002
      -2.8691287095871076e-001 -5.1470742379055578e-001
      -1.5946048210540356e-001 -2.3450724274620260e-005
      4.1550584985008848e-001 -1.5272929790656939e-001
      3.1884301989407610e-001 3.5722702614736541e-002
      -2.2668597856538897e-001 1.8650694872803678e-001
      1.2110380689265123e-001 -8.1523336537476926e-002
      -1.8978798594687282e-001 -1.2520961074568029e-001
      5.1723989848962648e-002 -8.8904715117640989e-002
      -1.1363063928501305e-001 1.1563849477273232e-001
      2.4534367333072901e-001 5.6962171223090059e-002
      -8.5330401008600204e-002 -5.1250147157345782e-001
      2.1421492592377295e-001 1.0766399981767674e-001
      7.3694085284551791e-002 1.4815947695411270e-002
      -7.7045424144994296e-002 4.6799063147367836e-001
      -5.6547224731571026e-002 -4.5226658305999068e-001
      -1.0403854059979099e-001 4.0373020755331757e-001
      -1.9148612385786212e-001 -2.7155324263315317e-001
      -1.8669452627261583e-002 -5.7877776959682314e-001
      -1.0302881588121351e-001 1.6044664477929332e-001
      2.6924707740159132e-001 3.7194939701727442e-001
      -1.2005577944914451e-001 -1.7530169776788421e-001
      -1.9088283166407771e-001 3.2822921848238235e-001
      3.6288946465393135e-001 -1.0199469750160445e-001
      6.8770354396690536e-001 4.2631051400522667e-002
      8.4261118589385620e-002 -1.6270975935696189e-001
      1.6733209367586058e-001 -1.3129235047184437e-001
      -3.6850217634879368e-001 1.4725096769790375e-001
      1.1975991873649429e-001 -1.5494693541495647e-001
      -7.4253403800904172e-002 7.4727831799731914e-001
      2.3737861631029551e-002 1.4090584585451697e-002
      -2.5282971699674854e-002 1.1041495731671793e+000
      8.3650608384053485e-002 1.3194622666310607e-001
      -3.9351361760823583e-001 1.2725973553311862e-001
      -3.9854920107738884e-001 -4.5798884407284035e-001
      2.0744476377128349e-001 -1.8305219080787169e-001
      -8.4689509303812457e-002 1.2122192966422526e-001
      -1.8397094215639415e-001 2.8648055901605976e-002
      1.1200660072310917e-001 -3.9816182803645450e-001
      -3.4197532678781933e-001 4.5521168957420877e-001
      1.9609916702536517e-002 6.3355070300404870e-001
      -8.3177262254203654e-001 -1.8327988031116091e-001
      3.8444500355101613e-001 -1.2978913909269224e-001
      1.0528175699445746e-001 -3.9868720146355743e-002
      2.0501030564786413e-001 9.3159818108689646e-002
      1.0121135806803134e+000 1.1486913610110189e-001
      -8.0689887405336141e-002 1.0501726589907762e-001
      -1.6732799934566378e-001 -3.1232835589328301e-001
      3.2879050418938982e-001 -3.2509989690476504e-001
      2.9427129248357708e-001 -9.1544419180766640e-002
      -5.4783410251492736e-003 2.6417359861826262e-001
      1.6578360852127172e+000 2.3694499465731600e-001
      6.1501456957412146e-002 -2.4891819671286886e-001
      2.4138222911774329e-001 6.6049034405392748e-001
      2.0354324190924847e-001 3.2436798921578480e-001
      -6.2450431064719292e-001 3.7890147024689053e-001
      2.3648545142559890e-001 1.8616533913754102e-001
      -1.3506545356564361e+000 3.1903865751636046e-001
      1.8459122847924079e-003 1.0607733248549603e-001
      5.5066251474480091e-002 2.1565061934522736e-001
      -1.7862931162675202e+000 -1.3062776698992457e-001
      -2.8602107844226565e-001 4.2777247031575505e-001
      2.0148373526362787e-002 -4.3858262992021441e-001
      -6.9275880727624362e-002 2.0900056442101522e-001
      2.4084392033879905e-003 4.1305319353407610e-001
      7.7078343165664920e-001 7.9327163239392234e-002
      -5.5099342829961873e-001 -4.3343473586799450e-002
      -7.4243786077252738e-001 8.7993720925605001e-001
      -3.0614223844535438e-001 -1.0541997088735196e-001
      -4.4313364077499522e-002 4.0767399233592141e-002
      -1.4626405574563711e-001 3.0080227065915843e-001
      -1.9614796260804002e-001 4.5504221446291883e-002
      3.0828680975494765e-001 -4.7539223787160814e-002
      -1.4796611787634892e-001 2.2540810543442996e-001
      -1.0945314736030214e-001 3.2205694337299196e-002
      -7.0370134406120732e-001 2.0537249147768091e-001
      6.6485200704861219e-002 -1.8493843115435754e-001
      5.5710631033176264e-003 -2.3137988010913391e-001
      -4.4646993701733173e-001 2.8587786092413241e-002
      1.1650222805291414e-001 3.4207329648263479e-001
      1.8305626989143273e-001 -1.8305518593434922e-001
      4.2941394535971172e-001 -3.6747927853744700e-004
      1.3106332874931662e-001 1.4522623503283238e-001
      1.0352246710936237e-001 -1.8221283143532458e-002
      2.1780773300189869e-002 -1.1420944680242091e-001
      1.7351604872127219e-001 1.6521091964314796e-001
      -1.4934512500724645e-001 -1.7834250848410088e-002
      1.9078864827018671e-001 -2.0578778123713076e-001
      -5.9901780105146407e-001 -1.0674731557803831e-002
      -8.8960250058542620e-002 5.6909475036861767e-001
      1.6305751604314062e-001 -2.2281763347661609e-001
      1.0828139324792758e-001 -3.8967585357072193e-001
      -1.3126997754972186e-001 -6.0966035557436460e-001
      -8.2637780957658302e-001 4.6592335383634966e-003
      1.2902411963494304e-001 -8.4611091250335280e-002
      8.5814294186094056e-002 1.5856144511462095e-001
      -1.1258998033107281e-001 2.8348656058529853e-001
      4.9975948073358778e-001 -2.5196943183978254e-001
      -2.3186955522534965e-002 -1.1769251568756020e-001
      -1.2070144884392152e-001 -1.6457547829090963e-001
      6.7472150251492113e-001 5.4560414189441020e-002
      1.4929298707775826e-001 5.5806789213584986e-002
      -1.2268280342610634e-001 -3.4809998373309886e-001
      9.6582347590379411e-002 -6.4039124684555332e-002
      7.5773454769859894e-001 -2.3220504559498081e-001
      8.3549025036645921e-002 -1.4924859050179964e-001
      7.1936255474715730e-002 -2.7658731038861106e-001
      -1.1320180137294796e-003 -2.8894012217243498e-001
      5.4125560405145330e-002 5.1343216120099448e-002
      -9.1937524896193324e-003 3.2795897602729968e-001
      1.4587183712090901e-001 -2.0837293378028138e-001
      1.4734891828339740e+000 1.0203461425295006e-002
      -2.1402976643705959e-001 5.5542361438091305e-002
      -2.2556772259514363e-001 -2.3501148258661793e-002
      1.0316550553549687e-001 -9.4632015029763331e-002
      -4.5862075087342380e-001 1.7586394826534271e-001
      1.0806302651624691e-001 3.9324520891706194e-001
      2.0339074224118409e-001 -2.6857887622735371e-001
      -2.3301754448921155e-002 -1.0915155901941773e-001
      -3.1676963424919674e-001 -2.0393535846731489e-001
      -8.7712095342175528e-002 2.2019824761330747e-001
      1.3257801183015200e-001 -3.8208013115372697e-001
      -9.9122998297407450e-002 -5.7600075675816410e-002
      7.6539616669729582e-002 -1.6141595283607077e-002
      -2.1435938997753690e-001 -5.6204637189510609e-001
      -3.9074135866899651e-001 -3.4455946494652986e-002
      1.2182799776919226e-001 -6.1491549507537636e-002
      -7.5115334869504377e-002 1.1447366905856626e-002
      -4.4870628011840974e-001 2.3817845777404874e-002
      1.5571202491012562e-001 3.8560118111637211e-002
      3.6837954826745922e-001 4.9216318121099278e-002
      1.2622277105236018e-001 8.7247200088376747e-002
      -2.5979159450961166e-002 2.8072369632003134e-002
      2.3055002928843471e-001 -2.6604047557643679e-001
      1.4237013513646091e-001 -2.5150757637516397e-001
      2.4006979702385431e-001 2.2083868631634446e-001
      1.6774131431323308e-001 4.3587231549217320e-001
      1.5946552523530597e-001 1.3713159498492014e-001
      1.2502426296311819e-001 -1.1375737229385299e-001
      -6.6298568260555427e-002 -4.0850265468765545e-001
      -1.4958323395083242e-001 1.1141426492610891e-001
      2.6900734006442711e-001 -1.0392525281917199e-001
      -1.2560708333166770e-001 -5.2450913872920654e-002
      4.3667134234143694e-002 2.9012148434128564e-002
      -1.2099624013916404e+000 -2.9557999328580642e-001
      -2.9327464345823906e-001 1.5332172318414461e-001
      -7.2806955653906505e-002 -2.3979030617747055e-001
      -8.7647732434155912e-002 2.8269522660242054e-002
      5.0057750827028166e-002 1.1307032017089583e-001
      7.5848848118851758e-002 5.1525281322994200e-002
      2.0031273537208050e-001 3.9821480832528157e-002
      3.7966272698488562e-001 4.2673852010634124e-002
      2.0835141590925865e-001 3.4813885140934447e-002
      3.5974720079407058e-001 -2.2913570084595006e-001
      1.1013311153755580e-001 -1.1346618889232395e-001
      -7.0311783122362845e-002 5.2858739566918521e-002
      5.5239760635417878e-001 -3.8592275847607577e-002
      -1.4883268732991690e-003 5.3949392853286127e-001
      -1.0845264553135357e-001 -6.4265971697592031e-002
      -4.2292554052246190e-001 -2.7487020413313684e-001
      -2.1779387003642112e-001 3.9470898199719127e-002
      4.0381809007923888e-002 -5.8350284813140432e-002
      8.3682149759726890e-002 3.7672603352775774e-001
      2.6900072792432150e-001 1.1922096447080967e-001
      5.1544020037978866e-002 -2.3114318414116061e-001
      -7.9934530866467263e-002 1.5904933242020661e-001
      6.6099476261218570e-001 -2.0003164492663542e-001
      2.0231358521501946e-001 9.9944760703820495e-002
      1.3817731429251823e-001 -3.0376793399085378e-001
      -2.5200419769596766e-002 7.9979965367729458e-002
      4.5464280573561316e-001 3.5448434737182927e-001
      8.1764434231652583e-002 1.3418342014391951e+000
      -2.0172860708759319e-001 1.3907621086703878e-001
      3.6220544695315167e-002 -8.2891930248197316e-003
      1.1708626710899060e-001 5.1247736154259683e-002
      -8.1772203585240316e-002 7.1098484636826650e-002
      1.4769321530040383e-001 1.0494500991692364e-001
      -6.0110436992009020e-002 -5.9050461079749383e-001
      -5.6657148855053276e-002 1.8999833108633589e-002
      -1.1172062613852245e-001 -1.5655003044980342e-001
      -1.5932487415687341e-001 -7.1776790885601283e-001
      -2.1802087484894705e-001 -6.3510203971746448e-002
      5.8054031293197340e-002 3.2273734814195082e-001
      6.5437290497650763e-002 -1.3936383164397365e-001
      2.8792369988700978e-001 7.5559947081469091e-003
      -2.7763957107914916e-001 -1.3230394790700439e-001
      4.6082780157494230e-002 -1.3296701569788555e-001
      2.3252126672575216e-001 -7.0847607933699777e-002
      -2.4675719079750341e-001 -2.0129603149415479e-001
      -6.6138785706651965e-002 -3.1955477933042778e-002
      -3.6800777936667567e-001 2.7040686555250160e-001
      -9.0292224632345514e-002 9.0874818523808365e-001
      -6.8656968646901206e-001 1.0635598406296713e-001
      3.7316076757050960e-002 -2.2930773574813476e-001
      2.6567517281381614e-001 -3.6030763908887931e-001
      6.0376639163317827e-002 -5.2744377704068224e-001
      1.5204044208070308e-001 1.3154108280592133e-001
      2.0915270058924268e-001 -3.7630310652613919e-001
      -2.6000908951488388e-001 -4.5383513251174970e-002
      -9.2363316537375811e-002 8.3507346262932602e-002
      -2.0364633628076188e-002 -2.2190510536888780e-001
      -4.0685125307959580e-001 -5.3836085281047788e-002
      2.4805215825946944e-001 2.0707882507820158e-001
      2.5582212807947557e-001 -2.5378598798007884e-001
      1.4955515328161254e-001 -7.9247609314864853e-002
      -1.9062490007212304e-001 -1.2103044583551412e-001
      4.6750556878729518e-002 2.8535505609913092e-001
      -2.3025167358596441e-001 -3.1831531229380861e-001
      8.5475932047223466e-002 -2.4605671781868069e-002
      -1.1462972562238052e-001 3.0158365596177877e-001
      -3.0951738982689003e-001 4.2552395074698318e-001
      -2.7531375192026791e-001 1.5885565427468546e+000
      -3.2226688574431417e-001 -1.2222696293152736e-001
      1.3038358640087211e-001 -4.2591233011447877e-002
      -4.5612012558298269e-002 -2.7060982495374925e-001
      9.4166580685301671e-001 -2.3473882125400028e-001
      1.6036338055190527e-001 1.5528609239387905e-001
      -7.6290986170617081e-002 -1.2188352894080608e-001
      2.6792411682891648e-001 -3.0348981147171109e-002
      9.1840648684910473e-002 1.5951216677356442e-001
      1.1133309359378356e+000 -5.9694325474394169e-002
      -7.0066488409486483e-001 -1.8187953916352334e-001
      -7.1397788855227573e-001 1.2643884763319471e-001
      2.6586417732190748e-001 3.0142689885445533e-002
      1.0283811832078590e-001 2.6168481926620024e-001
      -2.7546661602825728e-001 3.6883737885134351e-003
      1.3502944867815639e-001 6.2572787640317665e-002
      -2.3572234992268035e-001 -4.0716880780256537e-002
      3.7009208975853974e-001 -5.0791847640216663e-004
      -3.4887866034763647e-002 1.9465186735493151e-002
      -1.5458368011620241e-001 2.1004142712722831e-001
      -1.4528451282313606e+000 1.2090385470885094e+000
      -2.8021146941733149e-001 5.4810730517961516e-002
      -2.5517843944882568e-001 2.0326421309082503e-002
      -1.2895788375638162e-001 -4.0847006390546564e-001
      5.6034969170909676e-001 -1.4913130174593081e-001
      -5.1268119847455185e-001 4.7260700205507253e-002
      -2.5024198056216246e-001 4.8046042764121116e-001
      1.1554481672590232e-001 -1.9002772419393463e-001
      -5.4496071656547053e-002 -5.0541285484711471e-002
      2.8537652152051546e-001 -2.0536949001711054e-002
      -8.6994336688791496e-001 -2.2137760746071742e-002
      -2.7098638108237361e-001 -2.7801765992191779e-001
      2.5496273700585347e-002 5.1578721958818685e-001
      -6.1690677368810190e-002 -5.6741057126831940e-001
      5.7862959097476763e-001 -3.0130423631605681e-002
      1.8629111642147153e-001 5.6556540907517945e-002
      -7.7000662533367917e-002 -2.9605304471207693e-002
      -1.4652394575508685e-002 1.9820038214083407e-001
      6.8459073270997384e-001 2.2876869955259480e-002
      -1.4954954326399855e-001 -3.4205467108021297e-002
      1.3967833862931667e-001 -7.1730536400750569e-002
      8.1640803486957417e-002 -2.5242153149365515e-001
      -7.7825028486458780e-002 1.2945896543834207e-002
      -8.4127006738496324e-002 4.9141810633035599e-001
      -7.7453895822406515e-001 -6.6945689870551064e-002
      -2.5611996570531124e-002 -1.9507958254595933e-001
      -2.2884275092225251e-001 4.7088530139633883e-001
      1.2020371231047519e-001 3.2418470268413913e-001
      7.5136963214279359e-002 -1.8822826428535758e-001
      3.0028716416312373e-001 -2.5351228603025555e-001
      1.9747735967552899e-001 3.7033467321174468e-001
      -4.6953328447420145e-002 -3.2924520424580261e-001
      6.0717388299266140e-001 1.5285025306990840e-001
      -5.2532086742263751e-001 -6.1536929372498196e-002
      3.7311528803510502e-001 1.1692747671355982e-001
      -7.2844203689612724e-002 8.4267491237714709e-002
      3.7166191688320985e-002 4.7114281278530970e-002
      8.2982004953237626e-002 2.2529477540635157e-001
      7.9302304754027692e-002 -9.1360152144132428e-002
      -1.8840216977784993e-001 -1.4332970335127990e-001
      1.5059553175749263e-001 -6.8473302467719432e-001
      7.4239396070784142e-002 4.9931160200881244e-002
      -1.1583678707136102e-001 2.0994048227231973e-001
      -1.8485865575981553e-001 3.6006855760141271e-001
      2.8332383738862266e-001 -4.9811416672492920e-002
      9.5340237476162118e-002 -4.7740644154008492e-002
      9.1617452540877678e-002 4.5962212786359435e-001
      -2.3760555921148496e-001 -6.1758224861351563e-001
      1.6846468574119858e-001 2.2017128216311802e-001
      8.2357702927066248e-002 -1.6502869084622074e-001
      1.5280671584839561e-001 -6.1765184734096187e-002
      -5.3689637584533778e-001 -1.6894975087871265e-002
      1.1662279405765936e+000 1.1514420437259250e-001
      -3.6589758202448552e-001 -1.9623490621002312e-001
      4.3216981589018946e-002 9.5632063102192341e-002
      -1.1193929385512273e+000 2.2722130741175633e-001
      -1.0068786552818189e-001 -8.2374942547365715e-001
      -1.3317696686551334e-001 -2.8821159369390509e-001
      4.8356463427356076e-002 1.1146942594799951e+000
      4.3878572097099011e-001 -1.9193353290666421e-002
      -4.1059192423928487e-001 1.3185662164777628e-001
      -4.5497745159110708e-001 -4.3176928626528421e-001
      -1.0841292767514422e-001 -1.3484881022683984e-001
      1.3117123541185490e-002 3.3491908952807642e-001
      3.9664920061428813e-002 7.9273076974806378e-001
      -1.5858314074280823e-002 5.1607538639052453e-001
      -3.9585711468665803e-002 1.7498262676379953e-001
      -1.0960884443104750e-001 -4.5440618579449216e-001
      -1.3631865903751383e-002 -4.9405023732053417e-002
      -6.0076438826276857e-001 -1.1464404648083154e-001
      4.5113477328787638e-001 -8.0504308159867061e-002
      -3.8933150821023235e-002 2.3168861878978909e-002
      2.8040983286391923e-002 -5.2120202557100748e-001
      3.7564374052182087e-001 -2.5929298574145454e-001
      -4.3728977225223238e-002 -1.1313981613316959e-001
      -1.1746384932867693e-001 -9.9333140089753552e-002
      4.3113035550639348e-002 -1.6001802568410645e-001
      2.2750131576356616e-001 -1.8298196030718228e-001
      3.2698738076482226e-001 1.4244087166749714e-001
      3.9596720224692367e-001 8.1390795591540666e-001
      5.3753170766077676e-002 9.5510628922984234e-003
      -2.5549791320977533e-001 -6.3463891842983400e-002
      9.9504704814128930e-002 -2.2138944334764099e-001
      1.3214938554884072e-002 -5.2947362451128577e-001
      -2.5855627921156060e-001 1.1471698766085058e-001
      1.2438127848599508e-001 -2.2866085537260256e-001
      1.6173026974292484e-001 -9.4975789811797925e-002
      -2.7452094820019401e-001 -3.1298276343262176e-002
      4.5130880733425700e-002 5.9705417699970698e-001
      -1.6765243328888518e-001 -3.7328954841634329e-002
      -9.5938669296143142e-002 -4.6488524790209762e-002
      -1.0247233749175928e-001 -4.4215951392200803e-001
      -1.0391986195370474e-001 -1.4422645154361782e-001
      2.1999843406848471e-001 2.7583930789245252e-002
      9.1566133870260830e-002 -2.8358503588736012e-001
      6.5983201344804607e-002 -6.6291552211541649e-002
      8.4042310595273603e-002 -5.9856253820422214e-002
      -6.3226837776667669e-002 -1.9141591830019322e-001
      -1.5596548903442925e-001 -3.8036426974968306e-002
      6.9055973513576837e-003 6.3769115649145086e-002
      7.6189878478401485e-001 2.4898341621825440e-001
      -2.5352824213099623e-001 9.1032410007832770e-002
      3.0869963641312448e-002 -2.0971123254199406e-001
      6.9084604593660795e-002 -1.6687264760942985e-001
      -2.7747522615944275e-002 1.4271251214321959e-001
      1.5047098506143022e-001 -1.5578097387027331e-001
      1.5957849603516985e-001 1.3801712117313966e-001
      -5.2821221517906303e-002 -1.3740533865582227e-002
      -3.4019945632681625e-002 -7.1543054614171334e-002
      -5.4238960974563311e-001 -4.7253619965738569e-001
      -2.8688865980884470e-001 -4.3859011747091969e-001
      -1.4326238792839037e-002 -3.5334807993717895e-002
      -6.5329336096468571e-002 -5.5980729967267225e-002
      2.7343925844028805e-001 -4.0964833679322472e-002
      8.5353929603422599e-002 -1.3113492441308799e-001
      4.5708886554649469e-002 -1.3814366806511597e-001
      1.2296259195935190e-001 -5.7292182059336852e-002
      -1.0304073212730818e-002 -1.2167787755492845e-001
      -1.7962376836551863e-001 -6.1654348482734133e-003
      2.0655174315131083e-001 4.3457162469031155e-002
      6.7096441666358558e-002 7.9505737112226971e-001
      3.9919552513234535e-002 6.6136043418586601e-002
      -5.7249450733428547e-002 -6.2892461966832791e-003
      1.1020200987783808e-001 -1.0457783405107011e-001
      2.2478474233234016e-001 6.2118383284085109e-002
      6.1193421577051055e-001 -1.1536123561383062e-001
      -1.2365084011299197e-001 -7.4173977094637922e-001
      -2.6294841065298857e-001 4.1338664828682516e-002
      -3.4125339492512474e-001 -1.5464463864165376e-001
      -1.7035476209940195e-001 4.9443397236702651e-002
      1.2142279635813573e-001 -9.4903006241864596e-002
      2.1628094599810077e-001 3.5028283715506303e-001
      1.5290573002783416e+000 -1.6762326053477966e-001
      2.3686823681688573e-002 -2.3248336336996886e-001
      -1.5027936553625901e-001 1.7060473967148149e-001
      1.5848376713328647e+000 -8.8597302724741964e-002
      3.3105167533500279e-001 -1.6688626112970958e-001
      -2.8247099778523715e-001 -1.8187799780157571e-001
      -4.1304950345711279e-002 5.2000059434613916e-002
      -3.2728539767477655e-001 2.6965656216586564e-001
      -8.5824437569314738e-002 1.3282359135667599e+000
      -1.4365419287417858e-002 2.1291913707927518e-001
      6.3962231008507023e-002 1.1760277576088407e-003
      2.1702034715251906e-001 -1.1050240621982899e-001
      -6.5770463123863737e-004 6.0777251793382621e-002
      1.4938443539929372e-001 1.0587939573320665e-001
      -1.3358848967834885e-001 -4.7791380927174199e-001
      -7.3334518014129352e-002 -5.4865281780230563e-002
      -1.6108222034530978e-001 -4.5790554370871284e-001
      -1.7488942874032981e-001 -7.4047378773923345e-001
      -2.0332193509064683e-001 -7.0681462718465704e-002
      2.9825698929414846e-001 6.8788745522017780e-001
      7.8304945074658827e-001 -1.4462723187409304e-001
      1.7710444342058168e-001 2.5154561084049482e-002
      -2.6396289318508120e-001 -1.2744705776817966e-001
      1.4545144490437570e-001 -1.3878781283473737e-001
      3.3172457363611307e-001 -4.7755025242426676e-002
      -4.1353640845718931e-001 6.3795796752932367e-004
      -6.9243765041300587e-002 -3.1835503190681513e-002
      -3.7776206158978165e-001 2.7404263608781698e-001
      -1.0915997726723059e-001 -2.2343108099346251e-001
      1.9224576592835152e-001 -3.0966649816517183e-002
      -3.1607944206018986e-002 -5.0082574262557936e-005
      -1.2271795294657618e-001 -7.0644885309982058e-002
      -1.8020897691376417e-001 3.3676387776491096e-001
      3.0325966221728107e-001 -2.4395755307722911e-001
      1.0955866516299580e-001 -2.4926165432986255e-001
      -4.4119083573857248e-001 2.2516583436619299e-002
      -1.2088193167058743e-001 -4.9033339576206009e-002
      -1.4064874167071122e+000 9.4383492298651894e-002
      -1.5466933052531764e-002 -6.7162019386159108e-002
      7.9031548609782329e-002 4.3014219927933095e-001
      1.1727694098461931e-001 -2.9371350411036623e-001
      1.1342322432022697e-001 -3.0181592543481212e-002
      -7.4384790639272591e-001 -2.6899877472462513e-002
      5.6184085825371065e-002 -4.1399413631554735e-002
      6.3551919590275230e-002 2.7624821243410650e-002
      -7.8833718653166462e-002 3.8118981878130793e-002
      -8.3004067908126495e-003 -9.0863199313678381e-002
      -2.3040205362370306e-001 3.4973116880737154e-001
      -3.0097906725696504e-002 -3.1081859461356326e-001
      3.4057614168532813e-002 -8.7361830270670168e-002
      3.3442869763583333e-001 -4.8628982696147910e-001
      -3.7695820599901148e-001 2.3598919750863614e-001
      6.1744894475881618e-001 3.8564191368520767e-001
      -2.6025639573917031e-001 -3.8416418011441622e-001
      -2.0218469391223068e-001 5.4884802249058843e-003
      8.4122909305929028e-002 2.3392470676406729e-001
      2.1250852955132554e-001 -4.7939998341506002e-002
      -2.8709828594883241e-001 -1.2040065580056337e-001
      9.0885247292434435e-001 3.0323813962964430e-001
      1.9917329446851104e-001 3.2113506419990923e-001
      3.3835142591866557e-001 -6.1657998239873202e-001
      1.4872545619511587e-001 1.6133186687718615e-001
      -1.1561436000084955e+000 5.7932903321849728e-002
      6.4547794370772760e-001 1.0515669077854030e-001
      3.1225128719823469e-001 -6.9088724935886092e-001
      6.5809474999057690e-002 -3.9275761737490459e-003
      2.0943470367316686e-001 -6.6938749891945606e-002
      9.0887924515451357e-002 -1.0952399977030453e-001
      -3.5685018508973060e-001 -5.4384553403895075e-001
      1.0166147142435150e-001 6.2865413952891995e-003
      9.8145465032741061e-002 2.7984527752755084e-001
      -1.6989902763449671e-001 1.2914806120015751e-001
      -6.9576339597448994e-003 4.7784664285669398e-001
      -4.4644134271048665e-002 -1.4393294299964635e-001
      -2.3479360986871109e-001 1.3662403640087037e-001
      2.8819755219381249e-001 -2.0715590167883977e-003
      3.0660093194419302e-001 1.5392022958405464e-002
      -9.0452131000614888e-002 1.7820500218477292e-001
      6.1980866214045799e-003 4.4957754481064199e-001
      6.5553625189331249e-002 -9.5807265345237744e-002
      -1.0596130737062692e-003 5.7482198212413585e-002
      -1.2473212915556216e-001 3.4753007922046120e-001
      2.2642859447999714e-001 2.9864454467684265e-001
      -9.0244393970898243e-002 3.8178955784036114e-002
      1.5815716755511308e-001 -1.1308481836601986e-001
      4.8780029468674525e-002 1.0633332373240054e-001
      6.1595681505595107e-002 -4.9525967472142207e-001
      9.4160731402770176e-002 -2.6723352649638787e-001
      -5.8347112750405897e-002 -6.1114947716223222e-001
      1.1620556448705713e-001 -1.1360704457104796e-001
      2.5577046447691882e-003 2.0581981934759766e-001
      3.6941590124994367e-001 4.6558333357559256e-001
      1.1703516307671384e+000 -2.5128608248679957e-001
      -1.4930839982182087e-001 -1.1762343253259105e-001
      -4.1619529228232571e-001 1.2084240683910226e+000
      4.7815790401437175e-001 7.8901557984112206e-002
      2.0507890562898673e-001 -5.3966048545991858e-002
      1.0836307553633528e+000 1.0917221787014333e+000
      1.1233622375188899e-002 4.3415115355032319e-001
      -3.7741938513364735e-002 -6.8897062653971497e-001
      5.2726065881445505e-001 1.6510540196006282e-001
      -1.3114926286117229e-001 2.2032333648809305e-001
      9.9879516892891346e-002 -1.9187514537054168e-001
      6.6698580553319009e-001 1.3252406692385615e-001
      3.8572582065190930e-001 -4.9159662850701336e-002
      -6.1528878775569584e-001 -3.7881268325199430e-001
      4.8256834115592923e-001 -1.6475947552297210e-001
      -1.9457544980698810e-001 -3.6162548664027983e-001
      -3.8634148552427923e-002 -3.3725118749177907e-001
      1.3335228353388312e-001 2.4270118327538898e-001
      -3.7080828853330139e-002 -4.3354359434511335e-003
      1.0620251553463352e-001 5.8007323661860133e-001
      1.0123931566564994e+000 -3.0679949788107022e-002
      -1.7009988140394605e-001 -5.5374258701164081e-002
      -5.6973771143957608e-001 2.5798596025520187e-001
      1.4884233993002849e-001 8.9452884931650989e-002
      4.1624304924696230e-002 -6.5967010807737494e-002
      1.2884968342044856e-001 4.1616606402072565e-001
      -5.1988196122044805e-001 4.1640210299925673e-001
      -9.3832142847438169e-002 -2.8707969604607075e-001
      -6.6841604686117884e-002 1.9893688380214263e-002
      -2.9279887100065621e-001 1.4888606422216552e-001
      -1.6621180135080116e-001 1.1643066529755518e-001
      7.1068345580629266e-001 4.0319838992279894e-001
      -2.9897287561598795e-001 -2.5432928232791302e-001
      1.6588185519019680e-001 -1.5179522561976182e+000
      1.1904506347672268e-002 1.6458217256068233e-002
      4.7558955034867186e-002 -1.6319065642852273e-001
      1.2202085283092141e-001 -1.0067865843942396e+000
      4.5549395606710125e-001 1.0808976539686945e+000
      6.6294651571031427e-002 5.2365768635649679e-001
      -2.1257135843193670e-001 2.0240453525241045e-001
      6.5395037576136891e-003 5.2050058135473927e-002
      -4.5639770741703406e-001 1.7471494356805123e-001
      -4.2250797692485531e-001 1.8454161032143609e-001
      -6.5216501125538173e-002 4.5676107646759850e-001
      -1.2537275980960669e-001 -7.3975638055672699e-002
      -1.7903823361574935e+000 6.9037630090164476e-002
      -1.5768911002368966e-002 -2.4019215727595289e-001
      2.3882883192741414e-001 2.5512234332746841e-001
      -2.0992894656151809e-001 -5.3332623740595342e-001
      1.3202984923919409e-001 3.6615915661628445e-002
      -3.5126039136866222e-001 -2.7687372258876619e-001
      -5.2443957353093662e-001 -3.2980831567875207e-002
      1.9964725636100056e-001 2.4023903268134965e-002
      5.0802721366215227e-002 -1.8300957715103564e-001
      -1.3777115948036120e-001 -7.4123270909991198e-002
      2.4230696282406824e-001 -1.1216865005178284e-001
      -5.3595768112218611e-002 -5.3304338600704312e-002
      -3.7645873014005737e-001 8.3697995742155662e-001
      2.9071735409416005e-001 1.1673698433245344e-001
      5.4687374174748775e-002 -2.3111679924304986e-002
      3.3356458307250460e-002 6.7350464200087112e-002
      -8.6005198896913312e-002 5.8690973611882337e-002
      1.3677706622077862e-001 -7.9645953631647004e-002
      -2.6817733892281892e-001 -5.6689301762216836e-002
      -1.0296195124675321e-001 2.1584711801490084e-001
      -1.3306098344356199e-001 -3.7468826265098915e-001
      -1.0029985955812927e-001 1.5288107880086785e-001
      -1.1447794168048732e-001 -1.2283179290510281e-001
      -4.4663108198979201e-002 -1.5007064230525516e-001
      2.0436826908874456e-001 1.3201105208098174e-001
      -7.5778551381684489e-002 -1.1466189319516062e-001
      5.2318309520578296e-002 7.2353405763990091e-003
      7.4435154466059958e-002 -6.6449201781023010e-002
      1.7365458748489498e-001 -1.8484990844551089e-001
      -2.3026938130412181e-001 -1.8803399435375446e-002
      1.9429952811807902e-002 4.4736106156132227e-001
      3.1344152700032996e-001 2.9218697168711510e-001
      4.9374088447733278e-002 -6.0892084335269804e-002
      7.1905364866167276e-002 -1.8417835124386425e-001
      8.9586262196801145e-002 1.1293375909246194e-001
      3.4347423238098931e-002 4.2712258884091615e-002
      -7.5568482224904254e-002 1.1407947513747282e-001
      -2.6559949265116418e-002 -2.7634123921594289e-001
      -5.8317572003327101e-002 1.9084536465108684e-001
      -1.3733090380560797e-001 4.4976029438311355e-001
      1.1411344724081839e-001 -2.0507461975595204e-001
      -2.5729624878064139e-001 1.9820893255888686e-001
      -2.1313304071104294e-001 8.5168986568924868e-002
      -8.7427016843188807e-002 -1.5498140374342395e-001
      3.3644417370452634e-001 6.8055289497334998e-002
      -2.3918696854488794e-001 -1.1706123315209832e-001
      -1.8581637150871874e-001 -6.2187633531129174e-002
      2.7427207056335035e-001 -5.7324714980416178e-002
      -1.0475895857255753e-001 -4.8581884974354328e-001
      -1.1751852962755688e-001 -2.7483439422985000e-002
      2.4328285075810277e-001 3.3384829115415215e-001
      -1.4493716830224357e-001 2.3287093577026488e+000
      2.2799551635150467e-001 1.7989079482279322e-001
      -1.4752936939325823e-001 -2.3835633808093340e-001
      2.8276720601188549e-001 -8.7349551119844521e-002
      2.3604480623443783e-001 -1.1296040696545420e-001
      6.5479825858824781e-001 -1.0506264196668404e-001
      -1.1244564342617974e-001 -7.3098394245611020e-001
      -1.1094486107221527e-001 2.4098437080327318e-002
      -4.6023706288978677e-001 -2.1402979132419200e-001
      -1.8800650944587069e-001 2.7692521029196455e-002
      1.0020837780632251e-001 -8.9738041943743893e-002
      9.3123613839961566e-002 3.5677982154512666e-001
      2.1109597073139854e+000 -1.7547069225411793e-001
      3.8894013738803634e-002 -5.3388575126805740e-002
      -1.6470915684924001e-001 1.5855168392979571e-001
      1.5778895607722063e+000 -8.4368243205372950e-002
      1.2150043036499411e-001 2.5602946686588617e-002
      -2.7201395960928904e-001 -1.2783087163431103e-001
      -2.9708467731844834e-002 -7.0814754746123088e-002
      -2.7120736123814254e-001 2.8960519486752839e-001
      -7.1751274970295306e-002 1.1418209781474571e+000
      -9.6897312938388856e-003 7.3244644343198745e-002
      6.6730137569634349e-002 4.4819957784436601e-003
      -7.3352079218209756e-002 -2.2962700098812508e-001
      -3.6835801866561768e-002 7.2285862665020698e-002
      1.5565360535883274e-001 2.1591448721995185e-001
      -6.0166069937270618e-002 -3.4843112153200345e-001
      -5.5418261468084859e-002 3.8542040245732968e-002
      -8.7845664530378231e-003 -6.7084704339840695e-001
      -1.8404954784902455e-001 -3.7234085190153493e-001
      -6.3138435398509524e-002 -8.5690247261631089e-002
      1.3303916458505419e-001 4.7728857537944136e-001
      2.5958698635902760e-001 -1.3270514422940655e-001
      1.7893813919225318e-001 2.6921105266235396e-001
      -2.1373018420648207e-001 -1.2350175033545649e-001
      2.5314933674036805e-001 -1.0158481678122863e-001
      2.1712133846109405e-001 -7.0215505240895162e-002
      -6.4138102417373999e-001 3.5813764136567960e-001
      -3.1157136696572242e-003 4.0089692450801635e-002
      -5.1289855820542340e-001 2.2898708045030833e-003
      -9.9252451265340949e-002 -1.0223545513596197e-001
      -1.2195461879787138e-001 3.8475996354709871e-002
      -5.4140775449458160e-002 -6.9722346409022921e-003
      1.9291219585954058e-002 -1.1541842977999872e-001
      4.2053055427225672e-001 2.0105660967221337e-001
      8.3188447852091355e-002 -1.7019578748461414e-001
      7.6988868735150651e-001 1.1247319855559099e-001
      -2.3700981248830862e-002 -4.4070537377470069e-002
      1.5549411508546451e-001 -2.4958894853103791e-001
      -7.9714130718018819e-002 9.9878640870158908e-002
      2.0587284803477146e-001 -1.9903086755969074e-001
      -3.0798631094406265e-001 4.6912493773679353e-001
      -1.3878571201204301e-001 5.9237358999804715e-002
      2.7044543712980751e-001 4.8440358463245803e-001
      2.1435637577643285e-001 4.3364788143912719e-001
      3.1774431665012920e-001 3.6360001541788332e-002
      1.3572720843146138e-001 -1.9842730184011288e-002
      -1.1070304675894227e-001 3.3224813086500471e-001
      6.6253716297410087e-002 -6.5354771517487451e-003
      3.0149614525175974e-002 -1.7435542619218317e-001
      6.0098298505207148e-001 1.9287887055518621e-001
      5.6702348037736237e-002 2.7812758390894175e-003
      2.1467471187124590e-001 -1.6019747562335407e-001
      -7.2730397282558840e-002 5.8690600922769320e-001
      -1.1639298276347634e-001 1.7189182289823710e-001
      -1.3533525111832026e-001 -6.4475179597824658e-002
      -1.4763278577687805e-001 2.1031500383869633e-001
      2.0702493521941631e-002 -1.9776940550997133e-002
      1.8055960703733326e-001 -1.2734045910687795e-002
      4.4700319425304519e-001 3.9434248286942214e-001
      1.3488356339897681e-001 8.0617774046906865e-001
      -1.3129819552326522e-001 -5.6838793947457289e-001
      5.0256688360984003e-001 9.1537492819416214e-002
      -1.6748816168133721e-001 5.9311393937742984e-001
      -6.4650949538152883e-002 7.9202701146744825e-002
      -2.4295152140567464e-001 2.4508797842373187e-001
      1.8319883086206976e-001 -1.3714381799887229e-001
      1.6710180302347613e-001 8.1544784017657812e-001
      1.0722298516534906e-001 -7.3292072336553035e-002
      -4.2473232019151125e-001 -2.1280258405996177e-001
      6.6136203074379341e-002 -4.1561171622466209e-001
      -7.3759008800142370e-002 -3.5138458436106981e-002
      -9.0205639314468275e-002 -4.4081905892750725e-002
      -9.7224762713381860e-002 5.4896476673931598e-002
      -5.8970464080105800e-001 -1.5292802499933089e-001
      -7.4158178501453648e-002 5.5682043824003524e-001
      1.5966322402604413e-001 6.6969378123869472e-001
      -1.2773734389928942e-001 -6.1149763148089772e-002
      -6.4581720790309827e-002 -8.5673487427650713e-002
      1.2036355372276508e-001 -7.3558065617536847e-002
      -1.6925955261642953e-001 -1.3840530616412917e-002
      7.3675566069779319e-002 -8.5063858927410751e-002
      -1.3713727594981501e-001 7.3548691663730223e-002
      -1.1326020963321902e-001 -5.2769431285510766e-002
      5.2887013418928319e-001 6.9760880467002795e-002
      1.7788050212009784e-001 8.7136926731949771e-001
      -1.0184468486968570e-001 -4.2998251912325557e-002
      3.0592849342526018e-001 -9.6667059798703683e-003
      1.0907123228157547e+000 1.5179776495365802e-001
      -1.8628743627389516e-001 -2.6213435468354152e-001
      1.2193393422491511e-002 1.7878629148976893e-001
      -1.1596681101190019e-001 -7.5580934652424409e-002
      -7.8361050760439754e-002 3.9996625026718817e-003
      2.8078943230845804e-001 1.7360123590107000e-002
      -7.3322371799080299e-001 -1.4053173741041669e-001
      -2.4162728575752646e-001 6.3181203527397548e-002
      -5.9218014303569148e-002 5.1199922036666878e-001
      -1.9845802555939326e-001 9.6100135150823951e-001
      -1.9658997683570226e-001 -1.3272791545504348e-001
      -7.2016973711325219e-002 9.1057163541254871e-002
      -6.2515583307409972e-002 7.3726846691066278e-003
      -4.9692091158254521e-002 -4.4839543447584218e-001
      8.4490564604254484e-002 -6.6186148208063197e-003
      -4.0299894384525026e-001 7.5051581603485004e-002
      1.9380329368556026e-001 -2.2226638264641072e-001
      -1.4423996802735536e-001 1.3949618348607909e-001
      3.8369219845387126e-001 -1.2329002926415554e-001
      2.8137866368376652e-001 -1.5686434945521766e+000
      5.6114671167967012e-001 9.6816300310291514e-001
      1.1505035554253538e-001 -3.6820903941550312e-002
      2.5651655105700631e-002 -1.2186590142511683e-001
      1.7593533225432806e-001 -1.3408319150301706e-001
      3.9609453099132952e-001 1.6222258887898902e-001
      1.1147124353677262e-001 -1.1621800072589060e-001
      -2.9243719838071419e-002 -2.0268657225342268e-001
      -1.4754509826729134e-001 -3.7392491764287195e-001
      -6.0367055795372056e-002 1.3242230573536201e-001
      5.8676427863774069e-002 -8.0584284052242383e-002
      -3.1461138111934372e-001 -3.5960795192888595e-001
      -1.0670886570618224e-001 1.1974002477537589e+000
      -7.1026017146770898e-002 7.4563309769936401e-002
      -1.7757435316148854e-001 -7.0561075963541209e-001
      2.5679608345688398e-001 3.7769123357747000e-002
      -1.0621184465888696e-001 2.5947706548266197e-001
      -1.4315265293765192e-001 -2.0119537851513716e-001
      -2.7172737893135585e-001 1.9561695517221475e-001
      1.3550277665810949e-002 -2.4457032144472587e-001
      1.1423649942699774e+000 -3.9709897308413467e-001
      3.1997546218107437e-001 -4.8171811477331100e-002
      1.4799649742248733e-001 -4.1610745892135821e-002
      -1.5761493263534526e-001 -3.9306189396988767e-001
      3.6628578328056695e-002 -3.1371603105157259e-001
      2.9388538488102844e-001 1.7072122616013963e-001
      2.0460141985100291e-001 -6.1970630658570669e-001
      -1.8689681203780409e-001 -3.2990602604442038e-001
      -6.0903432828863145e-002 5.3516670111097187e-001
      -1.9929503116577676e-001 -3.1341117903835020e-001
      -1.1029572616796783e-001 9.0381054406423231e-002
      -8.2871229074888819e-001 -5.9971330160677461e-001
      -2.7594075048211653e-001 2.5103927668812576e-001
      -2.6196590008468336e-002 7.3083558835648307e-002
      -6.9318831643686060e-002 -2.3266766350455374e-002
      -3.3146515952518371e-002 -1.6942559583060829e-001
      -3.3395658916620752e-001 3.2386603817782339e-001
      4.7634500856093492e-001 -6.5249000205292618e-002
      -1.2953428616959763e+000 -7.1890231132741927e-002
      4.9661142333387108e-002 1.1701386496873358e+000
      2.9976895105803747e-001 -8.7758398334026516e-002
      -6.4584152360358127e-001 1.4841598574705822e-001
      3.7315572822901633e-001 -5.7932813370175293e-002
      1.4357444770239580e-001 6.1819746909147419e-003
      -3.0126913656201110e-001 1.3139412010948134e-001
      -1.5403322222775889e-001 2.6894996475472321e-001
